{"layers": [{"type": "DenseLayer", "input_size": 784, "output_size": 128, "activation": "relu", "weights": [[6.851550885321383e-05, -9.942096315828595e-05, 4.847329474413778e-06, 0.00013102527264332017, -0.00010283324340636132, 7.960115195507663e-05, -0.0001075668140045745, -0.00014885672771626388, 3.199843397748924e-05, 0.0001296642768263795, -0.00025112937646756784, 0.00018808508985961094, -1.8926525992823083e-05, -0.0001487348625140326, -0.00014923106711038384, 3.831347625572398e-05, 1.3628516966671808e-05, -2.1887406504753797e-05, 0.00022935290316215612, 2.976418828205721e-05, -9.281273297291652e-05, 9.608608420288584e-05, -3.210468276997044e-05, 0.00019231487865475233, 0.00020689550668748696, 0.00014849388746325022, -0.00022050179282140158, 0.00014819799304341608, 0.00011682532665288444, 0.00012948259332171407, -0.0002300102569337437, 0.0001253575521621884, -9.382942239188286e-05, 3.913657237071362e-05, 4.392433681561135e-05, 0.002804384793084607, 0.005172513284189976, -5.494486320163706e-05, 0.024933174208243272, 0.02365116364228385, 0.023759609071454565, 0.01924011604151031, 2.0357784039563066e-05, 6.366965264124725e-05, 0.00031916202620594936, 0.00035437815461240445, -0.00012519611414617976, 2.9737916251430064e-05, -0.00010485488119368419, 2.013124538463476e-05, 0.0261072983747143, 0.027808317213052092, 0.00011724388816304544, 9.046856765030091e-05, -0.0002131911098538394, -0.00015706807244278661, -3.252854492912134e-05, 0.00025293683656264386, 3.158066336858835e-05, 2.9938086093004277e-05, 4.014767035620473e-05, 6.735909678851759e-05, 0.00010777840657743787, 0.001243576638547279, 0.003012103404979599, -0.00020799675199760018, 0.019432301687425556, 0.04541480634049493, 0.12230922737319583, 0.17906797795239024, 0.2470465656744469, 0.268928307643748, 0.2783528251568349, 0.29073693780963666, 0.1319166981259874, 0.1271104700764202, 7.000666302358112e-07, -4.188165406213406e-06, 0.025403728802930323, 0.026453455809775827, -3.68214792080365e-05, -3.522643030340537e-05, -3.2228071364427826e-05, 0.00021962647258079405, 0.00010763960127850639, -0.00016364913091956867, 0.0002145392935980045, -0.00013027703230747612, -7.332410670759177e-05, -9.656354689532733e-05, -2.4194831696664134e-05, -0.0010162459464962868, -0.00605517254458435, -0.03361714179331684, -0.046538595068130816, -0.02075823177828126, 0.09750732006658665, 0.13304658833804656, 0.2553396601014453, 0.1317013743518595, 0.05415320653773493, 0.10317802481211351, 0.04504875587161553, 0.06443133869035711, -0.004112073654845155, -0.022683336078458908, -0.028626542417446246, -0.010968375151780523, -1.4205751594611733e-05, -0.00016767677598926757, -8.819423668273007e-05, -9.219536325181412e-05, 9.308992549950043e-05, -2.2648419063569237e-05, 0.00017247706531297213, -2.1906581184247372e-05, 0.0005494679461156689, -0.0929850079114097, -0.03829902523610047, 0.009659824161279935, 0.010090506924208303, 0.03570280030908641, -0.004953535656701402, 0.02680545407352925, 0.053965377870267166, 0.057396751928542725, 0.07970958313068359, 0.12171868617638333, 0.08316304540940893, 0.036844928064334086, 0.01965304531625355, 0.025691546078739816, 0.07406748150572579, 0.01253469599202077, -0.022138332726890964, 0.03246882724666458, 0.0013751597036066815, -3.0157699262799885e-05, 1.3056095228843411e-05, 0.00011771546100878493, 0.0001118944126542789, 0.00023132331686048253, 8.361369237128765e-05, -4.2008559555994084e-05, -0.07044495385283983, -0.11869543919017557, -0.17204328779514383, -0.11408717189753874, 0.026489005503518324, 0.04317695809069705, -0.006085525016383673, 0.005030524261960435, -0.07996406166284487, 0.05832809800685206, 0.05618045297035375, 0.012666077102950602, 0.05311096126644752, 0.03809322593354802, 0.018088635518270883, -0.018696930225916054, 0.048652511748539316, 0.09522656569491432, 0.20064182064819477, 5.5344527892341714e-06, -0.05771832561332049, -0.00139694948801999, -5.617578168129269e-07, 0.00017017719556076, 1.6040233185705705e-05, -0.00012977177291384045, -2.9404569940400747e-05, -1.0732787820161252e-05, -0.05564354913086082, -0.044051734902341724, -0.17837784473685495, -0.035943584212523354, 0.061700984639155736, 0.03893809710601383, -0.13008506097414563, 0.08472207056463986, 0.17728927045761453, -0.015048115311260728, 0.07171782102404954, 0.023434374064222982, 0.02502408549031819, 0.07686974936170916, 0.06072910900365667, 0.1401484805983475, 0.002464580359135125, 0.03854707995016116, 0.1077887996326581, 0.03440575921899489, 0.0866310652992489, 2.2487600916760562e-05, -3.704409481863385e-05, -6.386753550790338e-05, 0.00011699126710368114, 0.0001480132917324662, 6.909525241391e-05, -1.2951820839561104e-05, -0.10402958601681414, -0.051316496565678396, -0.10950535991452869, 0.09038287687187037, 0.009178827730412665, 0.04916616111246949, 0.08987951201958357, -0.010356482857076243, 0.046466603498507515, 0.11252618701315174, 0.12339088753623863, -0.009895640299072101, 0.09952085871345034, 0.08485508262468988, 0.15337918344266518, 0.05930806550207279, 0.14835206876495663, 0.09891418126667861, 0.07985312762047049, 0.06175316475191362, 0.012986605609296811, 0.017047065395521012, 0.010683437542232152, 0.00017522750698303029, -0.00018506770398071053, -0.0003444129365640937, -2.7919095044781265e-05, -0.01125286527473883, -0.13287227280208783, -0.0023578427798206583, 0.10152725090727217, -0.006037094972474091, 0.025344666223685825, 0.018537691267017244, 0.015498069526926435, 0.12966150125616152, 0.048123624719786436, -0.008801299095149418, -0.06503938578434114, -0.0065786207051983046, 0.03181131562498399, 0.10266756781265898, -0.0794507365110753, -0.01665539197373166, 0.02949853339025809, -0.12093388247999655, -0.10205875760562202, -0.034956810546361905, 0.017770634927078643, 0.03261052669134067, 1.4526002802684225e-05, 0.00017373883592546638, 0.00023551817413098718, -0.0001157102067624748, -4.6729344727825495e-05, -0.04416698172166256, -0.15823201974113968, -0.004900312854912031, -0.05475443462875252, 0.03225630268581339, 0.004164160887836648, 0.035197894102476826, 0.12019392767594346, 0.006342718937568473, 0.059172008310055736, -0.20243580713804127, -0.37706304117685663, -0.4142463263443658, -0.4577736768541888, -0.36285765650899143, -0.37176034268146035, -0.3372347728067427, -0.2253956235827212, -0.24929196189956418, -0.2599367239759379, -0.1543349268869099, -0.010700494954377159, -0.015673640166915772, 2.5387547695048933e-06, 0.00010930063252648732, -3.14887374381421e-05, -0.00023110841245171742, 5.608222292465306e-05, -0.04572034060208332, -0.10174953754805027, -0.03976492099554097, -0.08720064637397117, 0.08999269560971802, -0.017374864557967527, 0.024668730806200422, -0.02821648605117635, 0.02817473722775595, -0.016007267366109395, -0.23076369763788274, -0.2692569502133648, -0.3172328348401523, -0.16081436616324038, -0.23079183655146054, -0.4105836171718515, -0.43174827689306716, -0.2581001119226521, -0.33820041257329075, -0.2877244684915232, -0.18122345643068305, -0.09838752621307359, -0.09588930980698765, 4.6968235129045955e-05, -2.365132695207931e-05, -0.0003439871629895813, 0.0002143623761784657, -8.170899351328873e-05, -0.006806787914347285, -0.0660096304132649, -0.05171538383256103, 0.02131368645095629, -0.014908914786915287, 0.03428683430119835, 0.09467294736439309, 0.026629710528407978, 0.08264457810093623, -0.04869643027072966, -0.04283769036326199, -0.06476454620598779, -0.03225315135872638, 0.014342201036283617, 0.02973297650463335, -0.1119935946214658, -0.20350901919384265, -0.340879664965915, -0.3280364919377397, -0.40535628781137983, -0.2454149295071283, -0.10628378707530846, -0.040038936689009826, -6.022687207946364e-05, 0.00024715132017450576, 3.2221947849504345e-05, 0.00014907241655921538, 6.325826676977402e-05, 5.529015020220676e-06, -0.07827936708543203, -0.0061120929457283415, 0.024070121063323492, 0.024056107356528435, -0.045631801200238, 0.01913191251673428, 0.0026879384908165254, 0.07252109670629493, 0.02589523291841902, -0.10768817060158056, -0.16470865515305275, -0.0656785796711199, -0.007543213810911623, -0.09089147661865042, 0.013657726979552216, -0.054053226643101686, -0.04493801568977652, -0.16775524258216015, -0.16894392126162308, -0.03575991132762006, -0.007823658396866773, -0.011585797896034113, 2.0861556782649868e-05, 6.585385381683801e-05, 0.00011570434018569263, -0.00011759457327350737, 2.0670899049126816e-05, 1.7378057801269185e-06, -0.0109474050339255, -0.015859550429394065, 0.03141428509609589, 0.025534073396227833, 0.03934785990073768, 0.0004513752678342856, 0.10974904563738981, -0.07255763536201457, -0.0014083784524920725, -0.008911988787085403, -0.13150818810851017, -0.05885219179602326, -0.0928460768318966, -0.05436527780613563, -0.022092195190497172, -0.04647167031874809, -0.0733954004316326, -0.0920113059735285, -0.08904890030193686, 0.06947435052957084, 0.09738640811188784, 0.015299490666500952, 2.915429805001835e-05, -2.4836051678814278e-05, -0.00014322813254634027, -0.00636098801577021, -0.004005793335560376, -2.106712037213963e-05, 0.007684049864206803, 0.02247139027876674, -0.07079022316992066, 0.15527698466441953, 0.07738453969035389, 0.013440187066956162, 0.06955735651604147, 0.03315537458829317, -0.06744886115792369, -0.06808434522364819, -0.13527330183152797, -0.0502348657477676, -0.12193243129254487, -0.014668430355624231, -0.07873249483685243, -0.07279312711656546, -0.014519241905483407, 0.09028644310588822, 0.02237660774636424, 0.17641564642241891, 0.109727308632731, 0.007200764838781186, -1.486819389140599e-05, 0.00016197870778261308, -0.00032527856259731387, -0.013244995939041666, -0.005285433637000119, -0.03292563667413125, -0.03621612561444045, -0.011312629865397274, -0.04257111022720428, -0.0038144697958642304, -0.026122661456585924, 0.0863888886512421, 0.01151603466619052, 0.0005557146441363772, 0.04804959079266184, -0.120111331379931, -0.03704504732574932, -0.07008227937418529, -0.04462096440536433, 0.02128523614201044, -0.059540780672190374, -0.013729977092958357, 0.015634467703416307, 0.03750742856094624, 0.005391111522134516, 0.024935703310614534, 0.1683771276537011, 0.016283957836939096, -3.4852603888863074e-05, 3.09857518596618e-05, 0.00023019527606275934, -0.007758236521384377, -0.007865466440671327, -0.08288087443049584, -0.04383010642422941, -0.09223178445081484, -0.10445225251769794, 0.0005556766315674868, 0.010439495457023404, -0.00761370108619684, 0.02243459923079408, -0.0027995297352737146, -0.0349496458577129, -0.13389530293778965, -0.014834512882976854, -0.0520095307352983, -0.008004835720619528, 0.028723225432472084, -0.003965809931303092, -0.07044251234513738, 0.044517227547497276, -0.020319522937842217, 0.08704132149503652, 0.012103809438332924, 0.09201402174315373, 0.06254671491513951, 0.010250113228365486, 3.2798177750597126e-05, 0.00017237744085562512, 0.0008629915779648046, -0.00761168032870456, 0.019435877945378283, 0.0038134495766636712, -0.07177997041063224, -0.010847258971863403, 0.04890736654191731, 0.009989583722438265, -0.007805690633524664, -0.004064127510329797, 0.04903209880818912, 0.05376433248345597, -0.02312646172722992, -0.15315065188980406, -0.10793115603335209, -0.0020185561743218086, -0.00798473445718677, 0.010203414775088506, 0.0201150012523147, 0.05348939400858951, 0.04117901811566108, 0.1168897104054809, 0.08151594678540898, 0.02386834200774967, 0.02700259237491381, -0.03123238432382584, 4.613702004736376e-05, -0.00032598740441540066, -0.00014992524751681867, -0.0005872608753356046, 0.07460771257471677, 0.016295112797097076, -0.028770942683888537, -0.10010704781034444, -0.008236950399381021, 0.00404349051214976, -0.02856262194969961, 0.015025676796298928, -0.127741027657427, -0.03591178802317732, -0.19455096281750492, -0.1890787023423956, -0.11420756454292821, -0.11173283161528831, -0.004256462872316764, 0.015802006219303225, -0.014333018405266748, 0.07446332465019506, 0.049900438128236996, 0.0458307273805025, 0.04390618837941549, 0.059988872826480084, -0.02071243826290329, -0.07410348961443503, -0.022000387634444726, 0.00012223324891976083, 8.905864117262233e-05, 0.04216524213973865, 0.1230693632257568, 0.159945569547243, 0.10601364729926528, 0.028304103555896225, -0.05439371183590748, -0.056477315375122905, -0.08746209656476539, -0.038508553976193786, -0.041727179834989206, 0.14476691294389585, -0.057259146869925996, -0.10926417784369795, -0.10497791040119814, -0.0011845439381488153, 0.11457229095233565, 0.025712616466659767, -0.08593987505085253, 0.012380778051839363, 0.014642122487129408, 0.08486806161936844, 0.018766353392214757, 0.025942063491847106, -0.005874728719477738, -0.03278290752297474, 7.767065620922207e-05, 0.00020972653651460995, -0.00013393436358998656, 0.0261795877885262, 0.20068050046842356, 0.25479587408815546, 0.04544941096382396, -0.10157631229145228, -0.03306365538277672, 0.013770282843798057, 0.04981668077659392, -0.09499710390222219, -0.03764535877561159, 0.02779284163024293, 0.07760868232678003, 0.033793744977201085, 0.03640811309406982, 0.08181436465393538, 0.019772715850200035, 0.0807980037580495, -0.07434318174017505, 0.03368840370698763, 0.021589064584199374, 0.0608467636247265, -0.07915611634776518, -0.006630717379277627, 0.08610567404339238, -1.1855987687964392e-05, -0.00021757457243157827, 0.00011382824650139042, -0.00011152595678334438, 3.5389046530496615e-06, 0.10808762762246452, 0.12528202188251397, 0.07965204236961489, 0.007587590598612042, -0.015152645529645745, 0.0053785872096162955, 0.03858173460251788, 0.04057799426730942, 0.05129050255959574, 0.04496641725522143, 0.0069587176234178864, 0.05270723850268661, 0.04665185244317383, 0.06559524107787186, 0.006126859907905664, 0.03441936309892171, -0.07380016654449711, 0.03499175103749247, -0.004020141343345496, 0.12424077964503188, -0.03749026195131072, 0.04875766514692991, 0.19148133385997013, 2.5452576205996473e-05, 9.399613192519427e-05, -2.982080503370266e-05, 0.00012018640380334617, -8.410957648636466e-05, 0.027702291389180306, 0.13016635762765238, 0.07341616139970952, -0.04191735433394632, 0.04208483215587827, -0.04685567321838265, 0.025329641901647697, 1.2503600917905793e-05, 0.0331503979562378, 0.06921945763640962, -0.03621918745989823, 0.06484346531796724, 0.08571777649959829, 0.11396035913504533, 0.04438002796943464, -0.0015362418489367894, 0.032552659857893684, 0.01088769055238684, -0.00801965141833797, -0.012060460624220688, 0.05132858538355418, -0.015516333338474598, 0.1936914551542493, 0.016469583231648988, 0.0002091175726093548, 4.64775170143632e-05, 3.9166954823714e-05, 1.3781975816219611e-05, -3.139756322349891e-05, 0.07570588120903879, 0.11835343238913298, 0.05800854651985328, -0.044731640940414714, -0.018944692765114846, 0.01912619609351553, -0.052787498660310996, -0.005006269851671751, 0.07521122422780568, -0.03603329692332577, -0.004873739756866322, 0.09518180020188731, -0.009064180205958115, 0.11736470779691192, -0.043382850315975385, 0.01412008689722176, 0.01927029288911458, 0.02383145346243358, 0.06712004880831177, 0.08553862264797858, -0.02186305059967102, 0.09658024283564046, 0.011026231391922854, -6.52341171529934e-05, -9.341519411932294e-05, 0.00014898101917911594, -9.977272514962244e-05, -5.602329963925909e-06, 0.03904873584896725, 0.08503686314346835, 0.08184111086049485, 0.07789015450737366, -0.02115853129110498, 0.0708456407094773, 0.07355744045384101, -0.0009818584291184634, 0.10246003693528277, -0.022718059137046907, 0.030617939691668157, 0.001138585687514697, 0.01816800863691321, 0.02398344566689662, -0.019804795708923243, 0.019383758147068407, 0.06926384135694946, 0.03869536934959507, 0.0035088898716514596, -0.042306249723183205, -0.041934261517933155, 8.892392379480422e-05, 0.00023144684998436813, 0.0001292713460447591, 3.521292967243798e-05, 0.00021285175494783684, 2.5956203402275315e-05, -9.456163641317265e-06, -1.0647857585397481e-05, -5.3782008304027085e-06, 0.05962949906395053, 0.03796785727693265, 0.001356206548299796, 0.06513905944233522, 0.06506292757759805, 0.11265132886930647, 0.10502657970981528, 0.1639513189719924, 0.0491594068805417, 0.054487937040612645, 0.1258481435144813, 0.11380348035863214, 0.19224458128766891, 0.15389062627263592, 0.1699781725540069, 0.12043307307879966, 0.1867640923153696, -0.011493854618175902, -0.015688163860680227, 0.00012888771916087473, -2.1530600480195534e-06, 0.00012922560394489416, -0.0001889184187895861, 9.579784653051077e-05, 0.00012720212459482592, -0.00014866419216777988, 0.00015728917251018042, -2.0050477957375202e-05, -0.00011270067242031772, -7.638528302029554e-05, -5.8347191133002284e-05, -2.249979805607292e-05, -2.1338349928725544e-05, 2.923994862039845e-06, 7.0917930439390375e-06, 3.1921789847882486e-06, -3.239317140640039e-06, 1.1240501262017805e-05, 0.02313833127280062, 0.03361413330358379, 0.10559379149362493, 0.14769562413744566, 0.07531412568929226, 0.08478453289875114, 6.55393412153175e-06, 5.5995240813300685e-05, 3.033008899858668e-05, -0.00034408114361103494, -3.4547462583246996e-05, 1.2180926830855806e-05, -0.00023087103941120467, 2.395904484826526e-05, -0.00011750744739911503, -9.07491054791444e-05, -0.00023505342591850637, -0.00011639081516025001, -0.00012925379148329543, -0.00013797985109963526, 0.000226603911164146, 0.00019090784372348892, -0.00013980227087876385, 0.00014940465505020856, -0.0001491039961128516, 3.465026578023932e-05, -1.8033402634385666e-05, 0.00020783051950917883, 0.00011336560912672017, -5.088960623709855e-05, -1.2961202912604193e-05, -9.063527895847588e-05, 0.00013703481029084008, -1.5346665457202667e-05, 1.8212101078874994e-05, 2.132723143161047e-05, -0.00013963260525623407, 0.00011689897284137131, 0.0001493902368565219, -0.00034537709691249426], [-0.00010280264263726392, -0.00016140239287518973, -0.000235458559602201, -0.0001726578985679843, 9.463021484152067e-05, 0.00012254699660679884, -4.1033743787556066e-05, -9.525031709562708e-05, -9.075259426069339e-05, 0.00021449794672640543, -4.017157996319409e-06, -0.00015751003464882545, 0.0001710436395718652, 0.00023378259420066082, 9.971661672640122e-05, 0.0001492816319540213, 9.580486393477823e-05, -0.0002296379293560829, -9.093464604083761e-05, 0.00032712842759763784, -9.569902009245441e-05, -6.85156391979365e-05, 1.0066956654345132e-05, 0.00010051126703729721, -0.00027806226339769887, -2.828612750785534e-05, -0.00014480592075899975, -1.3198747286461191e-05, -0.00016151599241795116, -0.00012819895005060245, 0.00015788408562491355, 0.00011518149459826621, 0.00023557274813499615, 2.8820953859228526e-05, -0.00014797118222565592, -0.00012917644110007592, 7.269958987869777e-05, -0.0001265136293319068, 7.186705352285022e-05, -0.0001948907299796214, 0.0004255057799481928, -2.2097652360343874e-05, -5.224569737027014e-06, 3.175582020792066e-05, -9.658832079390475e-05, 0.0002555602491170862, -0.008224920893717149, -0.008123670425712775, -0.007918321961656385, -0.0019991352862204466, -0.00014912716643614195, 0.00020009903223408158, 3.447597570800547e-05, -0.00011766442510729014, 0.00024949426332082983, -9.015765101548964e-05, 0.00010651191470573539, -0.000345026075575764, -0.00011698854650545952, -0.00011876939316676104, -0.00012969948097316933, -5.5777150828479716e-05, 0.00013823097297095742, 0.00010947187515391561, 3.859853739134598e-05, -0.00039461662594821435, -3.5219681392472354e-06, -0.006363609138551983, 0.03835135387249143, 0.05339832897395301, 0.004111751653520765, -0.01815892649674221, -0.020470905185880895, -0.0033491397792703055, -0.006076695567074181, -0.006779971856682752, -0.005627041931956444, -0.0019330019318865984, -4.999389351044217e-05, 7.295485616722275e-05, -9.508713848237138e-05, -0.0001921835911507275, -9.838295214637942e-05, -0.0001655022576204535, 0.0001888062202072803, 9.079077040945042e-05, 8.951252758166806e-05, -0.0001087602122492383, 0.00028922837237951534, -1.2338509497451185e-05, -0.00031384070091239406, 7.404075110482027e-05, 0.023699509136471036, 0.07070740035794669, 0.040923490381483844, 0.011999903744802788, 0.04036683659789232, 0.09506279022237388, -0.02045943270503873, -0.09784647768010446, -0.11880767765278319, -0.07396631881327487, 0.007063047838624385, -0.06783506745767792, -0.07413555436634352, -6.160165482863273e-06, -9.294938703624623e-06, 3.2741911390050408e-06, 4.3137597786801224e-05, 0.00011801745693426189, -3.7409974796751884e-05, -0.00012951257403572857, 0.00023493698630643587, -1.0305080007901946e-05, 0.0001487512375285151, 2.0484789042896233e-05, -3.716534413538976e-05, 0.010114185083794023, 0.02335619145517598, 0.011438953113488744, 0.042275084776761424, -0.020345110055697377, 0.0805667244958638, 0.09567559278319801, 0.12106696474018207, 0.1570494901365762, 0.03136762846381539, 0.10874651133276717, 0.1174636553641743, -0.030584496267605645, -0.016347431951536522, -0.03546625751627559, -0.053666453860054336, -0.07486852689634509, -0.019881906432148662, -0.027417006056140118, -4.450996374348113e-06, -9.590244267994818e-05, -9.091989968285911e-05, 6.583350773770354e-05, -0.00014803291149627959, 0.0001923656783363533, -1.4096539143341593e-06, 2.3763698269405126e-05, 0.09747768058645404, 0.0990496196404322, 0.1626868284722821, 0.02217146799698096, 0.011222811841308083, 0.06365929381808728, -0.01753416115329117, 0.11549631728680203, 0.004037491886349512, 0.07977953160819884, 0.12133229546132074, -0.03811293548457142, 0.010345145001339906, -0.0031712836288438104, -0.06436839205024764, -0.08185111100177364, -0.1438431669850571, -0.009717077802159683, -0.1801662174905119, -0.10264224566376084, -5.830292225622601e-06, -3.6586759674260955e-05, 0.00012943928267280426, -6.485371683624582e-06, -0.00012865260335404965, -6.52817650880798e-05, -1.5809001608495886e-06, -4.638200956284272e-05, 0.1499597213494676, 0.08379869690661251, 0.1290422268238321, 0.06534585935320461, -0.004719629297658964, 0.18037499361234602, 0.1834192007280746, 0.09149858155460602, 0.04296767121200665, 0.08514865756921297, -0.03591168582768587, 0.005470474865056517, -0.0023988467702394664, 0.034351304530674975, -0.0005850338814576095, 0.03782462291338076, -0.2015429616252762, -0.12358983619058135, -0.12858398103316565, -0.20459097720547725, -0.0031834800869233555, 2.2410135977459558e-05, -0.00011389501137303806, -5.2988041523911054e-05, 0.00017256903746596443, 9.002477997756965e-05, 8.49304605011505e-06, 0.07498747413206262, 0.19461389877968024, 0.10009906083824835, 0.09140780867868087, 0.10542514865778956, 0.08322629955904406, 0.09109800905588458, 0.07263973585801912, 0.05080321153184708, 0.08394874838883276, 0.08358837023779594, 0.10685204215638161, 0.01823106027182988, -0.017156689670383706, -0.00976413432838879, -0.009380991412475094, 0.09028352178267572, -0.06402071163537756, -0.1905952572184545, -0.15024507662041564, -0.16812544151550352, -0.17177942375973437, -0.017490304715939126, 1.1731840440379413e-07, -0.0001688948222227795, -9.569634560595445e-05, -2.9467062545896265e-05, -0.0011043815998635672, 0.107881952214141, 0.11609360379484499, -0.01309234212097226, 0.034981868770595476, 0.11961014643588111, 0.01336360077900266, 0.14736545471439144, 0.06186467501563725, 0.03701566930032436, 0.10056887508336043, 0.00039331144930820656, 0.09750964039062034, 0.05324267086090655, 0.07057361223855527, 0.07668377676510316, 0.012347242490657362, 0.01577986117987362, -0.013893999692808953, -0.14461989783324916, -0.09708186818436658, -0.2470879143236622, -0.11394883720047114, -1.4421780504192398e-05, -1.3244223537471584e-05, -2.5917642126102117e-05, -1.6410201167030815e-05, 1.0355829141502071e-05, -0.011968861284099536, 0.06091939903083457, 0.17699110663734882, 0.0030407071253528337, 0.00598181843347718, -0.02213921087162482, -0.022473879285139938, -0.11614818720538327, -0.16450341023558573, -0.23937023487275572, -0.10193895034919331, -0.0261970406185378, 0.11646527937928425, 0.16065152837755728, 0.11161005091929309, 0.034135259411548116, 0.08932196356488063, -0.03348768442903988, 0.03812833348646434, -0.013200078893420364, -0.07679317875034748, -0.20992516859074395, -0.1325629225527057, 7.54244279034197e-06, 3.364895431903303e-05, 3.696399568760827e-05, -0.00010763248596310818, -1.3634411408034805e-05, -0.005886878404146884, 0.046116887789011685, 0.030736689802870414, -0.10334935759038755, -0.16040027089498377, -0.2137626968379152, -0.33043640822767867, -0.1739058735622683, -0.28394208728686976, -0.13726355158682368, -0.18941841891682323, 0.013596064588353796, 0.0749692617373036, 0.016958770446355954, 0.04229392999199604, 0.10333032390967917, -0.01274024971764802, 0.05726543362739309, 0.038162332660696865, 0.007882599398278678, -0.032719551297385095, -0.17604322203537123, -0.07442684579146358, 4.7174591929957655e-06, -0.00013578551010755486, 0.00013986619889838162, 9.833341802705971e-05, -1.0282894191166103e-05, -0.000561875593996493, 0.08536234958539536, -0.08712166108413538, -0.17768644604593536, -0.24586995999027383, -0.27358317920864467, -0.2719297506021272, -0.2267964468344973, -0.15800275245337134, -0.06619347290413204, -0.061410157769726866, 0.04619188142977253, 0.11698458336824705, 0.09182192740297741, -0.0429815454471344, -0.017630404725642163, -0.051292612785900284, -0.08485395338037789, 0.1244151266340991, -0.1249518779327801, -0.12835607447053685, -0.020823665256439396, -0.11451576151307445, 0.014846122967255654, -3.5522977271619237e-05, -1.5815369369844583e-05, -2.9782449446076012e-05, 1.4435648394743224e-07, -0.00028363609175431365, -3.920760256576437e-06, -0.18828218963234977, -0.1875136741785594, -0.1845061766846744, -0.1609749780308197, -0.0850923037542349, -0.06173594221388198, 0.06372371852257075, 0.13512410483478385, -0.003925360712484456, -0.11703812014000436, -0.04004753482888751, -0.04145595827245862, -0.09739580973235129, 0.004821638496277367, -0.014777973752511551, -0.10628572252616243, -0.06433814605713989, -0.25214363820869035, -0.11143855433979491, -0.014198102119623884, 0.008683462270009374, 0.020696404641795126, 7.104302721984554e-05, 1.5915077036032243e-05, 0.0001276919206234703, 7.99767356937805e-06, -8.53260037183341e-06, 2.8476788176464788e-05, -0.10009895452002758, -0.17293801836402442, -0.06581465852777, 0.02122835382101329, 0.07646987727891062, 0.09961074639467418, 0.004770514478026252, -0.00989088787173737, -0.08040194682360141, 0.018270184183865595, 0.04020996997818865, -0.08611758790473499, -0.030008161866290923, -0.04024991538245201, 0.0319035533794109, -0.02075869480005577, -0.039810379288751065, 0.020400918514418703, -0.02869335655966167, 3.1473785802422967e-06, -0.050137948187068695, 0.005985727101247994, -7.650731208306953e-05, 8.625059203835539e-05, -8.990990596369834e-05, -1.4992061609193207e-06, -1.2275996645442321e-05, 9.861747577927742e-06, -0.07980560003615732, -0.1609711420408685, 0.016326569554886473, 0.03779646272598774, 0.08687445793657173, 0.07857742964539785, 0.04517901319582072, -0.02473806179110585, -0.0498413091725413, -0.017166408883551285, 0.011291370758368472, -0.07154394947603321, 0.020150490731217066, 0.044809881626893054, -0.009856901280813636, 0.018927885981199002, 0.018037664418295313, 0.07985229487195576, -0.10486356157001664, -0.1041027377595373, 0.004257521043688773, 0.0197753659736867, -0.019053472955277154, 1.000134868779265e-05, 0.0001885549372151127, -1.3633617924938156e-05, 0.0009185059971850931, 0.058892982160454126, -0.08430549718998119, -0.06001283197700013, 0.016093322653029596, 0.015107158746793267, 0.008022282473342917, 0.057207792451668446, 0.001977621931251044, -0.002452935069674116, -0.03971527013520837, -0.020712809647798522, -0.0006719374256745116, 0.04133000621063704, -0.028599880957300594, -0.07454100836703197, 0.06635714232681517, 0.027159184431091856, 0.08017379153128902, 0.09427201410302569, 0.11864808984579188, -0.08619322910937367, -0.00027030975641514373, -0.01834214722803013, -0.02942277536119009, 1.3755033377267748e-05, 0.0003126545057246287, -0.00017423031031337335, 0.06624041172055925, 0.08458372314360736, -0.004787030351017006, -0.08400399299469699, -0.09780259389115216, -0.005287789851482345, 0.06512282041476228, 0.002668271303339511, 0.01529955469739731, -0.056268638241934066, -0.08355553185554898, -0.025092834427343284, -0.000444062084987372, -0.06406915889185467, -0.02953244905208752, -0.01723202322384329, 0.04063993845917459, 0.01651815662610237, 0.09003827076676696, 0.09128280954274322, 0.11013621612838716, 0.0394009692978523, 0.15369081034818244, 0.0998152421870146, 0.14954525663801244, -1.9577997996440397e-06, 9.070047373863839e-05, 3.5369156228076502e-06, 0.09495136361333693, 0.12376030265822045, 0.024403681369991555, 0.0031678831479201937, -0.15083905829823932, -0.1708679313267856, -0.1598074262887182, -0.11593303004993986, -0.26273167332694386, -0.16956556181616234, -0.08754045911652253, -0.03618768552981012, 0.008881870343137626, -0.024559587655478648, 0.06619091125599695, -0.007513180809152341, 0.06512731972287795, 0.00813432718542994, 0.01263334265273944, -0.010190277633288947, -0.05811019116097115, 0.07746960455099612, 0.08107617190750098, 0.0626466720497908, 0.06490588465670366, 4.689616802076853e-05, -2.517850664460601e-05, -7.603200203119855e-05, 1.1696223332065035e-05, 0.04518859352074778, 0.02754787867651445, 0.021026681504054682, 0.040790981771710436, -0.06446838380092312, -0.07086565996998569, -0.159396082615868, -0.2089685049328668, -0.06045956519036019, -0.0014342920432106232, 0.03949966289170935, 0.0114629351605546, 0.08099401379974917, 0.07489253895960904, 0.06502827013240099, 0.011498220952882922, 0.06730902536278764, -0.033230760346734556, 0.004097883827667331, 0.05071456257447999, 0.04533120447659713, 0.06793651607888332, 0.0563556253356066, 0.011057921772681896, 0.01539248377563987, 3.1387900889541626e-05, -0.00014947372254518418, -0.027357584214659694, 0.04665774835826048, 0.01956974693469235, -0.005261891257554483, -0.048717904991841705, 0.07284437977323338, 0.005308129481940872, 0.0709268742801565, -0.07028614579748499, -0.11444022993913454, -0.07613151562787818, 0.08887092756952678, 0.0688067847872824, 0.005151553635315837, 0.020863108480313496, -0.010240220028355191, -0.03525885932147134, -0.07440052931975799, -0.0047327200290837364, 0.00015919553688375918, 0.014921898158216554, 0.01908581454052954, 0.05314968508318777, 0.05478708368686302, -0.00017505725593500886, 5.1166754048241617e-05, 0.0001297491588782479, 0.0001969873738346201, -0.017968595223130334, 0.13596363132633632, -0.00647670123762856, -0.0030077748980078508, -0.019577323455335863, -0.0176040855681253, -0.11675224940029148, -0.010956448382691079, -0.014074384461877238, 0.01845763954933529, 0.013317094283291411, -0.010798959568908473, 0.002195747004016068, -0.021482710627769012, 0.05963164506303757, -0.17405317759508376, -0.044989897776988086, -0.0914697275547212, 0.0915471669477972, 0.03492910138975899, 0.061170697186700686, 0.032813084703841325, 0.015005365398989338, 0.00556580720882412, 0.00014533178644718023, 4.575131396583463e-06, 0.00011991616005443125, -8.608610608323912e-05, 0.05802837574437259, 0.05216324943405748, 0.01787699858178518, 0.06562385447996404, 0.02738633624298518, -0.08040621506589246, -0.07716394671223956, -0.10238492898557931, -0.059345031917981184, -0.038700395716627194, -0.023852574373584814, 0.06550655086528333, 0.030291369989771316, -0.08842088678017994, -0.10095320219257828, -0.059570081526300965, 0.012857112980493366, 0.020008383580497814, 0.0656259264202777, -0.04829130568457271, 0.005631235900987812, 0.05261764589385863, -0.043781701377428886, 0.024128452721848086, -4.645634380601046e-05, -3.150125453828507e-05, 0.00015191752605412512, 9.482170920314393e-05, -4.169776718901624e-06, 0.12836670128081304, 0.07184429155223929, -0.004405685786291429, -0.01748768228248168, 0.0035882342184862474, -0.10508397570732969, -0.09402975380543474, 0.03133788894007372, -0.07845129981927254, -0.04407127535628021, 0.06502012751250165, -0.021050046675797403, 0.014514624439319317, -0.029703490579600943, 0.00794671502694084, -0.03791326471662853, -0.02842396634798082, -0.07018500723172129, -0.08695996894614567, -0.013999847537686468, -0.026783020516770523, 0.029532264961665673, 0.017504000373582476, -7.050120021289668e-05, 9.083873335416697e-05, 0.00010011241464765464, 0.00017346716930530178, 4.696840002306052e-06, 0.018436550143038556, 0.10034412480921341, 0.0023515878104597115, -0.09508532588870196, 0.058238403696051384, -0.02488543505841272, 0.0659781877270044, 0.025314352110997626, 0.07282369392517911, 0.017793425780265913, 0.06868360934100153, -0.017921692134825487, 0.02376380395692174, -0.1505213179042492, -0.09542371660115138, -0.10291670148237604, -0.07231466791440926, -0.19836511064715975, -0.08764066867675618, -0.10538952829467808, -8.701042297186436e-05, 0.012895941166454566, 6.301683935237854e-06, 4.158947453398426e-05, -5.8888571635499524e-05, -9.029057193668827e-05, 0.00022944347253910894, -1.2910614339783024e-05, -4.183742165113637e-06, 0.09280205650172625, 0.12983855637570138, 0.03880510456545584, 0.05594181083068696, -0.04391846013235861, -0.04887084794509627, 0.048594757998319645, 0.03377493143022464, 0.02294389415440421, -0.10613268354383207, 0.10264280251836029, -0.13381380113381, -0.10828601741083818, -0.0495571343821171, -0.06152254205035385, -0.1514047510199124, -0.1886358061969089, -0.13548254927054515, 0.014210283655083799, -3.55191500371063e-05, 5.093023765447276e-05, -1.3929158556576832e-06, -3.9288352606113084e-05, 9.537872192680974e-05, -0.0001176921309929565, 3.114099634735532e-05, 1.2916774826571498e-05, -2.2391670284162138e-05, 0.016095941756838154, 0.1165835821186587, 0.04196129281075111, 0.1818479977556062, 0.15907806617071088, 0.26550981322410233, 0.06980110374249282, -0.000919918731791757, 0.05813179756283479, 0.07680239461353508, 0.05772279235377871, -0.047853332262004146, 0.06470892431576519, 0.053690476046451094, -0.01067942124082415, -0.06353873023349906, -0.09430733101617148, -0.10972688141996252, -0.005933257184716093, 3.0469766050322334e-05, 2.136005934667223e-06, -4.100789208261807e-05, -3.8314939316080754e-05, -0.0001295635255996123, 9.519260895840817e-05, -0.0002099076936071098, -9.08948153706615e-05, -0.00022946653885902156, 6.52357550112711e-05, -0.0003947876420923462, -0.002814510854865583, 0.072848459884437, -0.005319326143934487, 0.053347225555941055, 0.0410177841037607, -0.0078932392828475, 0.1278686795752404, 0.22668168352633097, 0.08229952627224078, 0.17690486998225907, 0.08714352818213135, 0.1371830977247261, 0.09330310439585925, -0.01916829623191993, -0.014362635371888425, -1.55620512661717e-05, -6.48434865150152e-06, 5.085870897867548e-05, 0.00023128547939239364, -0.00022840173798672353, -9.053737906857453e-05, 0.000344884007986746, -5.122433879204506e-05, -0.000221497278883777, -0.00012720929476174657, -0.000129449589195944, 3.1850276460088154e-05, -0.0003433076244437343, -0.0001915884136891667, 0.00013306287614810988, -4.485480318731074e-05, -7.935407424548518e-06, 0.023980428905278517, 0.005113796520127812, 2.7921791758838308e-05, 0.008697338699092933, 2.8376376705068974e-05, -2.3064893868713122e-05, -3.4052946313236524e-05, -3.368747786541276e-05, 6.533992195803797e-05, 1.2427593355080105e-05, 0.0002085832980756154, 0.0001463839762976293, -6.910206494276071e-05, -0.00012173430235553172, 0.00017239632799562156, -0.00014459867124368147, -1.3310827851505927e-06, -0.00010600592470261404], [0.00012977945907895379, 0.0001164127315083723, 2.140316829295852e-05, -0.00020690384533667193, 0.0001696331069436603, 0.00014971701128083578, -0.0001537501317152921, 0.0001171941067012074, -0.00020925561061163655, -0.00010267445058267236, 3.254369636029298e-05, 4.645087072077969e-05, -0.0001491185192063574, -1.956714162853999e-05, -0.00011845851551562738, 8.704061648464668e-05, 0.00019232000393630132, 9.065253649001746e-05, 0.0001076384963169087, 0.00021360237603900798, 9.03744049119459e-05, 0.00034544691795991046, 9.005146918073633e-05, -0.00022975548188907606, 0.0002598018483124313, -4.889048392839234e-05, 3.752668876197366e-05, -4.627664997769745e-05, -0.00012972564076275362, 0.0002172704364371398, -0.00014369455148193364, -0.0001653464099471153, 3.460425236198536e-05, -0.00017235532900367398, -3.084898145734377e-05, 0.00010056049653063933, 3.154155476193694e-05, -3.1588515356549126e-05, 2.3952673917115665e-05, 0.0001283321766032507, -0.0001538473903223838, -3.255806477214584e-05, 5.678132236907963e-05, 8.790843450724018e-05, 0.00012999385178047657, -3.7083678952398247e-06, 0.00021244471330872415, -0.00018266486252219383, -0.000230731591789237, 0.00016490567774261184, 0.0001493142647337843, 0.0003438363920695939, -0.00023223047899865735, 0.00034508766301880305, 0.00011611726743487295, -0.0002285091409840652, -0.0001164728337911116, 6.671575981786568e-05, 0.00012974487553668078, -0.00021238034315864703, -9.092778107174998e-05, 0.00034427646449067343, 0.00034375013348266403, -0.00021357689654152758, -0.00020171752872952855, -0.00013401290554586036, -0.0002681805503244797, -0.000102265086758009, 6.97776285535709e-05, -8.903515190332315e-05, -1.5922674819920254e-05, 3.1639284406237805e-05, 9.51231794067166e-06, 0.00016543430870885427, 8.462858046650611e-05, -0.0003266700507834308, 8.854987595530433e-05, -0.00012721133304859634, 0.0001880526045639656, 9.544142506752577e-05, -0.00032921560509298223, 3.8201986183445855e-05, 0.00014891652368256622, 0.00027803221181032584, 2.3255259900701214e-05, 0.00023130688839154248, 2.7794833304887413e-05, -9.76980761376655e-05, -0.00011494885682425743, -0.0002127841898709306, -0.00016901250518166678, -0.00021156842779869998, -1.6180509758067447e-05, -0.00014259150096877158, -0.00018862192818790456, -2.780841170512773e-05, -6.532509410244327e-05, 6.856307062861976e-05, 6.340731545610058e-05, 4.841456249118918e-05, 7.535364378631623e-05, -1.549175113713187e-05, -5.7029222219651804e-05, 0.00011710730271622038, -5.9123239590844366e-05, -0.00015658062620173415, 0.00020843486034697082, 5.5850519304637245e-05, 0.00012774313732466687, 0.00020770796486305827, 0.00023313417907131807, -2.9521397969771372e-05, -9.633419023149656e-05, 0.00014874434548359954, 3.291247794409344e-05, -3.2751961003352496e-05, -0.000111082776543285, 0.00010042427009151748, 0.00015645140766930825, -0.0001354205669926358, 5.2620779206363544e-05, 2.6129093992137936e-05, 5.543119157377362e-05, -4.5429912024304495e-05, -3.545674997387579e-05, -3.2909040760621826e-05, -7.456634146284473e-05, -4.1318659307608684e-05, -4.050481289762627e-05, -1.4944887575176914e-05, 1.2435204475069352e-05, -3.83211429114858e-05, -3.330663369524602e-05, -9.93555716599671e-05, 5.265439901446485e-06, -0.00011149549791456593, 0.0002092968885987308, 0.0003343830726695743, 0.00021304043396179172, 0.00011769196904574397, 3.26274317250784e-05, -0.00018806791275398718, 0.0002094551865394803, -0.00011712095016283614, -0.00016777383520506385, -8.628557690105894e-05, -0.00010096851533843517, 4.5952574118595665e-05, 2.9332308442557885e-05, -3.076052791196567e-05, 7.4102031473770824e-06, -3.5597447342465755e-05, -1.9365208744106935e-05, 3.2202455374454254e-06, 1.1710030438298983e-05, 2.3281723504571324e-05, 3.509674306903014e-05, 3.278741958861225e-05, -3.8510737049249225e-06, -2.5564512691607262e-05, 1.9141445105862838e-05, -7.846935672083208e-06, 0.0001096123538099315, -6.560459715245761e-07, -0.00020081028161607762, 8.972740767590045e-05, 0.0001030609776349137, 0.00019930706710791812, -3.186853548736403e-05, 0.00014962293894518953, -0.0002331279721491335, -0.00010459636170687219, -9.347246123682391e-05, 0.00012779591483644086, 5.9349448329856994e-05, -6.151631504302041e-05, -2.06730969189281e-05, -2.0283941820155836e-05, 2.9751911073407652e-05, -1.7765849974319694e-05, 2.2950128540987928e-05, 1.8823947601448222e-05, -1.9588091466019396e-05, -1.6857361511953102e-05, 5.898214678266422e-07, -2.01900444135862e-05, -1.0683642349470682e-05, -4.195717503841798e-07, -1.7057979411298282e-05, 3.69572580728721e-05, -1.9369156271910685e-05, 0.00012853714804512338, -7.133509719197176e-05, -0.00012682801822288856, 9.282347463449512e-05, -3.13192311864932e-05, 0.00011175509279200496, -0.00016498432214087148, 0.00023611816213182815, -0.00023527582455462002, 0.00020417023405794077, -0.0002180017727054208, 2.7252721855633423e-05, 7.361062146179616e-05, -2.743521376085826e-05, -2.201282460904699e-05, 9.367580267195036e-06, -2.1503442922980117e-05, -1.529044416807591e-05, -2.055541514279988e-05, 9.020916930311913e-06, 1.760491313154893e-05, -4.617715176871378e-06, -1.603066459826115e-05, -1.6107299249023985e-05, -6.054397407064083e-06, 2.1559198721835758e-05, -1.706665588923001e-05, 5.1806434650912686e-05, -3.6914083225839285e-05, 5.5603358266888225e-05, -0.00012113452586689148, 9.268778379267405e-05, -0.0001294756843862709, 0.00024605879405285267, -0.00015020789338999379, -0.00017411317144354447, -7.421861115864398e-05, -0.00011280204804330594, 2.5680218945951265e-05, -6.2120262511105865e-06, -2.8107119843921883e-05, 2.8239293288388976e-05, -6.860281658153474e-07, -1.8600352785389346e-05, -4.214856526728664e-05, -1.903979932641673e-05, -2.5590757271109413e-06, -5.011578050955451e-06, 1.6516172484251917e-05, -1.1604592778090403e-05, 1.8930672235649182e-05, -1.4906484923159235e-05, 1.584929587615639e-05, -2.7255834956117998e-06, 2.284253952417288e-05, 5.593978380428379e-05, 3.259925023190804e-05, -9.164019793422382e-05, -0.00032934301712699053, -9.810448556438387e-05, -0.00015585727930716474, -9.059069449042793e-05, -2.9925998660482576e-05, 0.00020589042369699743, 0.00014075250967274808, -6.724072805154501e-05, -4.239146028233164e-06, 4.844849156038782e-05, 1.8182547983918492e-05, 2.4101236525403882e-05, -4.061975869966553e-06, -1.90883553495314e-05, 9.673480544826366e-06, 1.7202009971217735e-05, -1.4116321877616745e-05, 1.6734990774000978e-05, 9.686794834980746e-06, -4.747943917625475e-06, -1.2386186574259412e-05, -1.0175565344980482e-05, -2.932677313225825e-06, -4.671268120552186e-05, -6.2212427344740615e-06, 1.070045853709733e-05, -3.337515273295186e-05, 3.9817576423127263e-07, -0.000144900079546544, 2.4804015279244675e-05, -0.0003412982384150133, 9.045984138033434e-05, 9.35205758670572e-05, -0.00014369751678881324, 0.00012072727352874449, 7.782687744954141e-05, 0.00015198752956439702, 7.223453081487453e-05, 3.464112183837395e-05, -7.706406458633404e-06, -1.725398244295563e-05, -2.7191260790613576e-06, -4.906775776734603e-06, -2.728354986795789e-06, -2.39923553003338e-05, 1.1420693962901611e-05, -1.5556423903159558e-05, -9.7086791845886e-06, -2.622213530835555e-05, -2.080165329497427e-05, 2.362092469682248e-05, 3.3381852457115647e-06, 5.394049477376894e-05, 4.031046841841326e-05, 7.123507665168453e-05, -5.7895901771193715e-05, 0.00033951402211250515, 0.00014541637937152716, 0.00010114592292402859, 9.469530230112469e-05, 0.00034129922355855924, -0.00023196411458704892, -0.0002078274751285255, -7.023546681867354e-05, -4.230940676902847e-05, 5.7418982262569905e-05, -5.481888401922001e-05, -9.778677922957213e-05, -2.4520006788534323e-05, 1.424244417629843e-05, -1.3606681698514212e-05, -5.095608200074265e-06, 4.86213054433091e-06, -1.337589093398627e-05, 2.924010547518487e-05, -1.6815625859130886e-05, 3.9296003729166494e-06, -3.6662133234761357e-06, 2.6152416655215934e-06, -1.5555716435446602e-05, 4.8293211635972636e-05, -6.227012051268258e-05, 6.765729547872733e-05, 7.882022729520281e-05, -0.00013859379395202, 0.00019300991134049982, 0.00014887032792959345, 3.288957809956681e-05, -3.780653624844632e-05, -0.00024429602592820345, 0.00011782731799844563, -9.033602266442485e-05, 0.00010346208554718294, 6.792340104159551e-05, -3.492087184785314e-05, -1.7986314981050228e-05, 5.198283973903086e-06, -2.8101393299505364e-05, -8.887905573445114e-06, -4.174507696054548e-05, 1.4864565165278613e-05, 1.0905288216378953e-05, 5.038428315712787e-06, 3.1969073337000296e-06, 1.0417822616476978e-05, -1.3008999057083947e-05, 3.247079927186258e-05, 2.0525755181407802e-05, -7.354809936373044e-05, 5.2488991877239044e-05, -5.432591081750306e-05, 1.5954628382171597e-05, 6.979159886473788e-05, 0.00014792288190880115, 0.00034487138732706437, 1.7975972804922483e-05, -0.00034484403529216347, 3.550039027232202e-05, 0.0001855302216320158, 4.769051279020696e-05, -9.522780871756652e-05, -6.293726845517097e-05, -1.601169978231328e-05, -1.6720524551583135e-05, -6.282295763696379e-06, 1.0370382584193974e-05, -3.484582154724676e-05, 1.4619148453776338e-05, 9.908852154975179e-06, -3.050113615491743e-06, -2.1155130158562574e-05, 1.7269042427602074e-05, -1.7622703018471395e-05, 8.012617396981139e-06, 2.5051204852694027e-05, 2.4012647758600034e-05, -6.809600966405506e-05, -3.6348044092048594e-05, 5.184854297555961e-05, 5.52488387947723e-05, 5.779483371393855e-07, 2.9201663060533956e-05, -0.00011082535413240355, 0.00011116117807551603, 0.00034445727197870784, 3.0298725308664142e-05, 3.05362929343397e-05, -9.083371340999936e-05, -0.00020164405079715962, 8.568169880296086e-05, -3.466558107115813e-05, 1.34481713479185e-05, -3.425348097965905e-06, -7.082218253857062e-06, 2.103390998707939e-05, -1.271605875643908e-05, -1.9216363379374985e-05, -3.8122442543315045e-06, 1.4071263422536223e-05, 1.948516394162159e-05, 1.6625179984744903e-05, -1.048154920257904e-06, -1.3354953109012263e-05, 3.8116701471753594e-05, 2.9462830684994115e-06, -4.405884015568544e-06, -0.00010529714349826684, -8.449157576304843e-05, 0.00011499828959181331, 0.00016170191596118146, 7.492283070156969e-05, -0.00021214516735701465, -0.00016498567584749665, 1.1346142545731454e-05, -0.00010028627583834504, -1.0226740024505088e-05, -0.00012509931046299281, -9.142857618959669e-05, -4.192363005681803e-05, -2.7440432414275493e-05, 4.438115843702601e-05, 1.8602710698231523e-05, -2.5190698668463254e-05, -2.7669642299889072e-06, -1.330785674555929e-05, 6.44693765339247e-07, -1.3814663190096273e-05, 1.4077792711158521e-05, -5.0457506329319985e-06, -1.0990313252839112e-05, 3.1863471325161574e-05, -1.5120491936253573e-05, -1.729418571806552e-05, 4.080504651068132e-05, 4.697591397109549e-05, 2.449154391808619e-05, -0.0002940496125723432, 0.0001309312160975385, 0.0001484322495708972, -0.00034479063281324303, 0.00012844038914859674, -9.043846177364062e-05, 2.2868359452807958e-06, -0.00014435183568637546, 4.881324047996611e-05, -9.052521345103365e-05, 5.386959579361724e-06, 4.1059237219636723e-05, -2.0716897597791168e-05, -1.7068311069737514e-05, 1.2339726881226296e-05, 2.3199537595518658e-05, 1.348331596817924e-05, -1.038236882123113e-05, -2.9141950239081266e-05, -1.2112825010023888e-05, 1.9028494950846938e-05, -1.755621749350697e-05, 6.961529844942206e-06, -1.3864485642642723e-05, -3.6691704485533736e-05, 4.287500775042449e-05, 0.00011751209850514372, -6.967344812714366e-05, -9.41929820288362e-05, -0.00014224101841247736, -0.0001651178362409348, -0.00014808789110672265, -0.00011781115428531555, -8.852074389330972e-05, -3.200872803650476e-05, -0.0001410282923364225, 3.205580374396175e-05, -1.5504654659015362e-05, 6.127955622076375e-07, 7.451377529336769e-06, -4.332889059003754e-05, -2.878519791852939e-05, -1.732362961794086e-05, -1.2857433257604097e-05, 1.1591009860497845e-05, 2.8659471760794645e-05, -1.7514302579882606e-05, 2.5099012140004556e-06, 1.1350305221170783e-05, -2.013193599008621e-05, 3.584278434155255e-05, 2.5113876362084472e-05, -1.2902499026226404e-05, 4.848174886294624e-05, -5.2000263697369106e-05, -7.276235447212706e-05, -7.056613299805115e-07, 0.00010420274389408933, 3.474422171869112e-05, -0.00016987693012694233, -0.00012967767969057658, 0.00021276436490560882, -3.0856199764949e-05, -0.00011707194061149207, -3.678704755546114e-05, 4.10736283311577e-05, -1.3664793741901721e-05, -1.3725678581950825e-05, -2.0699249046903064e-06, -4.800557482612428e-06, 1.4177309918091637e-05, 9.475286809810595e-07, 1.4467374768525141e-05, 9.076812528611789e-06, -2.8507497372300345e-05, -9.200471226541145e-07, -1.3034703082553936e-05, -2.476078633726871e-06, 2.2777428714057743e-05, 1.4180548059485442e-05, -1.704075678501926e-05, -2.6201561147254496e-05, -8.356320619372294e-05, 2.1285025746714897e-05, -0.00012201911369206779, -0.00039268297647653835, 0.0002120828710886613, -3.1513251888429576e-05, -0.00023269164911503168, 6.92561606336223e-05, -8.706299342023906e-05, -0.0001639493014180563, 5.762823936699348e-05, -7.061285905702244e-05, -2.2489245855811733e-05, -3.3768490337673897e-06, -1.1816619460956705e-05, 1.4329288023196044e-05, 1.0896160142757674e-05, -2.3196497031114806e-05, 2.5060747493454787e-06, -1.7941630495501846e-05, -8.602803720116624e-06, 3.036147583616134e-05, 3.792522368054812e-05, 4.498843355508722e-05, 2.3943472052466643e-05, -6.181637251933659e-05, -2.2006075625365103e-05, -0.00019642082401074418, -0.00015825377761136646, 9.740269006440933e-05, 3.2025212551307e-05, 0.00013602722698726063, 0.00022564845498416184, -0.00012914110957788031, -0.0001169551522733883, -1.6487607790476836e-05, -6.086572260107642e-05, 0.00016456604736398106, -6.945015041894356e-05, -8.964995389444783e-06, 1.0714549627031506e-05, -4.4859265764149415e-06, -2.0440932629829637e-05, 1.3938138535914156e-06, 3.4878888421900383e-06, -2.3277987442564026e-05, -1.7626817349536045e-05, 2.5510074882298284e-05, -1.338301717821899e-05, 3.159454298055364e-05, 2.436876648680414e-05, -3.302027901114235e-05, -5.238648293538572e-05, -6.547509051658574e-05, -2.7421950072811006e-06, 4.18881289129007e-05, 3.300311248910624e-05, 4.0522499165115196e-05, -2.1886335504335428e-05, -3.793561229541423e-05, -0.00022969816880556108, 6.852975544830264e-05, 0.0001489549312658843, 0.00023945640518071158, -0.00033614901770363326, -4.5523644106204256e-05, -5.302220686948967e-05, -4.1102482361607946e-05, 2.3240269464887613e-05, 7.638588235361158e-06, -1.533327457524655e-05, 2.688806386857305e-05, 4.7927966944097346e-06, 4.415425816445422e-06, -1.8185356114317376e-05, 3.020403917579606e-05, -8.711912230557022e-06, 1.8132736464172742e-05, 2.656458206241611e-05, -6.712446714791988e-06, -1.2749457575461655e-05, 2.5628557012812413e-05, 4.3573403700558135e-05, -0.0001876858647218944, 0.00010257434420531645, -0.00011232206375983691, -2.4095129103921705e-05, -9.95630515867604e-05, -4.2008737518921594e-05, 0.00019935470276707416, 0.0001421534761380392, 3.57900519296881e-05, 4.673063512049333e-05, 0.00014631335667623815, -1.8712356634673148e-05, -9.229076729643643e-05, 1.8348893994459232e-05, 1.4976289162397401e-05, 1.2420111701876476e-05, -2.0100121120974152e-05, 3.6652137389901406e-06, 3.080608388938239e-05, 1.642930475179513e-05, 1.0880317638196505e-05, -1.4181894540853845e-05, -1.7667536353483842e-05, -7.621325838172328e-06, 7.478389862934833e-05, -1.3196194803029522e-05, -5.784898392157899e-05, 0.00022420356522333742, -0.00016727553790943982, 9.292555725977593e-05, -0.00014253362216443886, 0.00016546866059235135, -0.000215693521458811, -0.00019007397853788846, 9.017896712341547e-05, -2.8871161286965752e-05, 0.0002302045850025456, -0.00025278527683633657, 0.00022223115633955296, 2.087855552824187e-05, -5.293304824438486e-05, 7.368160800251695e-05, -4.013349754690864e-05, -6.8026896108108895e-06, 1.4587952353400257e-05, 1.2047716155030767e-05, -1.9195761300283856e-05, 2.8648271443967734e-05, -3.3322765926025535e-05, -3.3464092000326564e-05, 4.4542604101614125e-05, -3.5428024974630694e-05, 7.943188754980295e-05, -6.040939962552328e-05, 3.274394559044081e-05, 2.088846920449654e-05, 0.0002259219667407258, 0.0001329876793725044, -5.075263719879509e-05, -0.00026302519730142776, -0.00014979607726941512, -9.526718798304548e-05, 0.00010662971936386227, -9.066753529096644e-05, 9.948250783615385e-05, 0.00034493557755510996, -3.708016054665684e-05, 0.0003319477699358595, -0.00010075641367041258, 0.00021749112686802525, 0.00010092497009953722, -3.557643064009801e-05, 7.203032528608066e-06, -3.0195772316661333e-05, 4.287861744311083e-06, 5.011344190102391e-05, 3.87954844158355e-05, -8.604813779762136e-05, -2.996771324708939e-05, -7.698017915706331e-05, 8.109826399121821e-05, 5.757024607799035e-05, 2.455359530194879e-05, 2.5241007735332324e-05, 6.788056261626955e-05, -3.0582886523490813e-05, 0.00016888623866018426, -6.523346287358009e-05, -0.0003414411650350781, -3.4479934366303967e-05, 3.531291306067464e-05, 1.939046719931316e-05, 0.0002298799112830089, -9.010469777961778e-05, -0.00014373707716035158, -8.554613655336115e-05, -0.00012393156763329985, -9.786444494988702e-05, 0.00012774611397754656, 2.7038237786889396e-05, 1.2007350150982396e-05, 4.178379664856537e-05, -7.810001167457988e-05, -0.00011020333866708576, -5.9598187413542524e-05, 2.652811734947378e-05, -3.0034210789433567e-05, -9.458871419910007e-05, 5.2354252200407694e-05, -7.140571178764796e-05, 0.00013477689031833248, 0.00012429002804997192, -0.0001393580399293218, -9.298277077885555e-05, 0.00011676151390498492, -9.540086705145093e-05, -0.00034504039367610985, -0.0003258122676653584, -3.218070542307348e-05, 0.0001496802798009884, 0.00021420128639415648, -0.00010268296731772558, -0.000344349380705665, -0.0003462691120298824, -0.00020906555173664132, -0.0001862214043208741, -5.698955999066471e-05, -0.00022940534611248285, 1.4158593290907189e-05, 3.4452810122805355e-05, -1.900667800097783e-05, 5.809393329358575e-05, -2.352592674281514e-05, -0.00012667036257713347, 3.514812241152159e-06, -2.4697642037367635e-05, -2.546143453366253e-05, -0.00022221960923669477, 0.00020415842938162202, 9.008106178325529e-05, 3.5216286852611254e-05, -0.00034128121815042234, -0.00022856407398785962, -0.0001492159191308334, 1.4915797899051736e-05, -0.00023568998633577038, -0.0003442921567042609, -2.4006367650855872e-05, 3.1803258778171967e-05, 9.090569484191546e-05, -8.563489168599053e-05, 0.00021299079262391456, -0.0003444269594202672, 0.00012163979007537691, -3.807962605240989e-05, -0.00011586430182947546, -0.00012251312047100737, -0.00010490278550417193, 1.755848062140703e-05, -0.00011116530419240123, 0.0001474144377253239, 0.0002091367982957504, 0.0003403813866566735, -0.00021690077893156786, -3.555681052304108e-05, -9.178280217792116e-05, 0.00012798332396078991, 2.19001300416369e-05, 0.00023039134938355075, -0.00034434050806465637, -0.0001697183469742359, 0.0001881936269182114, 0.0001570717857558722, -9.081796768811609e-05], [-0.00014811227829314265, 3.052815867460076e-05, 0.00012758647699438792, -5.2517610541752746e-05, -3.176602599706379e-05, 7.874933628361001e-05, -0.0001789692579046343, -9.507844831067015e-05, -3.526248165814112e-05, -0.0001295350550460283, -0.00023162447286088336, -9.521026643693341e-05, 0.016607789747226282, 0.02405404008698129, -2.3949009497280347e-06, -0.00022606751602351278, 2.1202366792904675e-05, 0.0002123242103136282, 3.0523134268231305e-05, -0.0001252077502557002, 3.430238353204336e-05, -0.00021109180046583408, -0.0003448188965390587, -4.6733431243165365e-05, 0.00012941872517373588, 0.0003264316048036377, -9.888607452847802e-05, -0.00011650357657051858, -0.00021479796231560112, 0.00022969979149649084, -9.567488867416384e-05, -0.00011725106370371509, 0.00020847485258225474, -3.974425401690166e-05, -7.799444675720531e-06, -0.00014790200035182487, -4.858941573826887e-05, -1.260290877211747e-05, -2.1623435887305694e-05, 0.00030086152088040606, 0.05557302240512529, 0.07884179674377897, 0.011948338152714498, 0.021588326720730893, 0.019667803295736894, 0.010448876602053165, 9.175954980449717e-06, 4.772112638518392e-05, -2.7373167446500686e-05, 4.723246786278462e-05, 0.014898743663137313, 0.019470381035205653, 6.396683296440507e-05, -4.0579321826323815e-05, -0.0002529493536269353, -3.189112040315263e-05, -0.0002097033914993941, -0.00012198089213798219, -0.00015213606902109145, 0.00022588132496322553, 0.00012722749387468265, 1.0272951349296822e-05, -3.900130732384764e-06, 7.91946743012304e-06, 0.20348713025244672, 0.11967597393357648, 0.12624278425343086, 0.17794399105995728, 0.09909332608832155, -0.008205837396415583, 0.06578867655131503, 0.09176117937810262, 0.056573968357125214, 0.1852705779926953, 0.12590780508838856, -0.043014297671804015, -0.04532275389641857, 0.14229461243677005, -3.7071667540268896e-05, -2.212912975586703e-06, 1.2264360731347586e-05, -0.00010181030750060353, 0.00014807907010246684, -6.404389698914074e-05, -0.0003444665393302223, -0.00011678552223302196, -0.004744303849140399, -3.471827894989905e-05, 1.6623203860221476e-06, -1.9816140041414728e-05, 0.016991150585317825, 0.0754141439742689, 0.15306306359854668, 0.20069928134246087, 0.0460615084702886, 0.15389901461164482, 0.018183400483560912, 0.08329336536580831, 0.12373785686956092, 0.09274296345111437, 0.07906482767075451, -0.009868125760158854, 0.16764722075723026, 0.09727991202742663, 0.06744611829708248, 0.15698885589135075, 0.06614865351538186, 0.08288847115099542, 7.425463723411234e-06, -6.201360333903192e-06, 3.8517939216583126e-05, -3.832293644014914e-05, -0.00012849309451862245, -0.0001492192268108838, -0.01464150506936519, -0.002660590395017583, -0.002778003522339566, 0.001269707814458392, -0.015569759949410296, 0.020689538412343833, 0.017857254439009533, 0.009521498834289434, 0.04992218853202728, -0.013440254873147605, -0.01781650232014413, 0.015783939707243778, -0.045286789071965136, 0.022685700790834106, 0.09687946927559973, -0.005448804491670491, 0.004133668802271023, 0.06898733991744604, 0.08701714216530151, 0.036125080103724436, -0.1264835914223534, -0.06906626397889934, 0.01649789317676608, 0.00823022181671383, 0.004668403186021659, 0.016017474528002437, -0.00011549962442207298, 0.00023029605181712162, -4.2041465880403035e-05, 2.5045479641566673e-05, -0.013458865688276771, -0.0705852520735762, -0.013739221394227412, -0.030290649569738745, -0.03101615300409609, -0.02211917811474299, -0.03081717816573293, -0.0014547418569140298, 0.04696342566525862, 0.12906778108675346, 0.1327395484338571, -0.03440616554189168, -0.009805167183186959, -0.08879629797385878, -0.12622263133152142, 0.027064133544969556, 0.03443382895704218, 0.011052544549324984, -0.07079225378231836, 0.07224616449127869, 0.03119772327283052, 0.00936181397989175, 0.025019512254466903, 0.020767141774805924, 0.00022988718500335678, -0.00011187376289465721, -0.00018137627872580765, -3.113829950220432e-06, -0.0034068482063301, -0.0007718857692399308, -0.008237836932647815, -0.006636865115063247, 0.07150978762993494, -0.058449035780136945, -0.047876015912806165, 0.007301277364966463, 0.01078671290443388, -0.01865861990819808, -0.14878396397264923, -0.10105685688968116, -0.014733432175185423, -0.1474178832675493, -0.11744666151478461, -0.08330546891907598, 0.004050904610648063, -0.08738238126989217, 0.01755912650559406, 0.022638799083277716, 0.02795847099543779, -0.005982520952516838, -0.0010457737318684097, 1.9105670523914795e-06, 0.00018872116077375153, 5.970114051009587e-05, 5.67625882624414e-06, -0.048618190864642544, -0.006235866913039655, -0.05282094307502635, -0.05114326220526035, 0.01723513287996817, 0.011372131714933752, -0.026913456038745932, -0.045963075291517545, 0.03662148676687294, 0.026149214458443263, -0.05849443779694838, -0.09654894529400751, 0.07230909372124433, -0.11463447774514685, -0.21259565028037422, -0.17757542097988155, -0.20934217408984487, -0.024232089115335816, -0.0672375160497448, 0.027749747900804346, -0.057627738433523874, -0.107856258603027, -0.04736634138259464, -1.4686710581138843e-06, 1.6125634682541273e-06, 3.8571988095404976e-05, 5.060355382595884e-05, -0.009145060759574528, -0.003401878300156932, -0.007563403390290902, -0.05340652373428073, -0.044018186453506546, 0.001339042564313667, 0.01328074994439101, -0.04571388265577047, -0.04678911796419931, -0.11678301569654323, -0.000747627655111046, -0.16519502660718174, -0.05486249140169138, -0.008591168825071724, -0.11928001720327507, -0.10040792992236856, -0.06301040156819143, -0.11346064658245412, 0.0017770188971415978, 0.03135640858059882, -0.1401331668419906, -0.09822168272389345, -0.05801921122797084, 0.006168974976009137, 0.0044675781089664295, -5.735517035848272e-06, -0.00012595793021192504, -3.903296861649825e-06, 4.384581335707333e-06, -0.00026494720303661207, -0.024318121820754362, -0.10369442520220783, -0.02343667307845607, 0.001533953739912388, 0.0027862955621108655, 0.049800901457561074, 0.08161840684096516, 0.010787791409095743, 0.018835580540502394, -0.09729562949731274, -0.15695176412009548, -0.15921423585603603, 0.0011117443438669022, -0.014363255914023957, 0.0315468504846218, -0.024296394839905394, 0.0604529349302587, 0.04188836189057317, -0.05994865081567696, -0.07345007152352699, -0.03442459356955292, 0.004214911887443271, -0.04093427885049441, -0.06317763554690677, 0.000145048824506042, 2.2112399642782827e-05, 0.002315342128162633, 0.06165490814465058, -0.029536214315900648, -0.04454001714633978, -0.025445916236227092, 0.07976178762884134, -0.07201622908601736, -0.05635594049737862, -0.03541431636447883, -0.18450125143102766, 0.06378060155189196, -0.05032194581946713, -0.05485887518775345, -0.14304694161301626, -0.011452084572018335, 0.04035527559193905, 0.01792108038728526, 0.10063223774686395, 0.09268581752775716, 0.03000032105033934, -0.011222937704143666, -0.05860823771708208, -0.1746046712644118, -0.15398276651964626, -0.08544045387132036, -0.01565250616742893, 4.665288397894584e-05, 8.185620882915926e-09, -1.1042922681531907e-05, -0.004705705362242198, -0.13291930928122883, -0.08264303285877429, 0.025031329317681993, 0.009031396404278948, 0.04239301659291609, -0.029148169892082545, -0.017183975920009233, -0.14510326334284376, -0.03208369231606753, 0.002258234880895433, -0.036519259207341004, -0.07806233966475709, 0.05491747449825262, 0.02700554775368008, 0.005958355889394409, 0.11521627680570382, 0.05976290009865097, 0.06895890814126503, -0.04894325031067211, -0.06829927481889354, -0.06748626818447873, -0.07516936472439573, -0.09650355194621109, -0.003720282865729203, -0.000171832247918268, 2.9823768094558465e-06, 1.935279109203722e-06, -0.07233738285918646, -0.13048520034698385, -0.022089859650173543, 0.04673501060226362, 0.05257011078125286, 0.06392111932082854, 0.024806435296199008, 0.0003623741292486664, -0.020898585443989166, -0.015322212436049705, -0.013082032417670959, -0.11041115159772856, -0.07349091292172999, -0.04496136597052844, -0.0010627914720155673, 0.05867519589747744, 0.008555609117463314, -0.02084975784922786, -0.0447982592973969, 0.03286847888544857, 0.0014295104796904752, -0.04315522418222594, -0.1277896964644877, -0.11270155307273569, -0.02052675982294086, 0.00019986603597526743, 1.282791269652607e-05, 3.4874032632176057e-06, -0.1261618210032834, -0.1682270498589402, -0.12968602919618083, 0.018538354047354745, -0.01275032077308335, -0.00950526129101745, 0.10544610332455813, 0.07190978761510329, -0.010266214553718817, 0.013141861108806776, -0.13897765282710653, -0.08118387267343219, 0.015723584645723338, 0.012556102763005552, 0.007165184100879522, -0.0071528214872490095, -0.05810508188173216, 0.0730391840811339, 0.02131359256470348, 0.0723260010910182, 0.05296949320602177, -0.020430742675471566, -0.085600115042229, -0.09720239451581257, 3.4785263052864223e-06, -0.00014885828804706155, 3.977418725332973e-06, 1.4952746663553525e-05, 4.3576927939272785e-07, -0.13461767242425676, -0.05044680109250702, -0.05375916528401574, 0.0672504791134175, 0.07818896916124113, -0.003897856634012361, 0.020008341508671038, 0.09058317572317025, -0.01500121292830118, 0.01796604113234971, -0.0013989160439740246, 0.013670345424885858, 0.02218321437110649, -0.015887762040605383, -0.02315537438391939, -0.020460043080079194, 0.014067776670863855, 0.008849507361174572, 0.06511976648669314, -0.0238223833604298, 0.030261821284236802, 0.0021228022294108137, -0.009410847816083248, 0.00018728199332177225, 2.6092424697873332e-05, 0.00027504770895831057, -1.101854004457543e-05, -0.01239189787526779, -0.04499231916996299, -0.04598803059979917, -0.007184081189460347, 0.05471844082639853, 0.0015962015168141219, -0.027442137345152117, 0.008382224051239796, 0.02781239832162726, 0.11429743711233122, 0.04879848808712907, 0.030378977350137257, -0.04205496783031843, 0.057170539460467115, -0.053311502390602006, -0.035482946149480804, -0.09281857310037216, -0.05412179520519147, 0.04312307218943713, 0.04129482466186574, 0.10225401261906202, 0.0667177817864345, 0.00800796855488257, -0.0051098024600675016, 1.0993240560206769e-05, 8.733835547095657e-05, 0.00010210687163679033, -0.00012518880829914065, -0.04074274231012253, -0.12645427008983787, -0.021127181411643388, 0.027337836109155765, 0.046411126795515935, -0.026807197227579054, -0.11399039506889014, 0.011854759414579379, 0.12103101534466329, 0.11467593884591205, 0.005142273872761256, -0.001773194693293166, 0.0075646991263307525, 0.013454648841889396, -0.07640628876218002, -0.08589934664476913, 0.047505973482871194, -0.0362459486137666, -0.08452698480026673, 0.036165433075856186, -0.00440746089386267, 0.004837423495535721, -0.06238655320740617, -0.09266202410958425, 0.00019852014055435815, 0.0001016308724308477, 0.00023220706680503523, 2.0890489865988524e-05, -4.2095886716395686e-05, -0.14215887927992213, -0.037679092700744196, -0.054476026401599, -0.09057733576472891, 0.04617744653886558, 0.032771053443931386, -0.016132737958480768, 0.09497254049104942, 0.12017798145600282, 0.030346744538947496, -0.09183715114147405, -0.03859225125828684, 0.05207706621830168, 0.009526506399204255, -0.016490419102789557, 0.022760497462974816, -0.10570480779992157, -0.0024660226002264354, 0.020525491262871676, 0.085745910057557, 0.0015179862696892564, -0.020210399695267004, -0.10220696860290365, 0.02394437018035179, 3.3071861332413795e-05, -0.00013065594155555726, -1.2493637502818342e-05, 1.126266589563991e-05, -0.09275543512378102, -0.18589384694341438, -0.15451391628754235, -0.16919084642409343, 0.04676562036088362, 0.07264916312091643, 0.10131239687795307, 0.1175337161439472, 0.14290099981670648, 0.017537249364498297, -0.11647416411719434, 0.0033600296979821526, 0.07002969282174502, 0.021279246482230424, -0.011758817881232207, -0.03258027850425891, -0.08521473498749596, -0.015002590553283065, 0.02261583265576445, 0.014775986788525229, -0.027337696756675717, -0.0025557265956440436, -0.08206213565908933, -0.007237025821266254, 9.429004038204475e-05, 7.10775985074711e-05, -8.555826116894938e-05, 3.86302435918224e-05, -0.029846460421107824, -0.09052051580436055, -0.23274623425386975, -0.08530735660899623, -0.051067343484680616, 0.0720820593672027, 0.20132763624772848, 0.23746006786478976, 0.07648054967030304, -0.06643089624349319, -0.0757251528882353, -0.06463281523529261, 0.041056653571196706, 0.007103878008908888, 0.024596776517398666, -0.0229956585771823, -0.08888504907177891, -0.0434656482780034, 0.06364828887204771, 0.07275841121980174, 0.010624554981470476, -0.016229493371179276, -0.011511183817872219, -0.00010067316694112544, -6.073078132275058e-07, -2.7182226922436484e-05, 1.946014963612871e-05, -4.1861927808803e-05, -0.20737688650749095, -0.18241956327335623, -0.31761145603232477, -0.19496102856267922, -0.11875628678453193, -0.011877216245869205, 0.11852525316302678, 0.005533259319998832, 0.10409028918753041, -0.011602604874806488, 0.006034807237552573, -0.020430801674022742, 0.09478284794544693, 0.07102963702068467, 0.09120941145358291, 0.09756671930932653, 0.019112063732007536, -0.024082577115639235, -0.009062716757776246, -0.05998346834862267, -0.006756964499164745, -0.061476201847933835, 3.265685093502515e-05, 2.3467497063347267e-05, -0.00015658560609846506, -8.202240279143812e-05, -0.0001253309595936575, 3.691997800980771e-05, -0.003783352309194966, -0.16576885657073895, -0.27491001207220866, -0.16953261976869002, -0.13162477173263656, 0.017614639339923646, 0.09350435377420663, 0.11402588014393476, 0.02885123044019573, 0.14062573965704814, 0.015688587583361703, 0.038197238121150515, 0.0010442358623183729, -0.027730809379762786, 0.07099663406270613, -0.06494816587763734, -0.11567763326703717, -0.13258612581830323, 0.002266735859017482, -0.01394740765659079, -0.2002616275480007, -0.0033272132202290285, 0.008737667702262248, -0.00011144970887482869, -6.233916384839784e-05, -9.398761934133637e-05, 2.345732579688055e-05, -2.0227895754378293e-05, -5.3297924298864695e-05, 3.9889737292743135e-06, -0.11142875761173855, -0.1621078440219761, -0.1509595301453499, -0.15946592769537765, 0.004551676714979689, 0.007477344383204904, -0.02356486905270581, 0.09895079006792132, 0.03213418428370096, 0.12857386928068246, -0.046310065801893445, -0.05907121999985236, -0.08713903167357971, -0.0355913112131547, -0.07182470487709096, -0.07974329299327601, -0.1770372126664372, -0.09256783556324948, -0.05795014554586578, 1.6043192892648e-05, -2.5721933782107535e-05, -4.295629759288237e-05, -0.0002137374797900387, -0.0001488705002982803, -8.251426433259228e-06, 0.00012202114790139961, 1.4547326205794196e-05, 0.0010338249720813267, -0.18696401842772006, -0.21889534012228706, -0.10072696416768938, -0.2053194756760097, -0.17220636389413127, -0.05975237736793933, 0.046398819194449645, 0.0854023880312481, 0.1489612159016191, 0.0537853085362125, 0.08829062108909386, 0.018988655831758343, 0.039366863077603655, -0.10236914259761233, 0.03563476887329503, -0.08490848710599318, -0.1406801460264669, -0.050073714598201514, -0.05054884654482424, -8.17927495283729e-06, 1.7963587076130931e-06, -0.0001654502251813048, -0.00011551978623084046, 1.5783478551520223e-05, -5.4564587762159515e-05, 0.00010821753382488805, -1.694651313126953e-05, 0.0009693689005007824, -0.0108490395725402, -0.011640892003016861, -0.041386297045682294, 0.008286242961589578, -0.14244493920271192, 0.013463962765579873, -0.0032012442939461042, -0.023971639580998384, 0.07781433780024813, 0.04252922955079318, 0.021597914119685348, -0.06542882452414117, -0.044732357664134706, -0.14609713255152695, -0.12170967707486405, -0.025218874363798292, -0.028536605449925007, -0.037420250356525325, -0.017835644232796242, 7.008043180290006e-05, 4.7540553652084244e-05, 3.1961672370899965e-05, 0.00011806326116678482, -0.00011720982921455985, -7.598399038367864e-06, 0.0002744431947200767, -8.921263349745008e-05, -4.1699013585862776e-05, -0.0034285825062128792, -0.018802073479950807, -0.01249855198080666, -0.0032081486150406548, 0.0053171403104244055, -0.0011581818529626054, -0.045198126040069314, -0.06987740565969335, -0.16433470000434633, -0.07003844604835754, -0.09268560819042194, 0.017944831947008032, 0.09017753484400341, -0.0060283994789822725, 1.9380750033548837e-06, -0.01015881572834015, 1.0556798164005052e-05, -0.00789815856112286, -5.752389054630968e-05, 6.811988179531793e-06, -5.929249536469905e-05, -8.951353055393928e-05, -0.00022751533266877178, 0.00010158172687606807, -3.274113042271652e-05, 3.0577979851219675e-05, 0.00010211381718090866, -7.575779037715123e-05, 8.739560445902088e-06, 1.4173707891669102e-05, -0.016749609184422302, -0.03795662181357613, 0.06113757813267343, 0.08522665882016517, 0.08178654042109448, 0.06881346362853885, -0.007275297345172446, 0.045180390509910254, 0.07605036210683064, -0.019503314384548293, -0.013842328118722354, 4.4633016192822336e-05, -1.0015734769029716e-06, -0.018168878678627466, 6.467508210296263e-06, 1.9893320272718455e-05, -0.00015943426414481991, 0.00014646296325131512, -0.00017256059340424392, -0.00014934754363113442, 0.00016961898359195337, -0.0001480780398415033, 3.8301250294908915e-05, -0.00026843297224489064, -3.0108391275489023e-05, -0.00015081399734953179, 0.0002131899954198999, 0.00016307912870618905, 8.518282989894717e-07, 1.750934212730403e-05, -3.1035601446857685e-06, 2.5282110074491e-06, 0.036967986617566756, -1.2004239863996818e-06, -0.009711782470008591, -0.0036392028560830944, -0.02639109230856002, -7.620300855862894e-07, -2.2559785262404044e-06, 8.286047480827899e-06, 9.797264527188203e-05, -0.0018164391709714154, -6.93968977103508e-06, 9.081300757521753e-05, -0.0001173567568248777, -0.00022939278465187768, 0.0001294153714506962, -0.0001489191137550635], [-9.962594476403618e-05, 3.1962792544936515e-05, 3.1752620983574475e-05, 0.0003455134461443931, 0.00015714654471160405, 1.3654337837909966e-05, 0.00023012968407774308, 0.00018897781002542112, 2.8853057470704116e-05, -9.529794181992976e-05, 0.0002266183286349131, -0.00013382739345367813, -0.0001887536037481919, -0.00020868513866944044, -0.00042218232623885066, -2.2537179410824648e-05, -0.00015564506311755767, -0.00021170231578548248, 0.00010346450309328993, 0.0002663273977031051, -0.00021366541424346468, 0.00021299427723502927, -0.00017220681958872487, 0.00023550402742104123, -2.8576902518939627e-05, -3.229312394092447e-05, -0.00022908272719651551, -6.224783211709273e-05, -0.00023257291686836862, 9.603480546445304e-05, -8.794644838036191e-05, 0.0002366953607968571, 9.527297448194741e-05, 0.00034097911801575856, 0.00012131881809665573, 6.210142870151632e-05, -4.642843458346814e-05, 9.894337678095778e-05, 8.399066315627603e-05, 3.613198260594748e-05, -4.6360713544698096e-05, 6.130464999281978e-05, 1.8766957968598737e-05, -1.5999824143816838e-05, -7.720590367145687e-05, 0.0001542437633383397, 0.0002232319488697761, -0.00022824783519170036, -5.7668559349792854e-05, 0.00010203085508816623, -2.916257180258939e-05, 3.867721296979687e-05, -0.00014507435857847296, -3.042716933694068e-05, -9.481907608159933e-05, 0.00011648474521578497, 0.0002286669573196028, -0.00023036866026908306, 0.00017085660510233927, 0.00016133546213895268, 0.00034555597251047796, 9.092436904225486e-05, -0.00017035365713601426, -2.1249858958279164e-07, -1.0953114079414728e-05, 7.611580577558062e-06, -8.428897292795188e-06, 0.014126333206130203, 0.013157694022973645, -0.005331534807787175, -0.023213340003858843, -0.026045201181588658, -0.008179368350723021, -0.0061883972686527485, -1.777208048985727e-05, -1.5349343272837616e-05, 6.741367529980455e-05, 4.4656125717601986e-06, 4.567631314178772e-05, 2.798372501685383e-05, -0.00014194650059727674, 6.172566668519977e-06, 3.878432273195069e-05, -0.0002358534065069828, 0.00034447335202300935, 0.0001576849477392107, 0.00011853827818114249, -3.380758894480065e-05, 2.0012703706439072e-05, 1.9149897325919104e-05, 8.29499872296031e-06, -0.018703583728950184, -0.03360173048446306, -0.0562522344163261, -0.00014056062631142256, -0.01263179571841139, 0.0520147605337577, 0.030109355583816416, 0.0016983311452915303, -0.04778334187080962, 0.020583921417415236, -0.007754058455836471, -0.04413486634353411, -0.03867858996430191, -1.0701009409516817e-05, 2.4289640746745295e-07, -1.6154476216465772e-05, -1.2988843597368113e-05, -3.297206196219582e-05, -0.00018250134406713747, -3.220549305660853e-05, 0.00011027081852738296, 0.0001525481063641386, 0.00012950989150253286, 6.952688501466809e-05, 3.0303104982632892e-05, -0.0008779132811474951, -0.0021027864500248565, -0.013519268820584235, 0.05947758664670268, 0.021501835006957824, -0.023531426437821946, -0.03717698665665612, 0.006065932097791924, -0.028161707718765683, -0.05592372961009783, 0.06705511161361952, -0.1533691055239641, -0.09138336648484238, -0.19018239677303395, -0.046514011671760704, -0.04504712102452944, -0.0692418724689736, -0.0329437902753552, -0.018564495904829868, 0.005120681053556019, 0.0015337887479005695, -1.0170575056890455e-06, 1.8421354262251823e-05, 0.00012198663361531792, -2.994433196673097e-05, -0.00021305322855908612, 1.9714491010342907e-05, -4.907491369588534e-06, 0.15858026413995105, 0.07826390304953536, 0.07467334412912574, 0.09644546020891918, 0.12804276364912168, 0.11259272707878773, 0.044747025179103894, 0.006126526732752978, -0.0036565426058826475, -0.1225595993028678, -0.03575688215785085, 0.0018413178555415624, -0.0017078234664043047, -0.17156416294339766, -0.13220862551410786, -0.1005576307359486, -0.17185449455468213, -0.16772931234663968, -0.11260566410648183, -0.004368590402231596, 0.012128948970049252, 0.0030730033965126573, 5.461425334355205e-06, 0.0003437877679863361, 0.00017205929572973032, -8.345477183611594e-05, 5.151534295489855e-06, 0.04899188914000766, 0.04140217419943452, 0.09865996313201669, -0.0669975415194115, 0.02387378222797827, 0.0026051380519581395, 0.10867923754082535, 0.08135296915075182, -0.04184454939951193, 0.05134704241382924, 0.04110980341565504, -0.05195426387668693, 0.006798104152650948, -0.030956638814343393, -0.1015527562346727, -0.10284715937088358, -0.07494607632290616, 0.06771130448552369, 0.00964795672601122, -0.0013554089424854573, 0.005234481823535844, 0.008902733945672278, -0.08587858177214372, 0.011922539867120432, 4.1976504274917843e-07, -0.00018731026410848779, 2.4478663298528514e-05, 1.8317652104766284e-05, 0.2074772970073187, 0.06421851041666143, -0.0011719953114199602, -0.060618369989161903, -0.01701156328378713, -0.06108238619877176, 0.13416707486972465, 0.0643344104588932, -0.03635610419607529, 0.011864605442063685, 0.01938030819456488, -0.03318642976918392, -0.1385365835910037, 0.0038317717601532744, -0.14319822626768947, -0.0818451005218548, -0.1200551900699363, -0.09596599308353707, -0.06592719603525082, -0.04668549222579247, 0.01461687588682205, 0.22379096489085493, 0.04253997006452093, 0.00280767890629201, 0.0001273166151670096, -1.1808204038859599e-05, 6.816218648434118e-05, 0.005789733853913348, 0.010552757156563923, -0.03172544440981313, 0.008110749058384957, -0.030503584721492352, 0.036617620765361646, 0.025160104488726458, -0.0065739676057366666, 0.1156800563789744, 0.014957037654053441, 0.05801651676024193, 0.15174286897671968, -0.024003128803135033, -0.0037409752417689006, -0.10735727422159026, -0.12250552286989572, -0.03257617358472339, -0.03588517393560004, -0.08348148384652211, -0.041689546204485166, -0.014006430792863567, 0.04409349224525299, 0.09550770105282248, 0.04066404349775672, -0.020753208139798574, -1.6083407023534555e-05, -4.027508162486579e-05, -0.0002131454198466423, -0.005729597610736411, 0.08827105670741976, 0.15667503903544816, 0.0660271332158698, -0.034499419241685876, 0.06910867820964897, -0.06067012612081172, -0.07306376796795144, -0.024762875236536246, 0.08737473702588634, 0.16829659880890066, 0.05101099246141708, 0.10026816931004584, -0.003410693272757528, -0.020539317785448995, 0.0808673599264727, 0.050319111289792634, -0.05078957786176829, 0.0341640426748758, 0.01816353595299399, 0.08380402727195599, 0.0617686712302958, 0.03449161751169261, 0.011835492533379392, 0.007014439782883515, 2.339684215596226e-05, 0.0034249618963051592, 2.3435091025607115e-06, 0.052359119628649094, 0.05589756216632336, 0.03369510075363777, 0.05519955906498253, -0.0664516696376786, -0.06176649859682047, -0.09730479664314579, -0.045420724364907406, -0.005007311930030624, 0.09506850649666684, 0.1989035632320452, 0.04862676288835738, -0.018966681010605408, -0.06274938142086077, -0.05463352784042207, 0.002634661960622308, 0.010521695994961716, 0.13818795437384013, 0.12061354819318378, 0.05067423895848311, 0.028893252492619415, 0.06068205112685127, -0.026395853641767896, 0.028638284122870398, -6.017778179855376e-06, 1.6955415642385533e-05, 0.0002819741929861398, -1.3254226018880519e-05, 0.03825086713463965, 0.19728103321030338, 0.10763927315052593, 0.04681440524390098, 0.011923204525962003, 0.034584128207205765, -0.09266462700406554, -0.008453329705500048, 0.0511347957915818, 0.09297030058483106, 0.08581865537984801, 0.02403075052120294, -0.05816554031330627, 0.009606356804601292, 0.03111380767607724, 0.03340928052671651, 0.10363411811556769, 0.07492761525486717, 0.045395104611610115, 0.030160185284321534, -0.005636504295427027, -0.02808992904957473, -0.14850063126385998, -0.07765861985466511, 4.997533170032348e-05, 8.169704338226709e-06, -1.5928642466217312e-05, 2.0072906775463195e-06, 0.15780161906747037, 0.1426488184553696, -0.013496745135400376, 0.07652034750339719, -0.03662010375756305, 0.035190078016127634, 0.07429332508316143, 0.010659296451351172, 0.11035918405206085, 0.10516601154398292, 0.08676648590052258, 0.00829478661457344, -0.05749896787384338, 0.021785109798649865, 0.11812207805130708, 0.02482954502521323, 0.04940882625981504, 0.03549151085948975, -0.0026767648635623613, -0.02785526851898984, 0.05396077874165159, 0.0011348860319058502, 0.031584741676665716, 0.01293122072973385, -5.2854628371489274e-05, -0.00011121323844983595, -9.062023350243882e-05, -2.1346310343438667e-05, 0.12801939953642316, 0.11262883705988515, 0.02066877858871808, 0.047751025748279254, -0.04917846131232967, 0.12884221297027557, 0.06313811552305101, 0.044057489827509205, 0.032220590032033126, 0.0009184850282353439, -0.007519669606726978, -0.08831637806514518, -0.022365946674114432, 0.10108264612742174, 0.12215986647494594, 0.10386071858620317, 0.04983374957893322, -0.006488238205297166, 0.08365173831574907, 0.008022735706402408, -0.008166558310591548, 0.051658751680371644, 0.026222835154670745, 0.012278952709460573, 0.0119174734449514, 0.00014956821336139313, 3.3536042287002295e-05, 1.4570133553553019e-05, 0.03349858060479587, 0.12664163014421034, -0.08806731702433138, 0.08970076365767013, -0.05445571963498233, -0.023287934062317824, 0.06610826192379794, -0.021103161031566398, -0.030957376021865424, -0.017968443512979628, -0.04606538651819334, -0.11534220097787355, -0.0005017994328245469, 0.0715655501682412, 0.1614352753171148, 0.04457407534949106, 0.07975102082506969, 0.17281504230935196, 0.07142204285767154, 0.06468221301575422, 0.09610854177643068, 0.1475040631933935, 0.046486793580346235, 0.04767232732856014, 1.4843549641456233e-05, -0.0001295392950687316, 6.706707689774297e-05, -0.00022808074997587545, 0.0010396627061507963, 0.08744250559974862, 0.037250148199958866, 0.05167249436312163, 0.02968906943045961, 0.03462264198316702, -0.053674695461648526, -0.012002213851114876, -0.13485812552729917, -0.15454209483379455, -0.10947514654881936, -0.06114154811823043, 0.04857754169883637, 0.0649561159924107, -0.03299545273210579, 0.17617224359189762, 0.13176867158301706, 0.13156134517574133, 0.12713844035760205, 0.03765557217983876, 0.1711562584953417, 0.06571377563936677, -0.053118596342309185, -0.011012925134639443, -0.00019605053799038656, 8.700276001291529e-05, -0.00011427381367936435, -3.1942052273816786e-05, 4.194008521091375e-05, 0.08997400442243918, 0.04829543187875012, 0.006721329862387022, -0.005904763864188876, -0.0202120398166524, -0.21220880777884674, -0.1547796951881289, -0.17209938067408645, -0.17409783527748166, -0.20712145936060555, -0.11069909266992099, -0.02921990270083533, 0.04919678356395539, -0.06111389762735262, 0.016220994693694403, 0.012729372496609112, 0.025676623361289508, 0.023577938904977915, 0.06527363592831678, 0.07702135859755797, 0.024125328992245426, -0.06925990287143037, -0.020582725805493897, -0.01890486608637313, 0.00011445176783048775, -3.832426274539546e-05, -9.232698478221504e-05, 1.4746540326993552e-05, -0.016962373278884772, 0.06452141127596946, -0.04730358851902254, -0.010761062438230324, -0.11322395456039716, -0.22200047583627064, -0.24893151833245533, -0.2593319618041371, -0.18819740327825554, -0.13518305307967998, -0.0619678230369243, -0.09263298119111366, -0.01234659599495551, -0.1298775362235448, -0.011431672817567887, -0.046080368444390785, -0.07809643617356908, -0.10685229579322107, 0.05556031303901789, -0.029073217397276148, -0.04427328635184207, -0.02657224490173425, -7.395068797390679e-06, 2.0727436525005782e-05, 1.2647932150574796e-05, -4.445852171980617e-07, 0.00016255302557147643, -5.2678666888725814e-05, -0.009803516303457825, 0.002642353046378344, -0.11575177314927865, -0.11972518137699728, -0.14573967150620296, -0.25207633388252637, -0.26517153490622236, -0.10118497442989419, -0.10722685147467645, -0.050671247480372626, -0.15311763747677531, -0.03350297455664081, -0.10306934721063446, 0.00015324959118512646, -0.10284387842778929, -0.11336051912110517, -0.08269468015012457, 0.021020125188794207, -1.9968727837630466e-05, -0.13518547118171725, -0.1696735498890091, -0.042976720700131324, 3.573189279711339e-05, -5.674370826722207e-05, 9.588555526579566e-05, -9.355891733952601e-05, 0.014193426833993179, 1.2165481538102009e-05, -0.01972583078443124, 0.0028903660118273023, -0.17794794417048548, -0.14139627162319085, -0.1760374310470594, -0.14450699765635042, -0.08646931530995487, -0.11125656864279916, -0.048479696146618984, -0.12968980413386516, -0.04814976660542025, -0.1321146363025746, -0.07300242226804281, -0.031002323182963, -0.005617234492281111, -0.11255311740518054, -0.08269179139901356, -0.10921656191906552, -0.02150726174053345, -0.1392995007638348, -0.07102638423290514, -0.11696778763170637, -1.9047057313308046e-05, -3.8327265131260534e-06, 8.789403726923851e-05, 0.00014906000911187246, -8.032123674182428e-05, 2.5854178572201893e-05, 0.026609552814828002, -0.06314498510717556, -0.22085462791215552, -0.22400507382724805, -0.017209656738437218, 0.023181203013544982, 0.039267103324328256, 0.05588860241532439, -0.07089378686824799, -0.06618205805630367, -0.10894490057610194, -0.08348720483461493, -0.07996414304991231, -0.032996648076350166, -0.10615628122539152, -0.07987187653351094, -0.04755046805468484, -0.030341473346835082, 0.04763213438832999, -0.060614428945515254, -0.06612214285064778, -0.056394277425746125, -4.932180137691689e-05, -0.0001611620262719394, 7.948589995977217e-05, 0.00018715594800970952, 0.00024672248540628635, 5.060263338581026e-05, 0.013828627741085122, -0.022433412570291786, -0.17304179142911846, -0.14058330489236237, -0.03580480864288779, 0.12818435080379273, 0.13014540506105993, 0.17973765287536697, 0.058969776987944915, -0.052667764311575854, -0.13775636465983343, -0.05265559810649892, -0.11588752776004471, -0.02439161557106078, -0.05221668995669749, -0.09302985834753853, -0.11014601118627086, -0.13877798406754843, -0.04228145111914987, -0.1785837381793042, -0.15940181539359732, -4.879283859019935e-06, 2.9106974387558244e-05, 6.669672877655454e-06, -3.163844617099578e-05, 0.00018801188923844885, 0.0003282182292053971, 7.803729753038413e-06, 0.010801720651133984, 0.00912480730314726, -0.08813394354471878, -0.03209297511325469, -0.006317481316266271, 0.029353307537482824, 0.14571561429596472, 0.052718459786849366, 0.006188663198397148, -0.0071393423388960145, -0.01642850537778613, -0.10806632896931477, -0.00029293102677417984, -0.060209072790990144, -0.03507001311734756, -0.042041158889395205, -0.017717858423894884, -0.0643277409934637, -0.12574885359229696, -0.12841256326672768, -0.04814446472867738, 0.007023002161221012, -5.436407455600998e-06, -1.711321343640227e-05, -0.00012849352461442805, -0.000213746426127143, -0.00017589133355636662, -0.00014338177287844577, -0.003751335528145205, 0.022040705667469913, 0.02372353790910231, 0.11327116650412798, 0.14311009232137595, 0.041658910409903716, -0.02196281992658423, 0.011012742365272431, -0.04464982903215052, -0.005729243153731149, -0.04364645834183732, 0.0004215705680231709, 0.00409176005793978, -0.0516636312350883, 0.003217642028989095, 0.031855784097549945, -0.06932936818580589, -0.14150641086458537, -0.17840183107082896, -0.08546276580655321, -0.03250306979910794, 0.01716381263530241, -1.6452508342319876e-05, -0.00022580327178983015, -0.0002633052537663321, 0.000229488290397499, -0.00014961397226799858, 3.996711222934011e-05, 0.02516259809923749, 0.12866405060490213, 0.17226491530435445, 0.1487149646630594, 0.11329539937642899, 0.07171273201352779, -0.03711979651843145, 0.048099193544833455, -0.03929644118414845, -0.03054604019428692, -0.09396639237663473, -0.10083102533564665, 0.00030570280210996583, -0.0007985755844373706, -0.022019563203777216, 0.015594653913663697, 0.014942599792307311, 0.019453396422099624, -0.0006794998698808551, 0.0006666380672102745, 9.167831424940808e-05, -4.764387474997784e-06, 9.435513457652305e-05, -0.00014890161689208692, -0.00020884732810793239, -6.93406210085994e-05, -0.00034441776116567017, -0.00016091288224768147, 0.013855426827446959, 0.022573735405208312, 0.10046487991212913, 0.07542653182981988, 0.014212222639473578, 0.03990490087780267, -0.004367972245614114, -0.055374770647807346, 0.03610361502973426, -0.040428444447773014, 0.005673493688475599, -0.0015870425127947159, -0.12223395995411336, 0.08108355153648959, -0.009776170072490271, 0.07506074583827858, -0.10118801058681968, -0.0008166060605651951, -0.011337127165827937, -0.002639901515000657, 0.038533427066216534, 9.630172387072164e-06, 0.0002294446803599344, -3.825099873202293e-05, 4.933785894508435e-05, -9.068605473874703e-05, -8.202375481731611e-05, 1.4972498386075904e-05, -8.012034400447612e-05, 1.9544766302705608e-06, -0.012500185325906006, -0.09419468376854971, -0.07431574722713284, -0.10199578813585612, -0.0585059026434396, -0.09492164882713398, 0.0010936523213979621, 0.016994809962247656, 0.016153470672012712, -0.09177507441702311, -0.028431857554440422, -0.013386866793519064, -0.012571484329628471, 0.07641160480646024, 0.043880872206200044, -0.010582746280489783, -0.001686913222554179, 0.01316959802764202, 7.050696379725075e-05, 0.00021627566646707569, -0.00012607638378492054, 5.860178335342114e-06, -0.00015490033720984351, 0.0001492203952213995, 9.011513324067961e-05, -3.149052039302653e-05, 0.00012956029717199255, -0.00020372579810886917, -3.4850380616006594e-05, -6.779904591890496e-06, 8.182667136138262e-05, 6.301512269874424e-05, 0.0022034728772808944, 0.03278785130923157, 0.010068909506901898, -0.0026812432241181223, -0.012098712083127242, 0.011526907071533825, -0.006768395873376778, -0.002603364348881059, 0.018299330384594612, 0.009145061093555864, 0.00017170511595959693, 1.4358731207333178e-05, -3.953351005979745e-06, 5.299184769493765e-06, -1.670429258841268e-05, -1.6360399249336742e-05, 9.449173493333011e-05, 6.685179616805499e-05, 0.00011168120167635893], [0.0003437282163021885, 0.00022150038407074468, 0.000161366670545592, -2.9319613141467992e-05, 9.455024830234081e-05, 0.00022856222746406, -9.06674938009322e-05, -9.515377259620477e-05, 0.00021956959761424634, 3.22492088064046e-05, 0.00014863255799191498, 0.00022833189861440545, 0.00018496349857584983, 0.00022962318198384082, 0.00014974573594117577, 0.00011623747262210324, 0.0002792449237889885, 0.0002356830006326954, -0.0002298685469523875, -0.0001354728777192806, 1.1810779733643386e-07, 2.913635145934855e-05, -0.0001484595494628527, -0.0002266143194610934, 8.916152651450866e-05, -0.00031576296986232037, -2.9835943341241047e-05, -0.00016463546532795938, 1.9162183133829015e-05, -0.00020847183967488009, -9.56333736965318e-05, -0.0001476294504837592, -0.00011652712294650664, -3.838719743461343e-05, 9.091987994082447e-05, -0.00012973464673134863, -0.00012493169757728947, -0.00017490036856527885, 2.1969144338887514e-05, -3.0993183404044074e-05, 1.4821997854961233e-05, 5.1343640548660953e-05, -8.272971063411815e-06, 8.201569341476358e-05, -8.778762608687037e-05, -3.1862878883196696e-05, -2.0000480523120655e-05, 8.077124908451799e-05, 0.011729627256586671, 3.5913998548557215e-05, -6.006230979156559e-05, -0.000148074051286079, 5.056121487947884e-05, -3.086324761231323e-05, -0.00012943849495115404, 0.00014801496227399226, -0.00018887933386020525, -0.0001492802060971849, 0.0002294158145966245, 0.00013539682241386878, 3.105760471347176e-05, 4.643860784324688e-05, 6.307908910382439e-05, -3.8223039810260425e-05, -0.00012595288831657801, -9.487565022857838e-05, -0.0001045696874255072, 7.63865342389931e-06, 1.6471164637966517e-05, -5.060000812140999e-07, -4.087338227164649e-06, -2.918431614806885e-06, -4.861264263516436e-05, 1.186744251117993e-05, 0.00044807786971645116, 0.06994465945159467, 0.21382186473592443, 0.14933653497172425, 0.030393449773114874, 4.5386576025539125e-06, -2.480845788740384e-05, 7.29934214302856e-05, 0.00018310158354059103, 0.0001881487698701748, -0.00010175389086373623, 0.000117347695776166, -0.00021510296532329344, 0.0002705918763496596, 2.1551003683711475e-05, -2.7934542019130808e-05, -0.0002482490121740402, -2.3846807039154738e-05, 0.0001409232562607841, -0.009914059671014877, -0.026333769376590245, -0.01964014521974279, -0.08085971424072444, -0.09230228301070612, 0.006573369413934034, -0.019352821101388633, -0.027063813421909937, 0.01789493960056063, 0.025884715182703417, -0.0596880002394761, 0.08626962320380027, 0.19117797735313144, 0.13619009273398439, 0.15401316325362238, -0.007054478280812592, -0.0164659894289897, -1.8901957850110464e-05, 3.214734280333409e-05, 0.00010274781317421125, 0.00010269553174913746, 8.272354221466132e-06, -6.0611710069146486e-05, 1.858581785730103e-05, 2.2141281907669812e-06, -0.010256866314771991, -0.08066151095662094, -0.19071898641862844, -0.08565248927501316, -0.15752579091002117, -0.10357640819312643, -0.12790306300485393, -0.05656661251085043, -0.011815555649134593, -0.023588810959368555, -0.03608327291988699, 8.814655379328076e-05, 0.018726889249884474, 0.0687003543436088, 0.10658398388755608, 0.11643720648064607, 0.12252044525259849, 0.005096716566030913, -0.04488695998220394, 0.0017122661461545826, -5.970467327541657e-06, 4.868890995361423e-06, -8.008320137253959e-05, -0.00012875277326403276, -1.34630629782052e-05, -9.269333100644302e-06, -2.625700931863274e-06, 1.1399316779674382e-06, -0.0009580834589967282, -0.04082410187225112, -0.13669007492026894, -0.07617885918391268, -0.12918093091122326, -0.11815354668710618, -0.09689054822682237, -0.06656451334578152, 0.006717367964870417, 0.025904895901852184, -0.03116355641033467, -0.011679194623108772, 0.053074835985089594, 0.07470085468983909, 0.07746174154362578, 0.06370167765126748, -0.06826079706552654, -0.09497794987765597, 0.015498280016943207, 0.15856986131963144, 0.048305648886816537, -2.883282999940369e-06, -0.00010265848712506375, -0.0003459878024430952, 1.784615253007719e-06, 4.8510575506113544e-05, -0.0024526418741871643, 0.0370287448661402, 0.030952853217895048, -0.009493801558589485, -0.045466792259412046, -0.04943819171226027, -0.08180488690253342, 0.023671631857444284, -0.052065951628257966, 0.01928645585414404, -0.017359732360705756, 0.039931297664605396, -0.0765211406842164, 0.047094431351051486, 0.005580948085657181, 0.09109340846058372, 0.016279244817392857, 0.06253687517038199, 0.07151012493497523, -0.08891039318930272, 0.008500881793713243, 0.10291169018591896, 0.014628352768996336, -1.2970221060142388e-05, 3.1456991840015126e-05, 0.00011830443210290941, -5.932589572381812e-05, 5.699430172433824e-05, 0.029397568251284437, 0.04216614172229669, -0.016778898184271748, -0.09209898764955188, -0.18176226233727907, -0.08764772763602656, 0.0007708156493017507, -0.03290302388142065, 0.0024942602605364274, -0.01218603615469144, -0.05553098612407157, -0.035144710913178195, 0.07910857880212889, 0.027689177736928337, 0.045068358016946544, 0.0640899033625653, -0.10995184748908968, -0.009920895389165156, 0.05693620421400232, 0.03563178217501425, -0.012511280055705185, -0.015758222668818204, -0.007504313347388651, 2.674296387729172e-05, -0.00012415634012302766, -7.983967250464756e-06, -0.00013857971546883582, -1.9346636272388107e-05, 0.025865145984414004, 0.025287969342434605, -0.06516089053551202, -0.023856525621851133, -0.12936755451538062, -0.05830953567597895, 0.015062525284149704, 0.08915669266725243, 0.1056793556366633, 0.07083581858007792, -0.014735047782979873, -0.04969473159653976, -0.02107926971491272, -0.06345216666594089, 0.08310459509903279, -0.13996670965080432, 0.03381708025200881, 0.009158266823762987, -0.07432102185421072, -0.0870238206243946, -0.008347850193174381, -0.021122511651980324, -0.002917361658783458, 4.770774920211096e-05, 0.00010756428799226697, 4.8848865694950984e-05, -2.6709437180498933e-06, -0.006691232743760878, 0.04972895317496426, 0.0016067864196532059, -0.07934266622161563, -0.08006130780901845, -0.05882058510306512, -0.12773037787332867, -0.03608333803902783, 0.138072723795388, 0.24812802331208814, 0.05580598147202327, 0.03584269386605928, -0.09609155149491364, -0.08310430939136051, -0.05396938507394341, -0.1130621547457551, -0.012821631712087311, 0.048881199899105145, 0.14635369726026717, 0.029040819448925052, 0.03285972833996852, 0.2011434383612349, 0.11808058127646832, -0.03066926760771769, -0.09412996936441867, -0.000123025529561278, -0.00013860741591286563, 9.704162648555272e-05, -0.009062441089041778, 0.035512345144293286, -0.09445778695569067, -0.11423586469705178, -0.08976533019670803, -0.11470274891260653, -0.05483112345462596, 0.034282166531708826, 0.1192266728329118, 0.18912927556920284, 0.10798145274585273, 0.17969255718373056, 0.04510226978455305, -0.1290929307666089, -0.06163244094921161, -0.05796447062307553, -0.06766565173726263, -0.017882276650096257, 0.030463376365740015, 0.2543971624904047, 0.10295625882875313, 0.09179624700014848, 0.005920888791850688, -0.055333345885564156, -0.024715006261515238, 0.00022640714783435462, 0.00017939486463309422, -0.00013470537818298424, -0.005955107410820033, -0.0701321025012784, -0.1543265142554619, 0.0015650676232258245, -0.04019479980741174, -0.17408104472233055, -0.06266591950292182, 0.02288332471222322, -0.03755404003846644, 0.10952569523218511, 0.17544824984990562, 0.10354154246446863, -0.047667130435189144, -0.0022688616147040477, -0.021651743938391265, -0.00498756859954827, -0.06816123889031366, 0.004534251108976873, 0.10605235045767093, 0.04962860177602691, 0.08642349235331981, 0.1076187654480328, -0.01094825683305432, 0.008300456091757752, -5.855920401856666e-06, 0.00023620663771071223, 0.00018236731603738358, -4.626588328115879e-05, -0.002932417833308442, -0.00903606827630617, -0.007729431580410251, 0.030910249017787356, -0.022904694868551463, -0.11246648535201452, 0.05093021721026098, -0.10405045728581111, 0.023474007222514574, 0.03134499520886961, 0.05443442603312872, 0.09886229784539838, 0.0006259307485471716, -0.17516452048966588, -0.03029251577398879, -0.030825275613932675, -0.04016224462339896, -0.014015121342664036, 0.14612374829694683, 0.05616756763257109, 0.21469707476279798, 0.1425937490246298, 0.006199806643332914, 0.01377568479789024, 1.326169683597594e-06, 3.8369064707389035e-05, -9.069117891569083e-05, -3.0482508663397404e-05, -0.004524543031135349, -0.10797871973533718, -0.10332607224956852, 0.031900157987652, -0.049595212619687974, -0.13194879014506902, 0.05757415113655705, -0.026222175786520856, -0.03582024354183421, 0.06074868182351823, -0.04689698785339722, 0.0834242743701242, -0.07858361970442235, -0.021970210753441393, 0.07458175630119436, -0.13120206028087075, 0.00048318365320518177, -0.0881455067078099, 0.0978260080207022, 0.10225444867836124, 0.2320223931648048, 0.028927041708319595, 0.029652928350337216, -0.061551951978295896, -4.919230100134041e-05, 0.00012139556945234994, -0.02327887878372007, -0.02095602481277271, -0.08213319572775186, -0.0666345629820097, 0.08892072838849838, 0.026354384457742065, -0.006676480373970475, 0.017948685839000125, 0.060366206980425365, 0.014311389099911968, -0.057283552229926864, 0.04423115882803641, 0.1245140029371541, 0.11955360560169995, -0.06371611941767227, -0.04221509878605059, -0.06307664578489434, -0.13118415730316194, -0.06239255246019866, 0.05393888788932319, -0.0007345222331492805, 0.0865039533882158, 0.052028700124390564, -0.053724756488796085, -0.025230904385478585, -0.0001892643273311033, 0.00018903578422577096, 0.0002103935086960097, -0.02381220796089336, 0.0025178180407492193, -0.12326238956101368, -0.012388174779811507, 0.014513482834572954, 0.021766486544467868, -0.129857589255984, -0.021093200001073995, 0.17672741001548267, 0.005676727060609486, -0.024343330238464585, -0.015329600955907133, -0.019178218965110932, -0.059630365942749716, -0.06386817588162273, -0.040139197195090126, -0.11364243750735858, -0.05230834034424128, -0.0019356313184486413, 0.0077147949667629445, 0.0006236327683728797, -0.0650075171196041, -0.01101633782779164, 0.0002898481117039056, -0.005796352719281355, -0.06813961328963043, -4.719478647328477e-05, 2.0918759860685853e-06, -0.024030709576720058, -0.0005918890372720298, -0.01938819537131645, -0.0407253786011936, 0.042107646153165125, 0.02060236924442742, -0.14952067987830733, -0.04196816706107585, 0.13470982890347488, 0.09524956510114324, -0.02511223755015737, -0.022196014206466157, -0.05766097659403757, -0.016109117088410688, -0.01177972050200346, -0.08668822702560419, -0.09833601179834475, -0.04389358419739127, -0.10180675644134812, -0.08473458882164941, -0.0014077758392514392, -0.0525584148914077, -0.012458177519388528, -0.007085749592394545, 