{"layers": [{"type": "DenseLayer", "input_size": 784, "output_size": 128, "activation": "swish", "alpha": null, "beta": 1.0, "weights": [[0.0001873041314674881, -2.372034865831033e-05, 0.00010280450749686933, -0.00022151054400263288, -9.09453325594108e-05, -4.947722804842907e-06, -3.478770417696456e-05, -1.6111762234327572e-05, 0.0001886075219730747, 1.8189099964178074e-05, 3.1491800672147554e-05, -3.0064265045988018e-05, -0.00011276490015983634, 2.2803873895145083e-06, 0.00010609074241379549, 0.0001930842454825428, -0.00011641144687166663, -0.00011763698386954146, 0.00015669383729236986, -0.00011590044218156399, 3.1961032957218986e-05, -0.00016880118915121823, -0.00019092732581141796, -0.00012972112457443712, -0.00014895750516266118, -0.00014873581425526528, -0.0001487636073080965, -5.2863262993053386e-05, -0.00012106456594608505, -0.00014896587566971695, 9.766906483519975e-05, 9.556128853776753e-05, -0.00018054306563228687, 0.00023444163077465834, 9.007535486885208e-06, -9.195834002780014e-05, -3.734037956548388e-05, 8.06686290892344e-05, 4.0328174165280285e-05, -7.455454976076812e-05, 6.334069724809738e-05, 5.159415168691889e-05, -1.719343316197832e-05, 1.7271633912398045e-05, 5.154293083315214e-06, -2.3648507081761287e-05, -0.00011002649709352577, -0.009319442658671882, -0.0173272797683871, 0.0004941805262879009, -0.0001951260118980656, 0.00014886668061471882, 3.054221622286034e-05, 0.0003437363700378066, -0.00023501178609954004, -0.00034400768559055423, -0.00014960921708766348, 0.00018804850628886057, 0.00011739338891075242, 3.282310760068092e-05, 1.74971274864708e-05, -6.362117061061839e-05, 1.5784523627620827e-05, 0.0001654278592543818, -0.000513349875569032, 2.5585472447583266e-06, -1.198628973777121e-05, 1.5481041807963236e-06, 0.02049167163355193, 0.07188798847479408, 0.038365524153863476, 0.030527594182365298, 0.02481456231779332, 0.019155171739500553, 0.03259904165838174, -0.025956458580993796, -0.041296779829735564, -0.011147871242504747, -0.0026621262042008163, 0.00025410349272421146, -0.00014206842893219458, 5.037139760044268e-05, 0.00010585687587971106, 0.00010671986532438133, 9.431127396894467e-05, 0.00014814441695275914, 0.00010809850592909435, -0.0001145146698927335, -0.00021820032220817723, 0.0001279410235411862, -0.0010045045924047967, -0.0027514557264108667, -0.005563266620295269, -0.0012063722010800604, 0.020216503970238046, 0.06566765111185024, 0.09796271483829129, 0.11883131861421956, -0.03497618910983306, -0.00397607215573037, 0.03121265398795921, -0.004347375670565779, 0.003768889238887082, -0.1153658830667632, -0.07044672358523393, -0.09127553783655937, -0.09108305195821612, -0.009993087532830586, 5.914057816523166e-05, 0.016758785756517628, -2.727092391717595e-05, 0.00018747400423410347, 0.00034458643844961637, -0.00010648904500829232, -4.599753122189429e-05, 0.00015762080981864245, 4.679254129154585e-05, -0.008165029993753833, -0.0030390735143205837, 0.0523297401424727, 0.011738664474203275, -0.01132240048754524, -0.014359708813327718, 0.07513083315173232, 0.2422691240609784, 0.2025981213910615, 0.053386379911438325, -0.04523692608080814, 0.01952707839927497, -0.003552765598300431, 0.07551572346710415, 0.04022156286920137, 0.01311021045683246, -0.17889318480705593, -0.1851784388666968, -0.04958551372302363, -0.11922318310508061, 1.6086490170968645e-05, 3.7741876827637695e-05, -1.721162945672952e-05, -0.00012761554197134915, 0.00014927517352021492, 9.23362508450774e-05, 3.844934335055983e-05, 6.792448235450167e-05, -0.012572288614453347, -0.0036510498032071, 0.06299606251743202, -0.01614132019845372, -0.01125929810365755, -0.1344402636290365, -0.21318962710990996, -0.2627031668718972, -0.15212026884646287, -0.1810075135042836, -0.10436326261557016, -0.07323554770937499, -0.037039633090508284, 0.13667323262435735, 0.11351095357789583, 0.05967921146754835, -0.06244740958994721, -0.052765609647638816, -0.10779265339497286, -0.01874353772789065, -0.0005883596394878808, -2.180604273622586e-06, -2.715350217617192e-05, 0.00014824729082235988, 8.4292681443612e-05, 0.00015811865088597718, 1.2583657836395328e-05, 6.380917592214358e-05, -0.013825537586180285, -0.011542285840508235, -0.07949717413064403, -0.14503140718205196, -0.2748864094111463, -0.3366334357461466, -0.43644460432769144, -0.2717715894608963, -0.26013704746585115, -0.02647437083241823, -0.07104725027903425, 0.06992469941146044, 0.12959999123213636, 0.13988183027907042, 0.1401145238738502, 0.06294758772985877, -0.00448108207107231, -0.11917154144222529, -0.18223928901366576, -0.06362744639920438, 0.03356484915960656, -0.003249733942819855, 1.0478169922475091e-06, 0.00022660416733586553, 0.00010562001819975971, 4.645820576883289e-05, -0.00020363231923318484, -5.647959970521787e-05, -0.026590922618333405, -0.14353522510944036, -0.18257694087988793, -0.2321830060185531, -0.44957500366242314, -0.4060993011277342, -0.2738519450900862, -0.11165980992116502, 0.06220835772962834, 0.13406726672735605, 0.13381247934380092, 0.1409231182006475, 0.02985182373598608, 0.1287730011596527, 0.15653983475012503, 0.0997931672738632, 0.07634620296524468, -0.028822943258548468, -0.10588838202616617, -0.09403524117091511, -0.01043884972972852, -0.07442966747266587, -2.0359467468913835e-05, 1.3079755304730823e-05, -3.3224848751087207e-05, 3.8986928476624505e-05, -0.00041846575597444843, -0.06811080925990765, -0.023786199792577917, -0.16169399115848276, -0.30950314725175654, -0.389535417285696, -0.24103284077069784, -0.05480635001306138, -0.08869743040449846, 0.01857627423657175, -0.014108648356861703, -0.0222546076551935, 0.08244791496654627, 0.07242270929023088, 0.09386276006907661, 0.047071638191583685, 0.05545407400760928, 0.02848409368959761, 0.11604820000627471, -0.03555809800550826, 0.015459650237036784, -0.03615501196693269, -0.16268643506883074, 0.00016332932694613136, -1.5025026083069731e-05, -3.6700507215485485e-05, -4.152598337352137e-06, -7.137749727392747e-06, -0.0003520002665456343, -0.047031865092866804, -0.19500724958051563, -0.28857618315841127, -0.40822982822492765, -0.21773414118734835, -0.09494180812894709, 0.004195418380448848, -0.055472396185894765, 0.011053273034523723, 0.12017000461967381, -0.01284421714243854, 0.00956108548190972, -0.09649946235199157, -0.03738464748666793, -0.026024808120035364, -0.02673922454516305, -0.003302812925208916, -0.01498936314372465, 0.09015825436713006, -0.03166172176817, 0.02347743332551933, -0.008982862229288142, 0.059923002344014986, -0.03259232233584774, -8.612691544443862e-05, 2.4889393380903032e-05, 0.00030288570898602963, -0.005112111897378553, -0.04333193517868431, -0.17173355363411394, -0.3465715658732142, -0.15996855305749785, -0.054584634753555496, 0.010322272977172298, 0.05957543388297247, 0.09656097038693563, 0.05269705299095391, 0.03322212668161271, 0.059590148966048785, 0.06159360819488585, -0.11987095415618733, -0.034413063813784305, -0.017365869547682784, 0.07523174118590953, 0.02240204615152197, 0.016000985536374544, 0.03355402173142727, 0.06632947226013526, -0.07847945946175791, -0.07011834374107166, -0.0009488155275485692, 2.969233593717106e-05, -5.1533942481935604e-05, 1.3945541612143902e-05, 0.025782848252239636, -0.008428549244041524, -0.1464684266993307, -0.18757531187977108, -0.09901743601586259, 0.0011420284802867936, 0.06590862007834439, -0.03998973772557459, 0.018833531875768576, -0.008163436087307302, -0.07582493686490566, -0.0771276632094287, 0.061736928477789124, 0.009684208428413558, 0.0396520961035913, -0.04502739540790127, 0.05639469852170748, 0.10207028077176274, 0.03985235206331522, -0.012095065081759346, 0.05622074477988922, 0.008515648761859425, 0.0011466558602736194, 0.04137965914268816, 0.029321524689974447, 0.028129744149288906, 8.133726001719098e-05, 0.006485339664818504, 0.014817155057859343, -0.07836669865038502, -0.0332884551710796, -0.013232749683532921, 0.12864529341092254, -0.04658804496236155, -0.03088568675316735, -0.03713412173701675, -0.07466731226492447, -0.10206684614937572, -0.13399494509650267, 0.03644530507451098, 0.15274844584989483, 0.10228429714542134, -0.02715096187475009, 0.11717369835170123, 0.03505156168088077, 0.1289151841201351, 0.044476601937973786, 0.06678140313080898, -0.027504736893179737, 0.036963464683517105, -0.0014106671751620901, 0.03074829616000645, -0.0001295862971703703, 2.7991901341204466e-05, 8.830446108657733e-05, 7.90082479345553e-05, 0.013543266804849978, -0.07275567839437651, 0.049956717845942904, -0.01513298020872006, 0.055314559553453, 0.05884639316477587, 0.0029610277272082725, 0.03513315309889076, -0.07598653021766968, -0.13340438564101664, -0.09903994303337954, 0.05965226273473058, 0.22265062046629294, 0.13241207650002698, -0.007208185322967587, 0.026558009345976876, -0.09831755547514143, -0.015941311579110568, -0.05448372482827136, 0.015571235615510607, -0.040913254977887344, -0.1626613677508496, -0.13619051319685677, -0.00409170806501415, 0.01897598493426855, 2.8253521714240903e-05, -1.3392906324145816e-05, 9.643636040258333e-05, 3.8398541066400846e-08, -0.09436144953546888, -0.03210429372745896, -0.05410955873368441, 0.05036115122794771, 0.06123267873288065, 0.041396826239023, -0.023312921560562843, 0.0019306552502735045, -0.16994036500028398, -0.10866954477274848, 0.0996387620329251, 0.08672060662532104, 0.1075035880920206, 0.02431234105183425, -0.01151235376350944, 0.018135245888936967, -0.0669112115905345, -0.07247073679593205, -0.06791184488919358, -0.24642064689908438, -0.12246083240885802, -0.0999306395837052, -0.062236754915946796, -7.012618856974978e-05, -0.00012588362336760404, 8.899067118679416e-05, -5.585463483225439e-05, -0.015724565911825184, -0.07811666113166711, -0.020917798407518583, 0.01864731051590558, 0.04446740435878694, 0.09588601448224754, 0.00864383516877411, -0.038758309810426536, 0.017723753428508644, -0.02064935097306944, 0.0006836952718533201, 0.12052997132617987, 0.0987749535080167, -0.01223606853109799, 0.05348690491549694, -0.05139121442552693, -0.04941714488376171, -0.05660631894811761, -0.11977854083910136, -0.1175048459604404, -0.10646521972089555, -0.19120526691358805, -0.0626953826123931, -0.021247516053284655, -1.784628928475285e-05, -8.031606994842515e-05, -0.00022403411496040552, 1.2628135455062167e-05, -0.0025073683295745923, -0.09043882217622931, 0.0019334572882005652, 0.06974453034226723, 0.12790174145333982, 0.08167374408138549, 0.021024245211872024, 0.01035499161336406, 0.1078902576020493, 0.12095984594705006, 0.10658331664023846, 0.07947512161598844, 0.06150497102389492, -0.05416976866663221, 0.01337551936189479, -0.022039991199350344, -0.1399406928648939, -0.1312437335751904, -0.030639046519600713, -0.05599979482439323, -0.06552510398703076, -0.03587110844550765, -0.018184978480517065, -0.011122690242648428, 1.3914772790048665e-05, -8.83186342270487e-05, 0.0002095188141725818, -5.6464259757846126e-05, -0.005111357964794941, -0.004608114692169628, -0.07697536774509733, -0.11484209874377861, 0.06167897276942049, 0.08665201911900162, 0.0613209928127663, 0.020974970652266514, 0.09407336120717681, 0.09605579728416767, 0.10441071037229283, -0.05525561465854183, -0.02463370308481711, -0.019648314890811293, -0.06524916028755134, -0.15774778223236616, -0.07627724278189478, -0.017867602690430973, -0.061372292308052974, 0.03312913698265878, 0.117969152022827, -0.007775250101849123, 0.03329340843765021, 0.1529280040838343, -6.278786771861703e-05, 2.9718470978167113e-05, 4.6040515623435306e-05, 2.426927869451005e-05, -0.0011026377684894718, -0.012172118985116503, -0.18249484676591546, -0.08411971922591298, -0.00391238835966842, 0.1344367214815642, 0.24166153928954284, 0.02084888120623937, 0.06878411217586985, -0.039126954748968816, -0.020423973390215993, -0.006371095983968945, 0.011825342714509201, -0.0403310896342996, -0.03087876669457171, 0.01671045062224308, 0.012894168383043329, -0.051377293771117515, 0.010025592067868946, 0.06956616990771826, 0.1338315507772574, 0.03715499501096444, -0.001436567973761771, 0.07836481148154045, 4.871890283710069e-05, -1.3317287245634716e-06, -0.00023254437602797425, 7.72346846984525e-05, -0.011361829787415654, -0.06610479996453826, -0.042341483858812715, -0.15061354085700093, -0.021441299062758025, 0.007739622922112648, 0.034368447392108314, -0.08867794313384372, 0.039606378652196, 0.0008142488479084024, -0.04685387720525991, 0.03316500805080274, 0.03579300760125952, -0.07311611363064313, 0.07142211232029835, 0.01566880528189566, -0.002536437702310796, 0.006071910687545111, 0.015561857845755289, 0.11759004161325638, 0.09449980590899529, 0.10408273765329139, 0.10451789100435346, 0.05381460618086135, 0.00020510069223888955, -7.546610465146097e-06, -0.00010289700059322538, 4.767438590672585e-05, -0.003282760536047514, -0.07456857409724718, -0.018650309929758534, -0.024603101022517053, -0.010677436595040633, -0.0932628618972388, -0.06828401423269675, -0.059527165397177007, -0.026094436679375006, -0.029019536911485518, -0.014548471544508126, -0.05097779929159678, 0.008834861334928458, 0.010461715985988216, 0.059570075934772634, 0.0417927199634757, 0.03687140896110674, 0.02849090762672766, 0.02443789297347087, -0.05271221100955718, 0.1330959474522037, 0.0746673294058424, 0.1416935154883539, 0.11837000044300004, -3.90590808352508e-05, -4.054798864879501e-05, 1.2774003511803678e-05, -0.00022446450996795286, 6.659415439881664e-06, -0.038287875519223497, -0.07158842962228354, -0.07126691511377521, -0.09460256913833924, -0.11193805695802536, -0.1477368806645652, -0.06897459699864965, -0.031690537854156105, -0.1349961116834459, -0.16986014919219566, 0.021502724489899563, 0.06373791843131855, -0.005584652945935534, -0.031453642678401644, -0.028533568577098857, 0.039526851326746534, -0.0013150695688567346, -0.1045230331192421, 0.03879929464717894, 0.10803559964323128, -0.0063249461374482495, 0.1406182514346451, 0.0007400533441440987, -0.011658394792459968, 0.00016125833048999004, -0.00011605111480196561, 2.2072639270986612e-05, 4.704071492604778e-05, -0.017535372420851843, -0.07130355815805911, -0.07859571798372111, -0.22990908644431896, -0.15473083109259622, -0.20419543162160175, -0.06370546473226152, -0.10468061115154367, -0.13818908772645186, -0.06080028054036504, -0.011427254842415746, 0.02489771428302378, -0.005031756506659221, -0.07443166789038604, 0.0050363840635237935, -0.012696763110237921, -0.1006138797599861, 0.02127549889317323, 0.07374301515845615, 0.04936115091358736, 0.033177141854509755, 0.003806596314926076, -0.0023511715402867346, 4.327362402092145e-05, 0.00015513487566138536, 0.00027647032238624987, 0.00011661600569143349, 9.034294852316727e-05, 0.0013169446204876068, -0.11604573283574855, -0.16309383701294414, -0.23583041789923911, -0.12599439620212627, 0.003931300261141758, 0.010328083534418294, -0.014492150723674083, -0.02489992420958707, -0.022676744891726126, -0.02464733062620897, -0.018780341671036323, -0.011835437783805783, -0.11606057607099608, 0.01815335539748716, -0.1380282757451522, -0.05937325842612667, -0.0029149081216712208, 0.039815845295647925, 0.08189970314830741, -0.0001993337157052382, -0.011896370201971923, 4.856587747243316e-06, 3.4047025059718533e-06, -9.340529516402344e-05, 0.00010098581067014318, -5.30813648716795e-05, 0.0001269315164173002, -0.003859127375350772, -0.006198586656497914, -0.17336763116586412, -0.1322377379995748, -0.11676067144003345, -0.03362322910967602, 0.048620840611277055, -0.1062197371276532, -0.023458548085802788, -0.03912569561558684, -0.06283465460172724, -0.05168545699473334, 0.025240705940065288, 0.03127467244929939, 0.010994622771261465, -0.08091973845656958, -0.028351721186827387, 0.005681086323539864, 0.15863636615643817, 0.09593376747607577, 0.07847918917581868, -0.019375714032624752, 1.5020176793447261e-05, 1.3242285893108588e-05, -0.0003447214149884158, -0.00014910414463990048, 0.0001650118199204699, 2.3183713462578172e-05, -0.006168985070737833, -0.08732794410687587, -0.050961155188212086, -0.027287169555770447, -0.03578108998878722, 0.09498824598853049, -0.017376687029146676, -0.012540985338140518, -0.01122631277515062, -0.012215089958218612, 0.03769593678941504, 0.0824630347367976, 0.0009733079911222534, 0.13455719732878677, 0.06332673813855365, 0.0096017902010567, 0.11993856905643954, 0.0947098473939917, 0.0003402857621705259, -0.043826148510290736, -0.018533417729876777, -0.00911805895660393, -3.759880357945198e-05, -4.143405557419883e-05, 3.303412866587756e-05, -0.00011031990801719188, 2.9439515555605993e-06, -0.0003439971550514481, 0.0001491738110471286, 0.014370562201926385, 0.06561481782501312, 0.16500389038118124, 0.17088212025631497, 0.1350298414722173, 0.07715922021289899, 0.15967462808068122, 0.09510587754359094, 0.11010573698451051, 0.1315048137475683, 0.1662754048360447, 0.11873164045309935, 0.1918865279347745, 0.20566065020232432, 0.13033744675154466, 0.1924607138934142, 0.033175502611595804, 0.00012265988433733937, -0.002040091346547908, 4.503105540764176e-05, 0.0001676292048124479, 0.00022601861989425878, -0.00021236854863110018, -3.206420978486535e-05, 0.00014824291881683014, 0.0003446929919189341, 0.00012928695293337944, 0.0001613898685475985, -2.0423047738289305e-05, -0.00019758612666229255, 4.186475757349363e-05, -0.00026786843352568805, 3.54917918092776e-05, -0.014494814368494745, -0.008125261036469251, -0.011118409289035805, -0.009572342823158206, 0.06542612063020968, 0.17593983541070174, 0.05547225616086334, 0.0591330761434829, 0.0005899021884494526, -0.00015287925922362274, -0.0014170552105389508, -4.1471562980325224e-05, 6.585648606985384e-05, 6.373836322294923e-05, 0.00011287418633111482, -0.0003133960231036677, -0.00015011415946749863, 6.852202697189797e-05, 0.00020868872908968587], [-0.00021435403439066522, 0.00023056181675878057, 3.0227634095309897e-05, 0.0002336693032956501, 4.891293140258708e-06, -4.6768506517847844e-05, -0.00034467527233038363, 6.43352897205183e-05, 4.898518480337546e-05, -0.00010160854772334019, 0.00021632369971170574, 0.0001437031104549287, 0.00014217449248203626, 1.2791911289303519e-05, 4.147721682018334e-05, -0.0003257120512342115, -0.00034450946581446654, 0.00010663384409149404, -2.3317964478223815e-05, -3.150698545698081e-05, -3.220468119386898e-05, -3.96223507462574e-06, -0.0001491522872261321, 9.444279162555694e-05, -0.00012973695188542783, -2.8397320732215396e-05, 3.273834810309947e-05, -0.00023373638831209674, 0.00011106841401674804, -0.0001489171458820774, -0.00014869013075101618, -9.546570209175121e-05, -0.00027866053296229107, 6.992753592848446e-05, 5.943653535247262e-05, -1.3494706462437818e-05, -2.552728837089211e-06, -6.506396872029176e-07, 0.0014795860491311433, 0.0028469619730038657, 3.4620379130122793e-06, -5.294857355160895e-05, 2.308181595521872e-05, 2.137781543165948e-05, 4.318944007632655e-06, 2.8505436714776794e-05, 0.00012262241755265873, 0.0001217168477826513, -7.866616367977614e-05, 3.425959731312122e-05, 6.137916107020578e-06, -7.772938706064661e-06, -2.1030072565001866e-06, -0.00011634572599676204, 3.259739114651412e-05, -0.00010455101859550679, -0.00013825368060707948, -7.735429675311917e-05, 0.00010469292185672199, 8.853788617533145e-05, -0.0001571410488519866, -6.794649640771936e-05, 0.0005564906958783177, 0.0007747788821821345, -0.010991884711824456, -1.107567933454195e-05, 0.0009612153540938075, -0.019271801659875902, -0.035338799381175956, -0.14666862830077929, -0.09224677487213602, -0.07858709949843454, -0.1832238427489393, -0.29214839408223453, -0.14180007419560678, -0.000444867456495659, -0.004189124878362838, -0.002930690649930027, -0.006834270156693019, -0.006939879293959625, -0.008351083082203442, 3.5963759957116884e-05, -0.00015011162904875522, -1.314846228738329e-05, -9.956352811964873e-05, -5.9847468363645134e-05, 0.00012503697945185662, -1.6218864592158134e-05, 1.3892387206326113e-05, 8.011352648534413e-06, 0.0005452282832409252, -0.000873977303892398, -0.1519186461821117, -0.07083607299954184, -0.020322698678553654, 0.03742526443871437, -0.10067012660068214, -0.19133038201266084, -0.2980386053615938, -0.2652968757806204, -0.2120654109273606, -0.25886049802903616, -0.31631237605459483, -0.09346935001682015, -0.014900721850736279, 0.004704236448742301, 0.008764943626425523, 0.008003462337698762, -0.0022045966103453134, 1.4360940121928112e-05, -2.1870666174799117e-05, 0.00022396982167553474, -0.00010690674625553657, 0.00021298774175910305, 0.00010746553127696502, 5.782249678922828e-05, 4.067254691509599e-06, 0.1299959966240315, 0.11271253713825898, 0.09101881292623755, -0.015876640981616896, -0.029405516789186906, 0.028375363304629968, 0.013713236057969666, 0.058031974630816115, -0.11372151614300398, -0.13674146483582736, -0.2529206353443466, -0.26331067286336973, -0.1515739659422954, -0.018247815693474848, 0.040992039782249294, 0.037480242686794965, 0.08778537056543184, 0.0016936422280858063, 0.0616649313557616, -0.06710785705716425, 6.944670716590371e-05, 0.0022684790610531112, 0.002634109452609883, -5.387920320535245e-05, -0.00014961512144954478, 0.0002046597346995838, -2.188041692155199e-05, 0.15829363569952606, 0.23119647501435533, 0.14218434986842204, 0.12956653939553558, -0.013845879948487138, 0.21952370992405817, 0.22189581153258772, 0.024672077810985234, -0.10793398948797593, -0.2874938776876124, -0.4594407318679263, -0.5405897132514352, -0.1886182361860438, 0.17313822237458643, 0.19798584990409845, 0.21940199507455618, 0.1280842739264044, -0.0033288226814870187, 0.05549810703685272, 0.1522359268188926, 0.02502865365878565, -0.13296725950529664, 0.011683617558898175, 0.009942420651651287, -0.0001494796335243155, 0.00015604530220242037, 5.227702101245594e-06, 4.785401493356491e-07, 0.02248289458692738, 0.03534538817763748, 0.0406534297129352, 0.17164147409468625, 0.0700934271399475, 0.16413919915363737, -0.020805982777584896, -0.10211118517047592, 0.03761822002639761, -0.283359774638194, -0.5154373908999916, -0.5537401235326966, -0.1738577836676809, 0.10467095046134885, 0.10816567980482071, 0.15874076400018639, 0.21635080015416128, -0.030389615028352315, -0.008056122085576559, 0.06551533388568125, 0.008944081800147073, -0.1150591708840039, 3.789919212596859e-05, 2.4640152167848513e-05, 6.335887171899052e-05, 7.212385647163992e-05, -5.9286207192713305e-05, -0.051246399504106366, -0.07542279148231146, 0.10046978799222649, 0.1417501240943608, 0.044500315811266386, -0.033174834245587335, -0.019751611113997137, -0.04243575019345614, 0.07350352238626102, -0.013930301580728085, -0.26134270585952774, -0.6067451024039515, -0.31148576322877963, 0.0711842388330989, 0.19486674198910578, 0.054577077239623885, 0.10093144403311502, 0.09654605662925332, 0.015371569546315158, -0.057043799840910674, 0.0630874187935694, -0.11326183955003154, -0.14327425664538027, 0.008261639607938374, -4.999293410147172e-05, 4.3214130526799465e-06, 5.104416171287487e-05, -2.9096778565214876e-05, -0.0001112242988922488, 0.01822239460918266, 0.05906698054838369, 0.03250772997279145, -0.006885598702634938, -0.023575067872008783, -0.021805781178173615, 0.02127833781965836, 0.14802209086515253, 0.07448061210378651, -0.262674512633627, -0.5499620446900946, -0.30476954202321627, 0.14067950794890252, 0.1383813813617479, 0.21738797472320626, 0.0497595113100827, -0.023279063993319353, -0.02104347862849486, 0.010794774284672943, -0.009004936918957436, -0.1566985268573384, -0.09832948546798562, -1.5116888683010023e-05, -3.3671418032694354e-05, -0.00014869827271196765, -1.1562861821996833e-05, 0.010298334510570729, 0.0031362397325840606, 0.0025447902239082664, -0.016155806385797396, -0.055311251383315954, -0.04130561760550149, -0.07052780181621032, 0.04163334292479655, 0.11732310721560095, 0.21172130814015186, 0.16100023102708386, -0.24558216117833653, -0.5177751109852262, -0.08001076335153272, 0.11893110038565437, 0.16187209115161283, 0.0028926919830422025, -0.053704312566490636, -0.0019980055072198444, 0.040470929042054876, -0.05988717145633263, -0.2233000210156982, -0.20140026763342875, -0.0011011120458048476, 0.0002896056256380756, 1.5804534546187987e-05, 8.646286299819768e-05, 2.8332216643517974e-06, -3.3636018884218422e-06, 0.020869905262378665, 0.0005791378584631351, -0.02521929364652778, -0.1406424081570225, -0.02021385239453174, 0.012004136471197031, 0.04931304246157756, 0.14505261235836694, 0.16267206181309188, 0.02859793163065521, -0.47319052654973365, -0.41947257161010215, -0.07102701131558224, -0.03048606006259041, 0.21099152450040853, 0.006053812278350238, 0.1201878581467054, -0.06952997093951489, -0.03396254418503832, -0.1192153718528706, -0.17910146346464867, 0.00035868369891221667, 3.5351310881119656e-05, 0.0001411245015794633, -0.00020873178085985448, -7.0491701317206e-05, 7.553869362088795e-06, -0.004438342974791508, -0.030235694513481896, -0.08557016601576338, 0.012172101777363263, -0.03438495620734557, -0.08772425470615255, 0.005321517225744173, 0.05240226211636555, 0.10623044532508231, -0.008424273292905463, -0.14483111369931187, -0.2746779080265434, -0.18851653431851106, -0.03730646131515001, 0.06925485516729354, 0.053555183904005856, 0.03115253917570428, -0.051517259270069074, 0.0052037430345553, -0.10425305813805683, -0.15445172039403848, -0.17393018629816948, -0.08559664466925182, -0.0441402054824511, -0.0015461370503056866, 8.642613027116118e-06, -0.00011406385990022355, -5.693191889431198e-06, -0.0023140272626905917, -0.02518951888207803, -0.017776044271022626, -0.001955957795101707, 0.02275829635472175, 0.03471101353949469, -0.05596766430335319, -0.058532462717227215, 0.06254698905332642, 0.007069751256090969, -0.03733291696056491, -0.2392555128917284, -0.07725492197582705, -0.01035385480164602, 0.03669662603769861, 0.05400268300060619, 0.04505077891345538, 0.023566547738287483, 0.05197945260854972, -0.13441693350244982, -0.08656027542422688, -0.05522244623876221, -0.04370405418635445, -0.015624229298203398, -0.002293301340267108, -2.7434381595522442e-05, 0.00026347481500993593, -4.1133888612776184e-05, -1.8678205391502596e-05, 0.005523179097809132, -0.03541042186344552, 0.059891158584590654, 0.027928513504380678, 0.10370147680999661, -0.0645158106086773, -0.009396769739415244, -0.014867562730580992, -0.07193236560285071, -0.07269233155525875, -0.05723954007717863, 0.040416116803043384, -0.02258071222660165, 0.023896971275121966, 0.09897755063135412, 0.10739289944570075, 0.07034224514917328, 0.032754215203256165, 0.13760747701991938, 0.15251640169478495, 0.019789649877343045, -0.053805425777095996, -0.006040716323748467, -0.003829942462481358, -9.357938603550096e-05, -1.0112349093515773e-05, -8.66276467973863e-06, 1.5928818222894953e-05, -2.059286439070672e-05, 0.22432724633136042, 0.21227721331387914, 0.03533124416888478, 0.03532026263360118, -0.0697693297596715, -0.009248945025448896, 0.04502529271018901, 0.03555664910327341, -0.03603788180488498, 0.03510899992294947, 0.051814908184421846, 0.049898150787691935, 0.0340832155173451, 0.07992472602717456, -0.01046844514802847, 0.06881572032778423, 0.08897105314341902, 0.10500140162492559, 0.08311072080679431, 0.05838907792270696, -0.07872019507303796, -0.01097339749094696, -5.148074560795447e-06, 3.508098261833293e-05, 0.00021890829535611882, -3.9821117205257066e-05, 0.00022822419704808988, 0.10367643289610562, 0.18904660792054553, 0.09082813507642737, 0.0011582849126308273, 0.005471779253878515, 0.0041960953707085415, 0.011302195414361815, 0.030069936043642314, -0.03670785712547698, 0.052238149388897766, -0.031063862062013586, 0.14180152259131934, 0.0832781849213444, 0.013247390184551443, -0.03292912162165897, -0.005973579983283199, 0.04911231489475754, -0.026280822349467353, -0.021534224059311997, 0.02270872270739821, -0.13316266915547892, -0.22229699735278127, -0.022524696965024283, 0.038468676844899685, -2.5386433497469323e-05, 2.3165113401020168e-05, -0.0003232429254698125, -1.510657374104499e-05, 0.005887717386123383, 0.11558790230682138, -0.017097930476938396, -0.022292883575072423, -0.0674098748102125, 0.0049579382476733465, -0.022078080151832553, -0.12252028971458252, -0.023580161952842165, 0.045070790529509755, 0.009739037492338157, 0.032908452796993774, 0.03661305208235828, -0.01258461731537404, -0.07762175833466596, -0.049686332408454735, 0.029946617408877232, -0.0655771980109554, 0.004974447140724181, -0.06935916626285128, -0.09125566914029146, -0.10180772436165486, -0.014210628014025272, -1.2030122061881664e-06, 8.221374241073686e-05, 0.00034561777345027176, 5.187310802240891e-05, -3.8934360448152e-05, -0.0962375984924885, 0.013819892348143292, -0.0033227795271161664, -0.006866790909012536, 0.022919389715383556, -0.003091717649391648, -0.0008456390195515084, 0.0028002097823942025, -0.020889636273699906, 0.0028258747108156675, -0.16984220080367646, -0.04841979692033829, 0.0576680481538983, -0.04465016050470825, -0.029166958516483918, 0.059152795139924476, -0.03230902813033448, -0.02064107248281519, -0.05594762776078996, -0.13834146748641304, -0.06940929947019411, -0.04293100947847449, -4.306993970944079e-05, 1.1890248658659088e-05, 2.3548162587737977e-05, -4.893583370710371e-05, 6.18894706319111e-05, -0.0010721548609427026, -0.10844996375887817, -0.0076774287856496565, -0.1349815196802718, -0.07282549735135094, -0.0932981448947232, 0.0050661968227116985, 0.08903235368344724, 0.0278413682758024, 0.059378216614229574, -0.011949770868973777, -0.042070973259805355, -0.03935429876438474, -0.06953219603146187, -0.027269648227634, -0.046820349028447034, 0.017529443231679744, -0.060230999765170976, -0.017472549728958172, -0.01683676560476157, -0.1120105939503104, -0.14181331138195813, -0.08766854995016027, 0.00868429965557684, 8.998444130793507e-05, 9.980175097282549e-05, -0.00014136106750115463, -8.118579098711149e-05, -5.412928418049246e-05, -0.05374067722414615, -0.2704073466271258, -0.06271906569530653, -0.0025517772589036865, 0.031432576185899, -0.016253167948444343, 0.025036523014740727, -0.0755571471642186, -0.003272473302025098, -0.04808587899696852, -0.07409084665421847, -0.028443899762251056, -0.007640041919387917, 0.016461047632055695, 0.12736626244518645, -0.03176072931086104, -0.040403107507460984, -0.09996536404160865, 0.0021193776770329297, -0.027539574850718965, -0.09757796347672827, -0.12547252199425232, -4.0707710895922724e-05, -3.2048051818159046e-05, -4.0934423473750185e-05, 0.00014931141350103846, 1.099020547352419e-05, 0.0002901334006169098, -0.0002547121506987483, 0.0016234169056771174, -0.07168622097984387, 0.011213448296119406, 0.024185798123223395, 0.08679666355498923, 0.029118060309260004, 0.015292358390402761, -0.15380494834277095, -0.0455944224931678, -0.07910404870847837, -0.06651359487347863, -0.020232012725717462, 0.04780117650345868, 0.0004452607402578685, 0.003358519372079116, -0.07743918121065475, -0.0017739378892169168, 0.055582209923562116, 0.08699168260347505, 0.1154220703261094, -0.016176688668117924, -0.01414490499245377, 2.177037841017963e-05, -0.00017673342080562861, 7.365004740158598e-05, -0.00016434452240367658, -4.772003873195976e-05, 0.0016367485440762454, 0.005428019444131623, 0.09584810908503416, 0.101595909180301, 0.003002714566340466, 0.14210542212904173, -0.0263040128313661, 0.011068584116943003, -0.037143387736048854, 0.00285739067496344, -0.036812482230015486, -0.06209869375679641, -0.010047995383464254, -0.10131569161855282, -0.04641304080691008, -0.019342111210339227, -0.003842180834050759, 0.07423713687377671, 0.08160268006952309, 0.028454923311141182, 0.07540245876141262, 0.015265573493915498, 0.0028387826291898072, 4.814962946726774e-05, -0.00031053871683514345, 9.484951817396958e-05, 0.00014576957822535369, -4.534510691552233e-05, -9.125318865564632e-05, 0.01799831970350927, 0.18079089973846657, 0.10327795580120534, 0.02465704826709322, 0.012069710625488346, -0.01618139386220255, 0.02126388214088817, 0.0023301795155776365, -0.040151450461715116, -0.07741242551500731, -0.05081923249448557, -0.0004078082186098965, -0.06958294343857112, -0.0412985221109817, -0.05685796199007853, 0.020525371672800767, 0.06554993615471945, 0.10441387508043351, 0.017128520806450737, 0.000767053310965265, 0.07480703370957899, 0.027004723922188303, -1.2119797920828864e-05, 0.00018550447611795218, -0.0001171128153339053, 8.780998032422685e-05, 3.961360065278093e-05, 1.2451562933057367e-06, 0.030046214332560685, 0.018877251378031482, 0.08867784825945427, 0.09044939874516333, 0.08469083729200988, 0.07051033916385042, 0.10647143423198872, -0.1546938838405693, 0.004758121141602702, 0.0068320119804090845, -0.006465517162842474, -0.003956986310031757, 0.11423237681983943, -0.047611151021835205, -0.007666653607441221, -0.05761131386446968, 0.09131655230666522, 0.17691554893790332, 0.03181715676714697, 0.03122551623984112, -0.105191456342603, 0.0066342124138047895, 2.0978383120256367e-05, -0.00016527815255460267, -9.425158539034127e-05, 0.00014894147079084924, 0.00011315364102427753, 3.869230121297975e-05, -5.721375259134846e-05, -0.003537393386771853, -0.1218473486550208, -0.08234039725811877, -0.020770137664262264, 0.025365496966770335, -0.10339106908818047, 0.045024882479499734, 0.025661689007274998, 0.13648631346236062, 0.03309992812638036, -0.028241548876295063, 0.02895741467232278, 0.07455322218421179, 0.020632339980982656, -0.07923468836466137, -0.07689396046118688, -0.0796539147929904, -0.06129336007948797, -0.062460080027905894, -0.0017263790084599414, -2.839664657521812e-05, -7.635970070881827e-05, -3.447530375462075e-05, 0.0001496192058872057, 0.00021728827076198482, 3.1535639722682165e-05, 0.00010811171562720965, 0.00021034911316911837, -0.10651171318853625, -0.1622130772715057, -0.18676977009720697, -0.035761527556821104, -0.16590020186664906, -0.016851475882150618, 0.010263684668631841, 0.008170583462623253, 0.04788537267554157, -0.043998376856639175, -0.039885883845949766, -0.03477185063970014, -0.040038738106065744, 0.02902172293200586, -0.26423514740827503, -0.2867788526630412, -0.2011159725765288, -0.092668591438629, -0.002033783512310987, -0.012571463652889752, 3.441567556675579e-05, -3.1799669240225844e-05, -3.513872107966401e-06, 0.00022995976404536534, 0.00017846409484824574, -1.2426200534156073e-06, 0.00023061491869243693, -8.805693644896393e-06, -0.016411754079696632, -0.0005277069754935627, -0.0010224925802989565, -0.14487723743367323, -0.060798784446823864, -0.09737183851118418, -0.1731511319456379, -0.08749359365824655, -0.08716436975567361, -0.13473008041076462, -0.08260757362450538, -0.1609498145528636, -0.07583242601857051, -0.195587355547736, -0.197532406339148, -0.22404643954214756, -0.17311077178024703, -0.029818572951087068, -1.024937227605474e-05, 0.00020543715917082836, 3.8515667234612105e-07, -9.543231671020518e-05, 0.00023109510253273183, 0.00014886220774257036, 0.00034521968915500755, 0.00022660155907007978, -0.00015044643008822978, 0.0001395117485510904, 0.00010960654421668668, -0.00018519148584054368, 0.00011793951846376995, -5.614223679223586e-05, -0.023814700220692854, -0.01896693961392602, -0.026699896490477604, -0.020665524235299892, 3.244470783420576e-05, 5.718289544133712e-06, 5.7007591366584206e-05, -7.557789721597506e-06, 1.2250865923374605e-05, -7.605862283168579e-05, 2.2940335805278506e-05, 7.754629878211838e-05, 0.021985140037583575, 0.01678106083887344, -0.0001289105860046816, 0.00022970903045960335, -0.00010167467119149289, -0.00011742237687945946, 9.075150299448756e-05], [-1.2016246353208939e-05, 9.575792159229632e-05, 3.06010828577576e-05, 0.00013420912417984828, -0.00023039961795031543, 0.0003446350628419863, -0.00010301816176455032, 9.494721117925717e-05, 0.00025384846470564494, -2.3568362624733262e-05, -9.060512706319962e-05, 0.00021515505535180335, 3.065776866452178e-05, 0.00012607655207765408, -0.0001869194481587221, -0.0002066585980232145, 0.00011070253364920651, 9.58196492471502e-05, 0.00011772482776921904, 0.00013106672301377786, -0.00013098602226574685, 0.00022947079677627133, 3.157985439754702e-05, -0.0001484627082902167, 0.00034560555599478355, 0.00012960065195302274, 0.00023040260457678912, -0.00015678080888371308, -9.568761652345668e-05, -2.251686122584388e-05, 0.00023034643295581408, -0.00014966667924566832, 0.0001495642951761496, 6.381252064921496e-05, -2.58638967340498e-05, 0.00016249482529326296, -7.989612478699237e-05, -0.00018496423609846158, 4.309727957409683e-05, -2.1100596423240302e-05, 0.00026546185548830404, 5.692855539583841e-07, 0.006475026273477113, -0.00013844043285255136, 3.690792948773365e-05, -2.8662921828660027e-05, -0.00014125098237928883, 0.0011034896656088515, 0.009092079713846334, 0.00046939922448009717, 0.00010566567516583375, 0.0001682119249402741, -0.0001485352547329572, 3.0411103718360734e-05, -0.00023553090568205134, -0.00021430960687539714, 9.52776949488214e-05, -0.0002350178360099837, -0.00034376246914193234, -0.00010334082053937336, 0.00010727810559474439, -6.699428623361574e-05, -0.004820227883478772, -0.00591474972253881, -0.003648738425842115, -1.979514618445746e-05, -0.007443363844343042, -0.019574679155412722, -0.033546651440339886, 0.0035248117767603107, 0.006920850044116382, -0.0889206006982815, -0.011923816115058617, -0.0005578697718284587, -9.741379914925553e-05, -1.1592125902488644e-05, -8.109929860415943e-05, -0.0013595315468988417, -0.0022237058690928665, 0.010972505385458646, 0.007411669262939301, 0.00023490355545457655, -8.929869842217204e-05, 0.00011747435932053987, -0.00016501239437168537, 8.790180775800003e-05, -0.00014232749932659438, -0.0001307165700535918, 3.3331186265997983e-06, -1.1426549787894317e-05, -0.004395156136707121, -0.06422987577749394, -0.08470612492333424, -0.1357065036674499, -0.03659965304493517, -0.1399171832417915, -0.19460213945932933, -0.0294255504965043, -0.021683551123045423, 0.013941922434059333, 0.06749170919346496, 0.023550995155794403, -0.04127642648180825, -0.0016938699442483104, 0.019009525688972545, -0.10948570958470145, -0.031717072263320725, 0.0010715135489561902, 0.0012318524649303625, -0.0012781066241542695, -6.286295919381138e-05, -3.4990352928404236e-05, 0.00010644849891724799, -2.9260628516799032e-05, -0.0001296905000884534, -0.00024833275163996607, -5.261396710970595e-06, 0.0001541633493594997, -0.020298694813269614, -0.05830596202107455, -0.026090189111361323, -0.02685448224247825, -0.09798983500065687, -0.030119690350823347, -0.12131536563998219, -0.06127161318776068, -0.06111984365125009, -0.07766696921089494, -0.1251669604709814, -0.016558863378946437, -0.009526836473716011, 0.07532555717275913, -0.016569374724690476, 0.01114590840432881, 0.018803993766951257, -0.034340189962777753, -0.0013180709824438701, -0.00017528750010508773, -0.00024306132656805454, -3.154770233822683e-05, -0.00017905386373356504, 9.607669237799147e-05, -0.013218545872785219, 0.003781300022445936, 0.035494991845432776, 0.03248320977930122, -0.017941969552707805, -0.03310096381380911, -0.0468548841732182, -0.11056687640726023, -0.06922231469983839, -0.01259872809304669, -0.009364384083672241, -0.01201135873440614, 0.03865365564692034, -0.003423848415372907, 0.0019302418684332774, -0.04471032545923849, 0.11128431835288609, 0.013816917019842351, -0.04558728148565462, -0.03293469818064984, 0.04949378287333784, -0.07784824419205842, -0.04477525017186904, -2.8957345684657657e-06, -1.993185241798548e-05, -6.786830930471755e-05, 0.00023634366182894942, 0.00016993039384366276, 0.001042555442672398, 0.0005651188610464805, 0.08094858876260619, 0.04008505388615031, -0.00576740513281389, -0.05326920973508349, -0.15554739420635577, -0.11857247429566409, 0.021921812195769413, -0.0440965248299688, 0.013155512871134123, 0.0022296308813928084, 0.02097279622702207, -0.009878784132945293, 0.007501696928675313, 0.064041923069717, 0.0988810943293347, 0.04751831981867856, 0.06347463320886607, -0.0190264100982985, 0.024488102645827327, 0.0049152167350137894, -0.01692632699097023, -0.18419057880285303, -2.9733400023989493e-05, -6.986518111254943e-05, 0.00025142849842967117, 4.577708289708623e-06, 0.0002975928582748088, -0.003840981165562262, 0.06558590167152026, 0.06471648283242483, 0.05616751712763597, 0.0064935068167806115, -0.10872113370826375, -0.015451163400354713, 0.008654996268053163, 0.06868167218795695, 0.06296764180584637, 0.015400141604459827, -0.0454711685638692, 0.03337585133545091, -0.034452841514358463, 0.06799967713733247, 0.06444473693943337, 0.17040878484635216, 0.04817618593052841, 0.022013892311471748, -0.027198040218471005, -0.011109272051230435, -0.006093973534648387, -0.1274613380401285, -0.18319153909386737, 7.705688130374677e-05, 0.00011821277659314312, -0.00014778008176407568, 0.0002559841220779402, -0.0001915439625700268, 0.06512945437693152, 0.02981140908347619, -0.016147450355204464, 0.052841559696091875, -0.043101160492876496, -0.019340339434650886, -0.014994392943571801, -0.0911015977832353, 0.008135372811898411, -0.1287274978195461, 0.029548416335890865, 0.022659108414404463, 0.11486764683317902, 0.06554934212324734, 0.08423539295834888, 0.14592610391510585, 0.10612406847688144, 0.0036334195999291026, -0.04190395988294553, 0.09075615662580211, 0.03042470907673676, -0.07889011738185989, -0.1279884281427837, 4.611742426495534e-05, -0.00015514056311965584, -8.842528547450964e-05, 0.01331908155926577, 0.008330058943278935, -0.00717502550016903, 0.020532003975236083, -0.020202355260454236, 0.008149346224298656, -0.06263999487272533, 0.013373893894452399, -0.08970191484943606, -0.08882335995900488, -0.06834638659849927, -0.01810127691106006, -0.035694106780193066, -0.06447808484699409, -0.05485121874120215, -0.0005180515714935755, 0.006994187803022661, 0.12986543278004353, 0.22415569326618473, 0.1187842848636525, 0.10495999004367274, 0.14490197309117472, 0.10293936681744188, -0.009657767445938806, -0.02010054392438373, 5.9126230884958467e-05, 5.429318741465472e-05, 1.4849876767389356e-05, -5.103732918179846e-05, -0.0001467772551490088, 0.010302733432823188, 0.04549095588210564, -0.06639220996455909, -0.01291925923063889, -0.07389307770528476, 0.05284641870867845, 0.037443471790836444, -0.11664231708187921, -0.05938528206773377, -0.09918910912625706, -0.06723948544244385, -0.07627590058739088, -0.06712556752378246, -0.13169317866700345, -0.09463402499000026, -0.015601080727292112, 0.04578037568055775, 0.09119802274225138, 0.10783821830859955, 0.12448070200759091, 0.03521472346975939, -0.02352190522171205, -0.04273455825397383, -0.00016552027163301675, 3.76468525392972e-05, -0.00012210759052583796, -0.0007288609279092812, 5.697449786209419e-05, -0.06665394844887496, 0.03166667806588171, -0.0468231509161056, -0.045116433060901656, 0.005808453330963858, -0.006332423980404113, -5.230362855024442e-05, -0.03228590332956239, -0.005308979122386655, -0.07616090804543722, -0.13058402910982383, -0.06960762506144912, -0.15543008213833776, -0.19719375255940802, -0.23550313026104977, -0.10223530194498416, 0.1064764716665152, 0.05053162281280353, 0.06911771299349741, 0.10534499799047736, 0.07514992157750602, -0.012170940232778012, 0.00011105971017781621, -4.78314812405985e-05, -3.614476587848995e-05, -0.00011081312701678745, 4.2228198107106914e-05, 0.001207549218310174, -0.0898767542136504, 0.17380091103619863, 0.1587060946077733, -0.03941286602915449, 0.0046210841372150945, -0.03937429299261715, -0.02286962152619872, -0.028517216117030512, 0.013843704983146571, -0.07165753780557775, -0.0005395406822735422, -0.04339584563898242, -0.2602105780334132, -0.338859364123487, -0.22335628105437183, -0.010598867009790378, 0.0951808149096205, 0.03196424342663641, 0.05831583946704448, 0.052777011818233355, 0.07994362114943566, -0.018126216988934265, -0.023800784660117903, -8.571412940682523e-05, 0.00017189732849314226, 2.2864656773359266e-05, 2.3277127885510755e-05, -0.008515502301041688, 0.010690824924922678, 0.02108942218535673, 0.1655316728916901, 0.0831910712771201, 0.07608435101894803, 0.02000026719407371, 0.13851557889682803, -0.13391917497896672, -0.16904247252026974, -0.049449972324328635, -0.1314065358813731, -0.13886634532032002, -0.2670721045886399, -0.4060736005741502, -0.19835121652949086, 0.014731914561281239, 0.10441694773009184, 0.0006012697145123257, -0.001621879554379369, 0.14767227060278984, 0.08163035506441421, 0.039693092908815286, -0.022515380252606056, -3.461302149240977e-05, 0.0001353852985811043, -9.752991758733601e-05, -7.822029941288415e-05, -0.01794952327921284, 0.07214180509338752, 0.12195711719777598, 0.069710225306403, 0.12653461937402524, 0.06705121860079306, 0.1395293899736848, 0.02653414312745533, -0.04770894098008341, -0.020858924483791626, 0.08856474504768871, 0.036058195270485864, -0.14204924034981073, -0.33193288132500504, -0.3249575751713939, -0.10892796150340545, 0.028046539496142504, 0.13800003839211508, 0.08775812315498396, 0.04107207734661057, 0.07593532135595672, -0.036994369981878744, 0.0015989560764452957, -6.28639534870946e-05, -3.600964242958075e-05, 0.00020796567000592924, 8.761019920837126e-05, 1.2846830969786489e-05, -0.09195157590589191, -0.07905711345186497, 0.09811049556088673, -0.047761982126068595, 0.11532898017905044, 0.07279469160154112, 0.13907258413750304, -0.03946822303928073, -0.0302590902687213, 0.029645173628864423, -0.07425799508746493, -0.09163825307969545, -0.2767096821662964, -0.3161273649510986, -0.18188775183524467, 0.00259625299339163, 0.13486525114487008, 0.06621958575917307, 0.03607655812466193, 0.045500085991352725, -0.03294112615132367, -0.04295156922196391, -0.08058595478379045, -2.4768866055317024e-07, -9.768475024141203e-05, 5.6014859773748266e-05, -0.00013687383149587072, -7.012966163024849e-05, -0.13701552583634222, -0.024223751420826285, 0.07278516517295766, 0.09773636352254692, 0.1411799623605395, 0.060851797062345586, -0.05167868868497015, -0.0964675835471626, -0.14985536125818974, -0.2115890890083046, -0.10347955905269396, -0.25973400484899306, -0.20745303952843167, -0.30234238004350344, -0.09927146386484278, 0.05840468589768831, 0.05085933816384103, 0.14181871838851506, 0.01933628799443798, 0.013663941027938971, -0.08035521507516934, -0.03569639923480829, -0.11751948932579755, 2.6388363501490076e-05, -2.7091620900564553e-05, 0.00011601294791884132, -0.00022378312725932167, -1.4058504252269775e-05, -0.06667708907445585, 0.0007069285990761251, 0.03667941153393093, 0.02797407318353322, 0.07130866050561892, -0.015109280954363655, 0.00938934467265525, -0.061659786436420776, -0.13840395610262124, -0.17298918018876847, -0.20084997808420954, -0.09468994650589592, -0.1454472376112192, -0.11838410778642444, 0.02829155207583295, 0.052139325193506156, 0.049313179296788294, 0.03860324076093192, 0.08086264839309075, -0.05011038619214598, -0.0635592803923499, -0.006558856460861745, -0.004384538613657161, 2.1585764958860362e-05, 3.514465080862618e-05, 7.523648898483316e-06, -4.261018490579315e-05, -0.0001039521035377155, -0.11652123076657081, -0.00957706514098736, -0.051497805379413154, -0.07851814555909994, 0.07238289719703976, 0.10634821312736646, 0.09424623456110709, 0.06490420200661313, -0.016768067421583224, -0.17438874461481582, -0.18764237550752766, -0.1610248732985073, -0.030573947464382863, -0.035709619162306146, 0.03041199369222193, 0.09778144248774852, 0.025790377669319246, 0.027277438615957467, -0.04026505741471429, -0.02939124090426727, 0.056573139372303086, -0.05073380938833594, 0.00015508973679815744, -1.1617043679310546e-05, -6.621873546732115e-07, 0.00018476727287948237, 0.02176006754996851, 0.019882926185709353, 0.07667358797165467, -0.00399621862645159, 0.0019704051765803868, 0.003939230912268115, -0.014179124062274869, 0.13571874293850333, 0.14517920455646308, 0.1279601624082087, 0.030410050385810062, -0.08256909707751862, -0.09007068197544754, -0.03609235917537598, 0.02214061776477536, 0.013740557569130434, 0.021231884917762726, 0.08457429498625009, -0.05895719782597182, 0.04234759489990014, 0.04020620825874528, -0.05182367396192954, -0.034566750361342574, -0.06683164391531594, 7.849539450865068e-05, 1.7589697916648685e-05, 1.870553730645129e-05, 0.00018438528071171021, 0.026312140979466967, 0.02088259536470369, 0.0799569022910752, 0.12168158797516493, -0.018269558435413183, -0.07992259045938062, 0.020848960852313154, 0.1456588168452939, 0.007716065271445024, 0.05381970243902663, 0.009707247520140174, -0.014288518905154184, 0.014494524942064232, -0.08436903547478113, -0.1799807779345645, -0.04664623666952822, 0.0010601145781237381, -0.0428934528065828, 0.02263914940920977, -0.06734350463123072, -0.03695369419708895, -0.011325675306044718, -0.08772555801422208, 0.0030177618029996797, 0.011330068343994165, -0.00010813441061511078, 0.0001496790065854242, 0.00027725234527314153, 0.00013204613160896193, 1.5530164272513424e-06, 0.1230225029135358, 0.05022700999162852, 0.08898552757757902, 0.006362706744485341, -0.12737507585342897, -0.014094625649782866, -0.0005845238241576732, 0.10169118154216578, 0.012403919097740959, -0.03502954825069472, -0.06296875779940386, 0.015043690737620402, -0.04595584032385216, -0.0017133788702641648, -0.037381851477756516, -0.13912513096057638, -0.0464910326539064, -0.013738792409553714, 0.0005376824542084986, 0.010161403888350563, -0.009392320830241305, -0.016406016232869497, -4.8766220109442636e-05, 3.6248987844881046e-05, 0.00026850228390160014, -0.0002274114450917235, -9.882968510153861e-05, -1.8370266204653497e-05, 0.014125365886586121, -0.014047840635490985, 0.04090610634048022, 0.014021535160095985, 0.03301596384001565, 0.021738656538337828, 0.0033966583211007756, 0.010634132326077761, -0.06256539315013575, 0.029804678523906367, -0.01106425841586973, -0.016309173504031427, -0.10562293190710179, 0.01738218413538932, 0.008863711420508935, -0.0024947914962910414, 0.07029371120293744, 0.01069022198011464, 0.05643512506127032, 0.03868598330414005, -0.03377821692428806, -0.04193847282706425, 3.4066133317928913e-06, 0.00018625366205124412, -0.00011329051633669117, 0.00018825657164244094, 0.00016719724149756636, -3.795715371443628e-05, 0.000406052435499103, -0.003704205488856464, 0.01529488816949436, 0.051802928688824086, 0.1019150175368479, -0.011742446663111668, -0.04715169929271788, 0.014923709837878272, 0.0998079547672164, 0.01587465898144864, 0.1297647150675135, 0.03718939259786083, 0.054956189715888754, -0.031530899431838226, -0.01422864530748722, -0.0804076587673048, -0.12540268586043188, -0.059411755451162014, -0.016008536445510542, -0.0010004450160178496, -0.04719784064796824, -0.05244859492363445, 2.2779867277097798e-05, 0.00012163757275090539, 9.576827926160869e-05, -2.6266260675784122e-05, -3.0848191475925054e-05, 0.00010878674494729618, -9.41670588794769e-05, 0.012204509222791367, 0.047088700849877325, -0.005482550303758149, -0.06385454076359909, -0.0008601981821609219, 0.05575606999535843, 0.0855559223605211, 0.09317040055549662, 0.12388217535600657, 0.12021509142322927, 0.10990526140039489, 0.030215360643637803, -0.09109379235103321, -0.11649988659682006, -0.14409316409541742, -0.10498086022102796, -0.2075805297807498, -0.12551525620355153, -0.008610392876392196, -0.02852120902555903, 0.00028636371574056006, 2.1624545173055315e-05, -0.00015675938997507417, 9.219161389826523e-05, -2.973146789016276e-05, 0.0001616398387934581, 8.562533083876136e-05, -7.187499966654457e-05, -0.0072920735203183965, -0.016056291926419587, -0.02340552398913655, -0.01511644498918815, 0.10104768045620453, 0.028457722161294222, 0.0697970013120118, -0.04035906952961701, -0.12241851985098985, -0.10097793059637224, -0.07750705689766596, -0.16574570101237415, -0.2662731793739082, -0.14772623631389697, -0.21114652061420253, -0.010757216453536951, -0.0408975428602185, -0.059391777046799384, 9.16455784485558e-06, 3.374521488719661e-06, -2.3293876200657746e-05, -9.579009957767139e-06, 0.0001676686723362307, 3.841666683403708e-05, -0.000344277733166348, -7.928018211523832e-05, 0.00020918523736255054, -0.00026116869416553293, -0.004448004676878704, -0.010058598263464493, -0.005853776965884515, 0.004092536176692493, 0.01016564041518297, 0.00901580128425297, -0.03251854728417924, -0.09108227574853311, -0.0007846176529839226, 0.004658943193117162, -0.020039294819317526, -0.0754978145062029, -0.02015095418163296, -0.11866528953487059, -0.0024525942881865456, 0.008999404725864562, -0.012400674960594936, -0.07102604076892961, -6.531204135991351e-05, 3.085330129412226e-07, 0.00012492507615414442, -8.328822649369123e-05, -0.00018841643674946164, 9.52673723712585e-05, -0.00010126183409694359, 0.00011644413610695677, 0.0003455295241194436, 8.35681740845641e-05, 6.63431604380608e-05, -8.291381859832982e-06, -2.6297370022787264e-05, -0.0001001286576882604, -0.00012509314831198385, 0.00017185402034383576, 9.923353215602254e-06, -0.00039564992914807205, -4.9647811318695475e-05, -7.985942763235312e-05, 1.7311354427941393e-05, 7.531267501067511e-05, -8.054768568694514e-05, 3.457329591105043e-05, -0.0002514960815726345, -4.191858832277458e-05, 1.1505023918642599e-05, 1.060980233422487e-05, -9.680870070472517e-05, -0.00017734887126668686, 0.00011481254410370408, -2.948554181325286e-05, 5.0027835368821765e-06, -0.0002339462506207239], [-0.0001491415972210571, -9.669277503428371e-05, -0.0002130713267497147, -0.0001485043440941064, 0.0003412466775889686, -0.0002313615078083026, -0.00011693156394462414, -5.2883950932664984e-05, -9.366656443913784e-05, 0.0001879688839228238, -0.0002313200739017773, 0.00023371902421733963, -1.2838771132841692e-05, -4.0366315144179056e-05, 1.0001501553227167e-05, 1.4301288397948356e-06, 0.00021188137720866152, 0.00021292055325983683, -3.203678073659586e-05, -9.954712748196055e-05, -8.681466977210464e-05, -4.120069391274283e-06, 0.0002289971027201916, 0.00012974017491567481, -0.00011679163143291823, 0.00021782066822019304, 0.00014911778514546035, 0.00010296067795231609, 0.00010209682770494848, -0.00011068613603540847, -9.430236938969623e-05, -3.8167666698696794e-05, -5.8957935212547234e-05, -0.00012100842554556365, -0.004040245148279711, -0.0005203315659860911, -0.005871017013455533, -2.7179407727458138e-05, -8.067976339606868e-08, 6.210976538270866e-06, 0.00030699765304405285, -6.0162320403734954e-05, 0.0034607035813853633, 0.0005476475492581913, -4.0640316564747e-05, 0.0016455708719431091, 6.188473208996412e-05, 5.3635973289461786e-05, -0.00023323826491784822, -0.00018020046897923513, 9.320482244672026e-05, 5.659341112968771e-07, 0.00019061482159817245, -2.259303557963839e-05, 0.00020825092298652542, -0.00011740097988358536, -2.884688940664153e-05, -0.0001952747881179945, -0.00014934308847693996, 9.64489986003926e-05, 1.3463856128197282e-05, 5.011361188865681e-05, -0.0004524242932899713, 0.00020884247073165815, 1.1631059823857305e-05, -2.299801191427268e-05, -2.481791470530364e-07, 2.4530193435029066e-05, 0.04249783214329915, 0.03705380871679178, 0.055235341531257774, 0.01434565642291433, -0.00033727862898087394, 0.04104698566820038, 0.015158370074098062, -0.026547228336338893, 0.006306011388336292, 0.015608941348474974, 0.021330176502724958, 0.016004240773857637, 0.009929035826006247, 0.00011187601810766872, -9.525307819699371e-05, -0.00034626608725278445, -9.507879592197836e-05, -1.215988274539504e-05, 0.00024965544465880543, 7.465165142191165e-06, -1.9069260209050897e-05, -0.0013890677561957205, 0.0004973050531882361, 0.000997140646926761, -0.028286680876613266, 0.014176156011362441, -0.004276198750394482, -0.03499349544056937, -0.03142013458764223, 0.025979671610047182, -0.0037482355727506767, -0.0459954017245264, -0.04433273995901198, -0.07514467648500535, -0.11275940845359295, -0.06277605377762355, -0.05854714635962646, 0.0025511814843098756, 0.008356632329049166, 0.04130126034185351, 0.07261113987019459, -1.0028973923001975e-05, 5.936934436121952e-05, -0.00015097718339326596, 0.00023187309931642697, -4.30632593599767e-06, -0.0003521784994121764, 0.00015547253131935104, -2.015595956034003e-05, -3.6101388253091e-05, 0.00019641424003354993, -0.02148579169944905, 0.0382699138572128, 0.003865829435277622, -0.012961851250953296, -0.04847125651418467, 0.04039610272029131, 0.1523179083142608, 0.07755301730449118, 0.05297314046448342, 0.04468685263966419, 0.028787279824381683, -0.06069880463808092, -0.02740669145632471, 0.05550765417380301, 0.05447734783085177, -0.036495736813869986, -0.005994593825125226, -0.03821224274732417, -0.0012538728673837393, -0.0032067873651813036, -3.816761932808266e-06, 9.810874916067091e-05, -0.00014718228110331642, -0.01182071197471963, -2.4751761888170873e-05, -0.010564310901502876, -0.05918441950287463, -0.0012253926220985984, -0.05723546943404353, -0.0002776523899541386, -0.04499252950213783, -0.018994963709417254, 0.04452815140915849, 0.025417806606133145, -0.04707685405602449, 0.026652044890751316, -0.009751135762686125, -0.024763253296674993, -0.04565425905966372, -0.07704613745071447, -0.11719063890082784, 0.02246144727923669, -0.057791726801319346, -0.0013820286997309281, -0.0012491244170356763, -0.01780562094114729, 0.03620237300684247, 0.020092580179573556, -2.0476266911916133e-06, -0.00011610807350781566, 0.00023335999589223615, -2.787655111952224e-05, -3.742262700776903e-05, -0.04111420168069991, -0.11191451229975574, -0.08446788250010091, 0.1098583746998434, -0.08772290062307117, -0.02193528240071032, -0.05827659639952328, -0.004498122577223064, -0.16620045429591107, -0.0208274531652491, -0.09769902827119187, 0.00922652867455316, -0.13830948412576602, -0.14861213708339868, -0.14719854361291274, -0.20256195586680262, -0.08813592056267315, -0.03143644492966807, 0.062416942540424014, -0.013946233734994623, -0.06790047962334536, -0.006266067925434371, 0.012129480123244421, 0.0003115671950881661, 0.00014812173293329598, 8.464733114004494e-05, -8.573123080978219e-05, -0.017531646612964105, -0.10914317794456138, -0.034607615223065796, -0.018137859953525633, -0.04305726210440367, -0.04013373369253193, 0.006221080971306761, 0.031165727127589235, 0.05984409072272689, -0.016821950044739423, -0.013865582406927654, -0.000693942149505838, 0.014550307909281347, -0.13728809524015556, -0.14170513937202983, -0.12305248582493279, -0.004668983818659355, -0.061003851905400946, 0.007146532221484128, 0.08257528034825799, 0.03044575749663123, -0.055417853905448934, -0.0017417714171521284, 0.016639615103476155, -1.6142300928729176e-05, 0.002355560435400276, -0.0002335176638805422, 0.0012763999402909116, -8.424021975598014e-05, -0.08394534992007421, -0.014578178390905578, 0.009333077768091693, -0.011281865215317, 0.000992972262903213, -0.007013421807775712, 0.01798000231832683, 0.04538282301534001, 0.055511858537996214, 0.040717513235128476, -0.15963439257400452, 0.0033158479426787174, -0.058685335099137904, 0.060033714129232994, -0.054161582590042785, -0.04251941832712194, 0.003614541273821739, -0.017448836804630923, -0.009686452543358405, -0.0244821585922811, -0.10378169256836188, -0.013684583366685654, 0.004631104539949568, -3.176441080638935e-05, -0.00018456924322142652, 2.657067965174863e-05, 0.0037484157387908195, -0.06093962400381303, -0.042170551059505866, 0.07337369634699109, -0.01544383533124862, 0.04055792283227884, 0.0002068701528298967, 0.0012235338881630448, 0.06531903304808434, -0.10267594573732625, -0.10482444108778315, -0.13454249468860918, -0.07077020699909657, -0.08061566352592109, 0.02398519442870394, 0.08829070655916155, -0.005048933892441306, 0.020715306629053507, -0.07660575585464625, -0.05638154857672819, -0.050824020632114345, -0.13834564722933784, -0.12461813186922263, -0.0198585920930416, -0.006834784175269497, -0.019019136453990004, -9.342754836273776e-05, 1.1913622926900403e-05, 0.00026879270646022334, 0.015415936740493984, -0.001783924433623753, 0.14068709689220568, 0.004594600615967245, 0.10075719531911251, 0.09769912008962461, 0.030502277272312382, 0.08315914947630965, -0.016355706875286584, -0.11747343492228775, -0.19571179880426068, -0.16691692636600333, -0.04751565083803277, 0.0736207268892581, 0.06905797430677534, 0.04257748607785245, 0.04603954556107785, -0.04021840296882228, -0.06095126840331393, -0.09445968634733587, 0.040831172668188774, -0.01869350346170794, -0.15041197956321012, -0.017337020103419552, 5.231281988290998e-05, -0.00012640545432813228, -3.378282083330517e-05, 0.006337690028747778, 0.01205355808187979, 0.010686997617978259, 0.058973818972220565, 0.04772399249819032, -0.0239163370558648, 0.02693406995614675, 0.006226554810896039, 0.02513574236452712, -0.01815544170800581, -0.15583107195876753, -0.15560759374572808, -0.19583466066442992, -0.1241011750638169, 0.0431177768472786, -0.02496103548813094, 0.02519684163431003, -0.019760706771475393, -0.0333286062415376, -0.03814472817158777, -0.026024402923611138, -0.0035305252073595883, 0.0005393768869379265, -0.12574462572663334, -0.07176089082705896, -1.2466035668056188e-05, -0.0001198882708003638, -6.233587719709516e-05, -0.00021773592442090459, 0.0026589916549610284, -0.0052417239236013866, 0.029388756949399665, 0.02225909760849357, -0.03211017189913498, 0.06429695647137774, 0.057024675314064716, 0.031825603582828974, -0.094634592624996, -0.07770922527548195, -0.21205919594782047, -0.154009335427063, -0.16382563281194076, 0.01045554270067711, 0.03376124369398528, -0.013426532087449296, 0.026722352687068074, 0.015926830126328468, -0.04312160206181186, 0.062195754359764197, -0.018364077228567813, 0.0827036152084716, -0.09458816697699898, -0.18077363513263783, -0.0037152975354744064, 2.588595282956144e-05, -4.8977718267457836e-05, 3.5002441473250346e-06, 0.019601261889216303, -0.040643248868235685, 0.02822457597301361, 0.0015232925577604074, -0.04516567382258174, 0.04926552699945092, 0.17655329361821695, 0.010640739226660506, 0.03826936848932557, -0.13506620411605097, -0.1147417363629134, -0.14955898133227996, -0.04277566276394731, 0.0014547614610812176, 0.1060333231454018, -0.03185135091100385, 0.018944377279963627, 0.02119882327727143, 0.05448265285015183, 0.028587773409296503, 0.10278708822123306, 0.000850846430154479, -0.014329537285855872, -0.016223592898947346, -1.9625247804574748e-05, 0.0001737992658723557, 2.4989305277372392e-05, 4.18161797691468e-05, 0.06559925963782216, -0.0010562435953826656, 0.0025402592748733845, 0.023736674929976345, 0.05234113739470232, 0.06268507564146711, 0.07730491703998837, 0.03090923052987695, 0.08314595514437739, 0.020699027621078323, -0.0815280610479527, -0.06348739366527535, -0.016030874066383063, -0.016539630148179604, 0.00805356764356619, 0.03209342529731257, 0.0012226096739951253, -0.08665619486057644, 0.03678652166694387, 0.1508017846977711, -0.015368042373745856, 0.079147004508265, 0.03482069117302408, -5.230692106544311e-05, 0.00014611767769491253, -0.00014555581172043608, 8.510498701278628e-05, -4.247349034958069e-06, 0.06235445059971619, -0.013102827734961705, -0.042965795250391736, 0.051873146655413156, 0.21102632401849114, 0.049117749450072204, 0.04915579747409106, 0.031305334259246656, 0.07223112257148229, 0.1725667468090028, 0.05280944489533492, 0.0649216594783317, -0.058673117448048234, -0.007035243125791155, 0.034756623320050244, 0.002063739288824866, -0.08028449452415079, -0.011435110161539709, 0.002794935084159825, 0.0018017037064320936, 0.021367081470597418, -0.06325389742218292, 0.08625946904825538, -0.004518713524491907, -7.553238865150663e-05, -0.00012565467700047556, -0.00010631452512382413, -1.2074145269490866e-05, 0.004044277802483994, -0.08160895236568438, -0.05081835297692842, 0.05691094668592267, 0.09049215869952068, 0.011130879143699198, 0.08324386778134049, 0.05365478156446812, 0.16578893673148096, 0.04151645233830527, -0.010749021684835327, 0.05445196014653864, 0.053403579679717546, 0.07991805828552204, 0.013953550054378162, -0.054591265027763146, -0.021053107617147394, -0.029794321349165234, 0.05807735890889696, 0.015930207101586265, -0.034227255607785514, -0.01878269367934438, 0.12463320441224886, 0.002521638797114932, -8.799723991905723e-05, 0.00021280943462958322, -0.00019593528794787732, 0.00029535435917064484, 0.0032735694899339147, -0.0015524028814237793, -0.07840122780551967, 0.20007803502887148, -0.0012457037981407663, 0.045787123905592045, -0.0032068202772331657, 0.01776745242826649, 0.11451595155162406, 0.003922416309604954, 0.01889464586423743, 0.10226829185352806, -0.008282003333327395, 0.08934382660504112, -0.055359959508810765, 0.020325816649478138, -0.023576579244508376, -0.04894541355374392, 0.056216502962970566, -0.022593584919532658, -0.11622339759105617, -0.0017904207661155263, 0.14622981362692253, -0.0019826546829586392, 6.852845173230487e-06, 6.952351186733478e-05, 0.004128863249184034, 0.005375015236953831, -0.017581155113333833, -0.0024856999678468657, -0.01551482161443559, -0.006916010938167626, 0.07440163174402059, 0.006693953154252937, 0.13149295557026244, 0.017315039807553206, 0.06372189604834701, 0.04373788156854992, 0.12237512567729408, 0.071411249043696, 0.031870142771134945, -0.03568834751049291, -0.05080312354105309, 0.006958662652535431, 0.010282292172513193, 0.07878833667853388, 0.08568620495079193, -0.023461121687645227, 0.03247964168057132, 0.15046773072999686, 0.17838763341741937, -0.010026827560735063, 8.524804453112777e-06, -7.379994036886672e-05, 0.01502750420505132, 0.039899127052587066, 0.026820958277452928, -0.03205674522445546, -0.1538001503881313, -0.005027465571699513, 0.039450009202459564, 0.07245602575844394, 0.0664577752160268, 0.13774421066748588, 0.12099652272933727, 0.16611816655866285, 0.0771962650610723, 0.0249908790022535, 0.05481697542731527, 0.054728835820539695, -0.025102692583396886, 0.03311214647881141, -0.02542508548674115, 0.013656916597790818, 0.03555232728568799, 0.13982327548936285, 0.16460261920599267, -0.010383068919313138, -0.005126864952292322, 5.361091730237026e-05, -1.577730736871009e-06, 2.6262906017656963e-05, 0.0001783638347701014, 0.023848627108538377, 0.026947401574416573, -0.01820866451146967, -0.06303498397172265, 0.00846748576768967, -0.015027174983446804, 0.029266143414044654, 0.059913922300803835, 0.046715659116276, 0.006388971370410882, 0.1369988251299653, 0.01491582497247325, -0.025209996460248622, -0.0001048362820004985, 0.0515424100583327, 0.03258634271897047, 0.15731315447345295, 0.007014880093036345, 0.017921836123994315, 0.07587358310638953, 0.069333610479186, 0.13788940028784846, 0.015664408411208395, 0.017004141957798258, 0.006412613109148002, -0.00020931109725158342, 4.520926796156008e-05, 4.631676724941486e-05, 2.489934808105775e-05, 0.016166687602169813, -0.040182520378913796, -0.06358501350046232, -0.025187919076598283, 0.009006206024587767, 0.04946437275463953, 0.1108210438612844, 0.07933298204013983, 0.10702540587431479, 0.12542603298773872, 0.07596109895365953, 0.03871145720080424, -0.09176725228745293, -0.038626396297206995, 0.03150466715117875, -0.05057338178772192, 0.04957218330418273, 0.03304693047251926, -0.015274343178923773, 0.03681245875060708, 0.1078290262975857, 0.005841862200236342, -0.0333172098436516, 0.01205138943140193, 3.639746133866201e-05, 0.00023038549145778186, -0.00021113037017746672, 5.330296208352115e-06, 0.0029475679291356273, -0.015408505711861075, 0.0024936757264329484, 0.002359425054261328, -0.023079252164075907, 0.04910834876259394, 0.07459348001633197, 0.1206677946205977, 0.12461316850181257, 0.08095739724055478, -0.06523162490271192, -0.022663435124965818, -0.016391396938885857, -0.01173781046593187, -0.026169272867146095, -0.11737102977545165, 0.020764400900545352, -0.032541083071887134, -0.016354240678472534, 0.04670710291119337, 0.1265505292920102, 0.01018413770527712, -0.013284165373599792, 4.988897051725245e-06, -0.00029924114228844655, 0.00012945270412426595, 3.0792371678254776e-05, -0.00018779547409346494, -0.032241688828507115, -0.05114189812366838, -0.14230815941806213, -0.22511132238724882, -0.019500146252334486, 0.01248506994648225, -0.0063310482286669575, -0.06176446771421093, 0.03257386412920367, 0.09383697374031066, 0.05291337464841323, -0.07203406600232005, -0.008738921343188742, -0.05109044923383638, -0.03352845545100072, -0.032169204345147105, -0.03876022716613066, 0.04669734827760298, 0.046090193167850214, 0.16844675152382074, 0.023753121522158867, -0.07454974817709115, -0.018388485094269342, 9.783300630282618e-06, 4.159318898980515e-05, 0.00017937443003817737, -5.104406019831197e-06, 0.0002789925525483591, -0.02138339316626024, -0.05295835193071371, -0.13982629554336234, -0.24347769105343295, -0.30303011718236283, -0.11752384649298964, -0.21004325559713455, -0.2349559584107041, -0.2265507800255922, -0.03740122777575582, 0.031121965395638426, -0.10481610157280853, -0.092502055088021, -0.06489965742382323, -0.14165372694598233, -0.10932958672417108, -0.14907841562493046, -0.10468792647659304, -0.12899473674986126, -0.015294531250371973, -0.01724035885525504, 0.0029145603229402605, 0.0049502303482147425, 0.00011317260600471389, -0.00010658625926185169, -0.00011365323168777326, 9.435533708615642e-05, -5.8446628910221226e-05, 2.214064844640292e-05, -6.205554593399541e-05, -0.0235082476199212, -0.002992063421939791, -0.13017610896441445, -0.1300010665324284, -0.3069128833387145, -0.17677125779508737, -0.21263044149671367, -0.28885231034476677, -0.25184330538610705, -0.17661576090192135, -0.01732950380521484, -0.09832353047067692, -0.16922103460880122, -0.1611046223341234, -0.14945766237391098, -0.054491609065490734, -0.0754575890457771, -0.15601410560207946, -0.014975451548465375, -7.08288658224285e-06, 9.368924868052609e-06, 6.19429378418921e-05, 0.00023198012343348602, -0.0003457536526016414, 0.00014977200340594995, 0.00012197875002080321, 3.8791207907815816e-05, 0.00010398567454404704, 0.009552828108878081, 0.005588450724634804, -0.010862898434753228, -0.02734788014780335, -0.11805906918680616, -0.04967929849373188, -0.0010063478766444566, -0.06157159942637181, -0.021121998298869557, -0.11673256780855328, -0.06301637100084434, -0.13455636705853125, -0.050576355325293795, 0.007586656509407349, 0.0051401105889516815, -0.007068676631108499, -0.04213486669625223, -0.01093202062009179, -1.9707234882381468e-05, -7.643230662216062e-05, 0.00029537847543660497, -0.0001501171948797537, 9.065736890209531e-05, 3.223731456988588e-05, 0.00022925990361891054, -9.574423597470272e-05, 0.00034533846096268896, -8.685153452125355e-05, 0.00017069420999059616, -9.077312543824786e-06, 0.00011360938753809842, -3.6104391738473534e-05, -2.6462712395261958e-05, 0.0007225782869155726, -0.00046279496775858804, -5.954072391287088e-05, 0.00011959805400344035, -8.466860674018192e-05, -6.991131057888859e-05, 3.262222423846078e-06, -5.585959804686164e-05, -2.7870000131233826e-05, 1.4297301612584647e-05, -8.529974526035497e-05, -0.01937277760205656, -0.017271581211049547, 1.8931324838665338e-05, 0.00011704855210271925, -0.00014944260795402315, -0.00017609149169495493, -0.00010313595467933208], [-0.00014895730437693763, 0.00011731620553008544, 0.00014890560502458725, 0.00014849837191576115, 0.00010116570341614029, -0.00032529160369019225, -3.441642600453879e-05, -0.0003443292220829375, -3.486145209238079e-05, -0.0001495643725033448, -0.00010167319312592339, 0.00014984557729011178, -0.00011595793409136336, 9.841904491474294e-05, -7.369960510432533e-05, 0.00017323664547142163, 0.0003450507367098566, 0.00013296983583038774, -3.523318481865984e-05, -0.00021339513745608255, -1.7517115192758668e-05, -3.531458290733253e-05, 0.00011842899588683534, 0.00021608237416318653, -0.00034479570949295924, -0.00023480565582615072, -3.0303450540614813e-05, -9.114587611309116e-05, 0.0001491775764486223, 3.297394386966909e-05, -0.0002285248337790082, 0.00011695928915186858, 0.00023794200121293656, 5.760761420045424e-05, 0.003114821697715976, -0.0008354193343025089, 0.0029815742448273926, -0.0008812295243660675, -9.74208249793338e-05, 0.00023007774966925238, 0.0004415737787967183, 0.0033121192041465288, 0.00043101767888481914, 0.001848783827865342, -0.0002395124787155681, 0.0364617323582262, -3.371424866869838e-05, 0.0004045943092297533, -1.1788748427590935e-05, 0.0001222435368986454, 0.0001348547872567985, -7.459450650739488e-07, -0.00014950131080971075, 4.4991150882201376e-05, -0.00017236012962503665, 3.260303503869647e-05, -0.00012945245667140054, -0.00012207361216697436, 0.0002311916144960121, -0.0001894185937493733, 9.178801847264102e-05, -0.0001358421348828508, 0.007897559924841053, 0.006280753070119406, 0.001470688413421174, 0.08533412798809761, 0.04142234544547258, 0.11187545721786057, 0.008796543752126726, -0.0319686933477721, 0.1404818910066057, 0.07892056222058956, 0.005116178525178145, 0.1501591668335774, 0.08926500297049554, -0.0008329831355088464, -0.02214893764688591, -5.191015198350288e-05, 0.007845403313639079, -6.7322887843433125e-06, -3.2918457251933635e-05, -8.800667348450217e-05, 6.090147113698167e-06, -7.852773822891241e-05, -0.0001297409094721841, 0.0003418224029603762, -0.0002606813857195456, -0.0003043261736453669, -4.421756123500256e-05, -1.0317715590874001e-06, 0.0920342421059913, 0.08740480204386655, 0.2212817563317323, 0.11370413124789774, 0.01728335036291966, 0.1541507113018006, 0.1556474502612767, 0.11048001321613792, 0.03420548645920941, 0.059972180133111515, 0.010036581385688616, 0.009944034020374005, 0.018728767100812595, 0.031173781658376195, -0.020001129060244233, -0.0027248722420377225, 0.005814216177666499, 0.09529501298489737, 0.10082946578106759, 0.0066866580221411195, 3.0646702573979e-05, 9.092322481295551e-05, -0.0001028125036487225, -9.486516794531432e-05, -0.011905969151063688, 0.0010811773458448944, 1.4267638279196252e-06, 0.07166126075323355, 0.023738377875031105, -0.003092042451253355, 0.06520751822670784, -0.010166689448479847, 0.07528312004853932, 0.051043669973990374, 0.09108153281484418, -0.007532509103999409, -0.026754821507107385, 0.03418514318981198, -0.08617342967907585, 0.09970191849241951, 0.049853115247714366, -0.01327730800206297, -0.03612582711381846, 0.019922374280858426, -0.005046057362696343, -0.0018038001616486595, -0.001792243904552018, -0.05422730286034269, 0.00015197318780868252, -3.4993287011716228e-06, 0.0003447327009185678, -9.084038522632461e-05, 0.006253852938220996, 8.17634022397577e-06, 0.024574686564686084, 0.036663269127488025, 0.0004425734321387779, -0.047594499823629004, -0.04129814654391275, 0.06260989112308554, 0.03316719111053029, -0.04749671890850083, -0.08141079278359073, -0.08171086809570266, -0.15635114109964612, -0.06370456631000658, 0.0357907978277546, -0.04239021984697534, -0.022391223770279394, -0.03256700480942287, -0.014700411357335554, -0.0019747960886005783, -0.04257137603825353, 0.062465357250936424, 0.02313488869057187, 6.127047581842108e-05, 0.01643355208583607, 1.1479994765788624e-05, -0.00013567226416360753, 7.358832358123903e-05, -8.836222035043373e-05, -0.01855293004784946, 0.018151292837517097, 0.049978420905148924, 0.021443969881084116, -0.04857552921766818, -0.1196528025677213, 0.022884061630007228, -0.16875714460584607, -0.17266570831960387, -0.12370751412358083, -0.20843148598308225, -0.04970613403478036, -0.03381868280502677, -0.08868137154961225, -0.1232060499749277, -0.1941787479883801, -0.09029991088620828, -0.05247430714579945, -0.18633181165297688, -0.10138280725301586, -0.024159898586635645, -0.011034976304475305, 0.001310670568578666, -1.6514876551584607e-05, -1.324908313644779e-05, 9.068578318650129e-05, 3.354774243791064e-05, -2.126692584975878e-05, -0.06532650692633932, 0.0004644169444277344, 0.06717561764473805, 0.03719684585501032, 0.01259014384825963, -0.01940509744548317, -0.05285674588785475, -0.038468559754940325, -0.10437758924153154, -0.2058789798037884, -0.1801404457625685, -0.1195539823212537, -0.05085928518437529, -0.15023858087082817, -0.19418034875418283, -0.1692410894294471, -0.07995946577743092, -0.09062651421398393, -0.1315655250718205, -0.09634956325702898, -0.14862850682205686, 0.004265160565264554, 0.026636126065000532, -0.0005137455935854516, 3.765657926312872e-07, 7.071813234341088e-05, 7.12855344320942e-05, 4.5169063060014364e-05, -0.0026451943145764526, -0.010626790516864234, 0.06765485609850629, 0.09011644056929058, -0.014914211634263801, -0.015292291373040914, -0.174862956753972, -0.06995282247418738, -0.12149199483970034, -0.03475339159403417, -0.08898032752399972, -0.10801018137364528, 0.010728204936016592, -0.06033041679563957, -0.07375838019692905, -0.17353545618193783, -0.2127519196256128, -0.17475763818570084, 0.01669729767172928, -0.13597592953863663, -0.029509670193738388, -0.013068461410265783, -0.024220351985610566, -0.008968746300066057, -1.7586414577023248e-05, 0.00020339211076938625, -8.965263394461206e-05, 0.015615290586996193, -0.00755195940194785, -0.023501517757624855, 0.06647826947868696, -0.08761736774624818, -0.012618100032437322, 0.014224058065527729, -0.03917531567206313, -0.13066645812820324, -0.11961878056371388, -0.030354405814545415, -0.14623102167131452, 0.029095654066570487, -0.15936789135033877, -0.1357047692661172, -0.003047508661810487, -0.06615661538563954, -0.03387846720961381, 0.005054944068280134, -0.0035288371616296497, -0.053998451062054226, -0.1491608568171742, -0.14037390916108947, -0.07743790681795718, -0.0002372045524742218, -1.5834151061323028e-05, 0.00030077933527804707, 1.7174318814542476e-05, -6.924578836377416e-08, -0.001688370162102521, -0.015122536393235303, 0.0057951352921190025, -0.009724746391143105, -0.033182534487000724, 0.00904169121346977, -0.0733122471416264, -0.09423143132535095, -0.08979526940633653, -0.06297422482244446, -0.05829836396206526, -0.18924801355008822, -0.014643136263186784, -0.053063203917772125, -0.043965609437932936, -0.06336227221978169, -0.050126197512744435, 0.015578639696940488, -0.09181709105394197, -0.07043029467819822, -0.05750384513748484, 0.011170005245889418, -0.017902716309653254, 0.007645622674359775, -9.520772615810416e-06, -0.00014504761424651762, -6.092706267239686e-05, 2.5178619380214586e-06, -0.05258609022541137, -0.06588196845066992, 0.03122556545498473, -0.08650789389901241, 0.007105586185138057, 0.044019498630571474, -0.0026392263516903844, 0.006594626924672601, -0.11849245748229745, -0.09431903674122968, -0.16850202955006918, -0.1305820903340386, -0.05841149374362679, -0.025362633219975967, -0.004663904051723476, -0.03361913749105325, 0.06484994082228887, -0.026020569922543958, 0.009739011427190684, -0.15991097581806887, -0.035034624770136066, 0.03307907473098639, -0.009780848289063164, -0.010701493428598254, -0.009931363702192983, -8.824524647833688e-05, -2.1473991311599935e-05, -9.114929123629767e-06, -0.17142466219753827, -0.22095902142534107, 0.023786181476001464, -0.07568658140612289, 0.01699956742910416, 0.045026530201109485, 0.03860007057353215, 0.06578048347128373, 0.01614295301368313, -0.0760305212141921, -0.09905505103853927, -0.03448711856862203, 0.022874702240063927, -0.0003436697492256875, -0.02470573619199968, -0.024418259537580922, -0.03206911756656981, -0.1518398846581224, -0.007285974650406337, -0.00547151240336734, -0.10433845889558274, 0.0021049095049247577, 0.0422743212424769, 0.005287061313154906, -8.869933041388201e-06, 0.00018441593937879708, -9.595889966662803e-05, 9.088982211856048e-06, -0.06007052388457409, -0.14437966556407955, 0.05811758947835588, -0.03592575636881404, 0.0915820228109077, 0.06879237982794942, 0.09046170122024627, 0.1052408262632197, 0.1337510012867612, 0.15205910192572555, 0.1143801017280769, -0.0034421184338913843, 0.01892911285920442, 0.07905328799722862, 0.009889056260754701, 0.09886562435682138, -0.0015285622456508313, 0.014902002354968682, 0.03537468528143515, -0.03376670789317794, 0.025765692513123387, 0.12491648400503502, 0.03348319463136988, 0.017480757939615336, 4.848261562079231e-06, -0.00012046951884140025, -3.56591976023991e-05, -7.363839890222156e-05, 0.013403481315769641, 0.06305000085824888, 0.1911235581470378, 0.12990444801948878, 0.10956011373914983, 0.12568666355950955, 0.1402818533673481, 0.03462182340655879, 0.14690339173162933, 0.05399772710510291, 0.12681476807599298, 0.037989675537756645, 0.08027916938593962, 0.1352624677860543, -0.0467288341276523, 0.08652589979904136, 0.015059050207068233, -0.09703113868426373, -0.10132131956145121, 0.04850249010472297, -0.02417195209003972, -0.07373293199542393, 0.01579802197792328, 0.0005660676271345439, -0.00010901716377897959, 0.00012832561169005374, 7.512998784644896e-05, 1.7103145759928484e-06, 0.1308908082466261, 0.03681746592671996, 0.01224287056216523, 0.08207468754249424, 0.11169297608796332, 0.08620086926297227, 0.07408957972345441, 0.029872577285855878, 0.0383593094759798, 0.04211856755984729, 0.04853082997556083, 0.08645796304544136, 0.03196389986970341, 0.14041769285551184, 0.04583482422307513, 0.02339892507216008, 0.050873578163022876, -0.049247733424738656, 0.008677948876097383, -0.02003131133803187, -0.0380725149843923, -0.023810610178877287, 0.09294134891950613, -0.012903803381370565, 3.5025025702580456e-05, 5.270380401213091e-05, -4.2207983262836926e-05, 0.0016600099610831697, 0.12309884382355947, -0.05328225674351331, 0.09589710082592422, 0.06864484817876636, 0.08647562075464912, 0.0169233741626248, -0.0036056192229745464, 0.0239242750337888, 0.06379013242881709, 0.0922829045872453, 0.04156573299950355, 0.1253976779523855, 0.07314285204792455, 0.06838383258232207, 0.10823027180770689, 0.12671649370923707, 0.07565142774452928, 0.05936210960929805, 0.08868593994910558, 0.06968872874728532, -0.05282909677113851, -0.01097694127513623, 0.00963944101500359, 0.0018624716523720326, -3.015857449093146e-05, 0.0002288540324841334, 0.00021674903532097487, 0.007784801789415531, 0.09965537648815673, 0.008089677859449909, -0.007881265219782213, -0.02576343815832746, 0.005565021471196962, 0.0011151851290365, 0.035960364297468884, -0.10025730961244925, -0.09957891083142961, 0.1135564003709116, 0.004698878401939574, 0.023845880333860103, 0.0751248410465864, 0.024921976906454566, 0.06349096921281636, -0.009980336501428766, 0.04000878887127226, 0.08036841824026424, 0.06249905976337453, 0.07452964898855166, 0.017172221602418387, -0.009199924370653752, 0.04382075504866419, 0.01577096662456959, 0.01276466292649198, -0.00011125278607728453, 0.013990756735786133, 0.013971405520892202, 0.06378491584577442, -0.0006912439286545537, 0.07434038405639828, -0.04057757463878299, -0.033277297095677456, 0.025495070014019218, 2.6918248724161047e-05, -0.05249820759397463, -0.021176970668897455, 0.06625801990132194, 0.0062674058293660075, -0.05551380365478419, -0.18930702216620562, 0.015062422300521672, 0.053395188409519984, 0.10079438632881024, 0.04024823926704603, 0.0007064661819511059, 0.04383688504756556, 0.024979768007327405, 0.08667688711225095, 0.06898746061902067, 0.17903244373930732, 0.00032984226025469546, -2.328352581036722e-05, 0.00022821557332028077, 0.01055805468787328, 0.011338914785964114, 0.009031819087637262, -0.026005353535485717, -0.006294798950352058, -0.03253313314192459, 0.050637776843802156, -0.07437945709993518, 0.028798090100484314, 0.04681861953935622, 0.03422831741309967, -0.014119167099389136, 0.039967933267863645, 0.07064541115552707, 0.06977766671226546, -0.03250364794142406, 0.07969613213381396, -0.023726573501662268, -0.0820186108098449, 0.10064817997484586, 0.06641286145000316, 0.0925352035129256, 0.12098482726311434, 0.059176888347756924, 0.01494820867476802, 0.009536521005729784, -8.57199654265563e-06, 0.00012952525961075148, -0.013323907673501077, -0.008349712550639427, -0.0007971883158880146, -0.02748086761163388, -0.03044176580631118, -0.06864250969780299, -0.07946559843467528, -0.07888278824346485, 0.09872440545764428, 0.06883809411893843, 0.10292235387801824, 0.06153041344782876, 0.07814769546087039, -0.025113359169268136, 0.009360729169168015, 0.08307807600878968, 0.01079732947963262, -0.028525407456330646, -0.05531778262074464, 0.02623133777895086, -0.01708229992997698, -0.008118750682761315, -0.06268848031032181, -0.06843707567438867, -0.04885218532117555, 0.001961271601240734, -9.024797641953102e-05, 8.888742301407503e-05, 0.00020644284374221708, 6.496076195611818e-06, -0.0011102364337720388, -0.0019176140899795262, -0.10497702076944304, -0.25186926677233423, -0.08463437174266472, -0.0002900568675947514, 0.02656078304657884, 0.06363474534474223, 0.06420408528513166, 0.10423404423077122, 0.09288342974117583, 0.04114454620114549, 0.03358956421931035, 0.014253850805907324, 0.019689082857828447, 0.05517776937085093, 0.05830802603219028, 0.012015594328004413, -0.06266427907454834, -0.12062706155648022, -0.12091122317795432, -0.14668313808288855, -0.057237893078373306, 0.02341909205853668, -5.709370899577672e-05, -0.000252963813898342, 8.501644851758665e-05, 6.618818737998303e-05, -0.0014306570276830866, 0.019983490652864703, 0.0020935427802540756, -0.13689756199437408, -0.09225676528734215, -0.06633523213070207, -0.04419782548386984, 0.06782354931099133, 0.0011166480789692311, 0.06974073758854014, 0.04514011883768291, -0.009184354860302394, 0.07046451487667141, 0.020407389331732237, 0.02546211691563139, -0.08981472605285339, 0.03119683069146012, 0.009881062545923682, -0.044400887179066185, -0.17588356419490345, -0.1888623893901941, -0.2099422133199968, -0.08488402613248358, -5.1977901440394674e-05, 9.550761219596137e-05, 0.00019421206422276163, -0.0001464491589873443, -0.0001692143202130656, 0.00013209370298934375, 0.007442419132696515, -0.002458172253744961, -0.14464854271173025, -0.11656408976218195, -0.2650934022901031, -0.20113717828270672, -0.0903257691090786, -0.22716609186323228, -0.14855182131140116, -0.22509843180473432, -0.1098320101139464, -0.022878247500076145, -0.054205282647546954, -0.14002755250053409, 0.010847623480792429, 0.018057288053780627, -0.0018819140375365218, 0.02465702850805463, -0.05183686243812505, -0.16057004141312875, -0.1446258278377348, -0.0012048033919623102, -1.6755251448768858e-05, -0.000229876744228707, -0.00015709816203958246, -9.02314746807758e-05, -8.407894162295478e-05, 0.00010399511375943987, 0.01143077664122631, 0.007041742072046682, -0.12104456906543734, -0.24834318504495967, -0.13400965042428853, -0.13392269802933848, -0.16846741438252716, -0.039326022959728986, -0.09466912940874006, -0.01194430397548104, 0.04470835569067506, -0.044880343086657004, -0.06779676273451939, -0.10334888032327043, -0.02577702597767292, -0.1522113860098344, -0.15560196031487725, 0.0041209792795468105, -0.0019280545439900403, -0.0810843749860479, -0.0017761454876186102, -0.0003080147184857094, 0.00011200110707520997, 4.981100207214419e-06, 0.0001575336152450962, -0.00012970915790700376, 0.00018835415715321064, -0.00011543547654191074, 8.507704551233333e-05, -0.00017009274330387805, -0.004829863252180078, -0.041324283016203715, -0.11550191515725988, -0.17312502290470777, -0.28717640591346383, -0.1717280508495702, -0.06517512701837812, -0.059823724639473254, -0.15975729110494433, -0.04352727360222531, -0.005093047961537397, -0.004047332605556259, -0.17430541855630705, -0.20930687013715502, -0.0710935501423676, -0.17808665309091115, -0.08871765293132552, -0.00983432099437723, 8.603783360971106e-06, -1.4212707677974068e-05, 3.525508328782556e-05, -0.0001294480595178655, -4.3498821357367885e-05, 0.00034478850076196397, 0.00018001432090220193, -9.03014391472137e-05, 2.9734443927736392e-05, 1.599025419109752e-06, -1.812201972679656e-05, -0.004903168919256696, -0.007354823471057993, -0.10868226449491393, -0.25630711964825703, -0.26247925335464317, -0.1725097856328261, -0.23205889461989113, -0.26221587064762186, -0.18892281190627427, -0.13415095638128188, -0.18393384527779869, -0.28904402319996486, -0.20519140877888672, -0.10992347132568643, -0.09191310450576297, -0.02820327800110432, 2.6243222991963813e-06, 0.00021280218640653536, -2.3419878352078354e-05, 3.2101567496285705e-05, -0.0001917134786394879, -0.00023037180610299582, -0.00012845199567347294, 0.00012969636938404074, -0.00018879885299292586, -1.2462204039604132e-05, -4.377195000462249e-05, -3.138774838474379e-05, 9.14591616333e-05, 0.0026196275710521633, 0.015361650458251748, -0.008662521714857773, -0.013434304201602923, 0.012775324991383561, -0.06450688938075064, -0.07476420261770396, -6.165586917500382e-06, -0.005550685101894615, -0.007961815048175076, -0.0004296305027879998, -0.00015405000924047194, 5.283822523688307e-05, -0.020486204225153886, -0.016281646518692128, 0.00032728487065610554, -4.490320402926034e-05, -0.0002286185249103742, -0.0001490116747720746, -0.00010283894826978535], [0.0001501151522339542, -0.0001573590378137282, 0.00011557324790811606, -0.00023154200746647386, -9.533442463468e-05, -9.05026807668012e-05, -3.146322452411537e-05, 0.00015277373111643897, -4.879406164876802e-06, -0.0003437050889829344, -0.00014950577663778037, -0.0001672289426518923, 0.00010819221798331432, 0.00022710244680125628, -0.000166430405005586, 6.937909273827393e-05, -0.00012975638326481336, 3.457229310735098e-05, 9.649965801573611e-05, 3.269666851757081e-05, 9.460401177099605e-05, -2.5091119793366803e-05, 2.959694788146014e-05, 3.5825159567295646e-06, 0.00010683703426629021, 0.00014897796943304814, 2.277292984643015e-05, 0.00012956189340209654, 0.00012919273435268118, 0.00014365814526698476, 9.069680085660629e-05, -2.94570751914419e-05, -0.0001483291814313814, 9.358391346520403e-05, -1.5539115434226293e-05, 0.00010773954975441553, -6.930608585952445e-05, -5.511133363104069e-05, 4.965291993172078e-05, 2.4453036548946918e-05, 9.670093977968196e-05, 0.00019062826701735916, 1.3531087396895357e-05, -8.968226615032458e-05, 6.303402955848891e-05, -4.1546965871054576e-05, 0.0001003374540323525, 7.404481250712186e-05, -0.00010583007947471446, 2.232519963652037e-05, 5.505146380749455e-05, 1.8706476637346908e-05, -0.0002340282676205668, 9.732948850774337e-05, -0.00010103660909752563, -5.312921503898591e-05, -9.093953917718932e-05, -3.037803130764109e-05, -9.514332331892007e-05, 5.312595609311747e-05, -0.00011557132182792182, -3.121235766490719e-05, -0.00011910563104898636, -0.00014666809113885823, -3.708200825775057e-05, 9.053926382179842e-06, -1.163670216202019e-05, 1.2226278969675237e-05, -0.0015762530616134972, -0.0008701182122054869, 0.00965275250683435, 0.02615265255102316, 0.005407252447692646, 0.006476010877431334, 0.03262629179469871, 0.01662678332313091, 0.00041802629909267353, -1.3751105588926092e-05, 0.00543374978255558, 0.013617568917174975, 0.012989352335861288, -1.0297372772050125e-05, -3.2492043664353695e-05, -0.0002087670249606394, 0.0003462103440752415, 3.904678886397969e-05, -0.000732357935302131, -0.0001134206883367519, -2.0323668827790963e-05, 1.0638570428438509e-05, -4.780300205160465e-06, 0.03628589958305258, 0.1207969285602899, 0.009462627130609988, 0.0060062819361352176, 0.0020112689289671177, 0.02179952066106566, -0.019989766179182526, 0.0034076293639486335, -0.006017172883976236, 0.0336333027158616, 0.07525360858166838, 0.1957580954883601, 0.04401146764892096, 0.10798847393162676, 0.004248160020307001, 0.026353761779272192, 0.0009242810370784419, -0.009330404227197423, -6.81525562093762e-05, -2.5856033970532026e-05, 9.097306746391642e-05, -4.158380283398461e-05, 0.00023599346378283672, -0.01662477498215449, -8.229209143615555e-05, -0.00016556844800980292, 0.013005986810770958, 0.008400915829446064, 0.008182777757215612, 0.009535482501616, 0.11389693279079961, -0.006271344944026718, 0.0397441873222007, 0.03310307658704954, -0.09468938841626096, 0.0582915993740308, -0.04138780983658692, 0.056925968865176604, 0.08542532931016203, 0.20513932484443986, 0.027076113645955444, 0.11610880496931228, 0.0503398977722167, 0.10903982197551411, 0.008827724964061243, 0.0497934872866337, 0.0208718973413235, 1.6706523932016433e-05, -1.7532035502515323e-05, -0.0001019949253576081, -0.00016486740612203348, 9.182292746302359e-05, 6.623152086728754e-05, 0.012573982913746532, 0.10911172137480311, 0.08711265533709343, 0.06819717524529424, 0.09210024198892121, 0.0034478457889203866, -0.034549172148682326, -0.035077929094231526, -0.05593499007982947, 0.020463462003714298, -0.11920914002592757, -0.0071789838818038295, -0.005646934577613101, 0.11651546909684109, 0.050798217218184165, 0.09060724241588268, 0.13130366178301453, 0.13991500196434606, -0.023609306873663825, -0.012640684082808508, -0.009918132908183164, 0.013615058235225394, -0.00806192128055555, 0.000395262151787393, 0.0001724200887688609, -0.00013430697772315217, 0.0004461702524921376, 0.00023484926849722367, 0.07995035443855526, 0.035839212135569884, 0.02800579694281777, 0.04776015418856903, 0.005020405487907111, 0.07658108782983716, -0.05857031169735141, -0.05230958478699127, -0.029497374515429158, -0.029862606387646883, -0.10968902386943824, 0.013516482861817333, -0.053228713453418626, -0.07875997176917382, 0.007237912296172751, -0.010949087977134639, -0.04895784125471589, -0.0007348082992118785, -0.013563327917420827, 0.03447090274691117, 0.018410478740860065, -0.00304543785216833, -0.001087044838182897, 4.500142270269224e-05, 0.0002127814074540729, 0.00011947614782097855, 0.000181111323417604, -0.07280908774259683, 0.05176370174892372, 0.07365861324624624, 0.06960871903991604, 0.03447004256806594, -0.0034093348364286386, 0.07132881829763904, -0.06996634934288326, -0.06538801626857633, -0.04837159815073405, -0.16429081890352595, 0.008894769871883505, 0.04268363800704512, -0.04311607938878609, -0.08837110838771212, 0.0227398696193296, -0.1048701841391468, -0.06534490899852219, -0.020386814198530324, 0.020369926662958043, -0.010505983112803848, 0.013261656000463784, 0.04990017290772278, -0.0034999792094920685, 1.1128367095472068e-05, 0.00014891178256431868, -3.635307396420041e-05, 6.7167293507817635e-06, 0.01315191605765275, 0.09400229343312082, 0.04828329247869692, -0.009264730577989036, 0.10603660685056901, 0.08123250253631994, -0.007655773935340764, -0.057936382393963676, -0.0585836570334755, 0.0072070674416746415, -0.030516384393581713, -0.09287547689165342, -0.11565355425293515, 0.0047519835729019425, -0.048632678621365104, -0.015363896494927405, -0.011182664880600305, 0.07612901013839796, 0.054167523559719204, 0.008345679301265669, 0.0057466580550641555, -0.002658703944493293, -0.0016304349235755859, -0.0038383069636230057, 0.00012039175089185909, 1.206537803692437e-07, -5.011189824581167e-05, -6.602448539108315e-06, 0.0859518776124099, 0.0022243521336247594, 0.0031577467795288775, 0.02331171397531077, 0.021788717232269265, 0.0176905453662152, -0.07198468346515506, 0.05530382694986268, -0.09656236109020941, -0.014959193362927295, -0.0654089967993499, -0.03893179980517243, -0.0825237091198868, -0.00956823526064572, 0.03938164290685116, 0.04000609578121422, 0.09379002920301481, 0.026205883172846858, 0.05294869680522594, -0.05393729148354948, -0.0016599967435973896, -0.006120040757478012, -0.004617219739530427, -0.005641613571269224, -1.3606173021306922e-05, 2.5534315545652158e-05, 3.839315360360642e-05, -0.019573122036554244, 0.068298962516875, 0.005780390754796487, 0.002079311402811498, -0.03616049285786846, -0.023564663533374924, 0.009183947454299462, 0.11291460900565464, -0.08872926641497875, -0.06846989559030082, -0.05844106298219883, 0.00553025681419464, 0.008649195685974357, 0.014579401798777258, 0.04809204139300428, 0.047127243695781175, 0.006750812789391714, 0.10937782156781388, 0.12652245672160073, -0.07545840870795885, -0.177584747007766, -0.0606039557946047, -0.1063582833315446, -0.09577317809479809, -0.002238973107021407, 0.0001985958722716553, 6.0137026243772845e-05, -0.004818696405819806, -0.008746440400460994, -0.027032265199627682, 0.0044896623697395326, -0.026511538182434354, -0.019256858079894232, -0.03839784133312422, -0.01977470021412277, 0.005094844744024464, -0.10286794742327558, 0.0740996523639171, 0.11150360861078254, 0.14070108600549197, 0.1588704336972232, 0.07647925748840749, 0.0678038307303857, 0.08892631709051492, 0.08723544475450576, -0.013101295052964455, 0.052996196943514075, -0.09999319978174179, -0.15981351938548982, -0.19073286736453365, -0.08275855321804888, -0.009098435463229752, -0.010128906326163195, -0.00010580791374861204, 0.00022463827947810034, -0.00635339509570609, -0.012233658115432238, -0.1436428016407366, -0.07336738071109564, 0.048304679080207844, 0.08500174518236644, -0.07237478078251305, -0.07531913139774667, -0.05488527519806865, 0.04392625119705113, 0.10303490424153652, 0.16818124107938656, 0.16320080091885844, 0.09774192775166096, 0.005426587697568884, -0.014720233576161494, 0.05212767736990443, -0.028135453672849017, -0.09361681978495122, -0.1362129408888571, -0.07932656396882495, -0.2435105078136238, -0.12236365958398575, -0.08108368706402219, -0.00699654248212196, -0.004742203760683872, -1.1761480187322493e-05, -0.00019209661211900937, -8.016908799308501e-05, -3.4056303344467194e-05, -0.08786229871718394, -0.1732966162642417, -0.03359290697199054, 0.025580423333509336, 0.04201157717764488, -0.0041500872011121645, -0.02020333719955583, 0.013693399825448397, 0.05281656570492254, 0.0988860704445763, 0.08138328893142283, 0.05755534998110932, 0.060287270049925554, 0.08760922068478044, -0.024658641469870395, -0.06549449795211026, -0.10247808199701627, -0.23474210479993962, -0.1434974247367617, -0.10334303979249805, -0.04641955917594544, -0.0822940182706719, -0.043661390189272856, -0.00010625551406569797, 1.2707575515704333e-05, 1.6039710309858905e-05, -2.8228579723149465e-05, -3.736257347676418e-05, -0.02919978682820063, -0.10407457653089762, -0.15791058066179775, -0.09569934414885646, -0.09453337314949561, -0.014575783301401458, 0.004855356551754692, -0.05099693821922135, 0.054453142145812365, -0.007899835663181459, 0.03752054105672907, 0.14507145014242828, 0.029282955122929995, 0.03643844690671985, -0.01508155848883115, -0.11303260635717514, -0.04751311448371205, -0.11237574759380237, -0.04328660042747479, -0.07581735213020377, -0.040454295044994155, 0.006499827972196095, -0.011054813432882844, -1.5702661133591378e-05, 0.00013982852964157592, 1.4081100393043138e-05, -8.597745365080902e-05, -1.0144480285206831e-05, -0.013181206608566726, -0.03158893418375617, 0.003610192662214341, -0.05930942524889319, -0.006955211233229689, 0.040246129673134734, -0.03640415559328923, -0.022318947462050466, -0.03383841450288359, -0.0072793523500256415, -0.0003168358387449098, 0.10898330649011055, 0.10925445364016667, -0.001999514911880111, -0.01974847464823004, -0.03898445418842901, 0.016245543994163177, -0.004144668401251845, -0.13441871772362213, 0.12256451171239902, 0.08720312801473597, -0.0005450926018421775, -0.003959345720070172, -0.004507210541119977, -0.0001137750614992906, -6.864523939490682e-05, 0.00028270680508043166, 0.010512632954033907, -0.0025447544731909567, -0.020660273968558514, -0.004942259959071165, -0.11688316488978225, 0.000385073250935273, -0.05716399240232273, 0.055975288686252754, -0.05522402436194466, -0.09508935922396279, 0.08693858219481677, -0.00024022544624371524, -0.014301636908089266, -0.07634196760520946, -0.009080737858332927, 0.0042893088890613015, 0.07988753349962152, -0.034751564325771034, 0.08967988155640531, -0.031012679268500366, 0.11139298026089031, 0.10854048932483, -0.007779752196011491, -0.025631438312350707, 3.412441006351009e-06, -7.663561429706924e-05, -2.9120402012524733e-05, 3.502503015552452e-05, 0.046482244074485486, -0.015698792078865806, 0.00049146918345429, 0.008455776688942901, -0.007570545023943671, 0.01864361449957898, 0.03567415203408595, -0.02269033710345422, -0.053150490006182556, -0.07421909967873408, -0.08356706894619977, -0.007897595489963929, -0.030922358810684933, -0.11319258091022007, 0.02189662966419569, 0.04767034819492246, -0.024726392208287654, 0.12345167900838655, 0.13262206978752905, 0.06251657764890531, -0.004033592245141341, 0.03238106342794326, -0.04845057693600226, -0.11975599241257283, 8.586825595214388e-05, -8.312337657929846e-06, 3.495280605053705e-05, -9.564961035309031e-05, -1.644045254011369e-05, 0.10917095496675368, -0.004434015322195314, 0.020400983230311493, 0.08283641113227669, 0.05522689837101335, 0.02165918172231083, 0.05241084878064789, 0.022041276866652998, -0.0191967728175875, -0.01430160304997186, -0.08028462494448166, -0.13317451955362267, -0.05628929896015306, 0.05990512886277172, 0.0951177498739546, 0.02541701612036955, 0.07432745427782277, 0.07447528573216397, 0.042369688390516934, -0.0031962112047474248, -0.1431788283078092, -0.08909365091649543, -0.05448703652763567, 