{"layers": [{"type": "DenseLayer", "input_size": 784, "output_size": 128, "activation": "swish", "alpha": null, "beta": 1.0, "weights": [[-9.93312177276035e-05, 0.00012969403078773154, -3.280604684796607e-05, 0.0003232359789405774, 0.0001852992807014183, -1.77399788314614e-05, 0.00011725196982875462, 0.00020891870232859686, -0.00011704898904492327, -0.00014982948395819213, -0.00014587266743722714, 0.00013314400138141985, -2.8581880337979018e-05, 0.0001119499221590076, -0.0002170033060351145, -0.00021136811847446234, -0.00034615874533917954, 0.0001654595850543875, -0.0002287555338304367, -0.00011702901061155954, 9.062214937021954e-05, 3.8389001086254975e-05, 3.2765427099750236e-05, 2.7279462182929496e-05, 0.00016147118124390123, 3.106345780313599e-05, 2.9601982100489735e-05, 2.823297944857881e-05, 9.587414558959347e-05, 1.261306847857998e-05, 0.00020955162505067464, 0.0001871855407419077, 0.0001651289139657817, 0.00018239748256974582, 7.069809096459589e-05, -5.890141280009539e-05, 3.994192154775105e-05, 8.526262908005191e-05, 0.0001784333135570438, -0.0002555761970990209, 5.721420401786799e-05, -9.050302592496934e-05, -0.00016513448438468055, 0.002640485070577983, -3.325098589472056e-05, 0.00012569778542121813, 0.00010109982198512908, -4.631548210471401e-05, -5.66690860316015e-05, 4.405231589521441e-05, 2.190466795956331e-07, -0.0002227261276739737, 0.00017537318850136557, -0.00016808231880033114, 0.0001960502521846773, 0.00015406902538687699, 0.0002205005664596087, 3.0505027132877847e-05, 9.426559500315786e-05, 0.0001291811210770379, 0.00013746134884632034, -3.336786142141176e-05, 1.557031615628441e-05, 4.2935744755300394e-05, -2.7557514598981795e-05, -3.707119723835163e-05, 0.014534199460202008, 0.017097266599091908, -3.761598692309968e-05, -5.703508589626762e-06, -0.00867714981481717, -0.11321494880986196, -0.16369199400155465, -0.06525087757756914, -0.027299385982955154, -0.01816400254997435, -0.01425064253325287, -3.3500407097529015e-05, -8.313760293366835e-05, 4.952644537639438e-06, -3.5687980916412454e-05, -0.00015552762844453098, -0.00011783746869967922, 3.087886332106093e-05, -0.00024242506801242737, 0.00023093257459404654, 1.27553406647224e-06, 5.010280066917636e-05, 5.6873079753207736e-05, 7.611422830406861e-05, -9.601441750937253e-05, -0.0001398964753840104, -0.00020007225012763064, -5.709745888922203e-06, 3.296193532361155e-05, -0.011703308298477672, -0.023337481589753274, -0.273423176540302, -0.25705178407323087, -0.32868012850097306, -0.25935691829833757, -0.19510304420050675, -0.1152128511610699, 0.009282276328102359, -0.00639947513718442, -0.11416187645247684, -0.0010675082897857117, -1.2195371442844406e-05, -0.00015858078250690478, -5.053874296442009e-05, 8.042318604324111e-05, 0.00020920583188804788, 0.00011559519991226695, -0.00014895397212828944, -4.346860723982534e-08, -2.668064316026825e-05, 0.00030877233990432703, 0.00012087310987424652, 8.446856282364548e-05, 3.293566825570966e-05, -0.0015463769136022235, -0.23084330808608292, -0.20425596792224737, -0.23510156988762904, -0.2209940652278324, -0.07982178219466561, 0.009567840787374035, 0.015473339574753102, 0.06022956821449724, -0.06536194565629248, -0.005143453213445847, 0.017881469116450048, 0.08040285812197014, -0.012600180218814594, 0.014431047538470475, 0.0222624028720528, -0.09770816333401283, -0.11985110694165407, -0.020412152071037006, -0.020442299176470738, 0.00032202188126103146, -0.00010669623148335285, -8.373926970821201e-05, 0.026099333950416644, 0.018377002451591965, -3.672505543658778e-05, -1.7557134902373724e-05, -0.06233326699797078, -0.15126453730494185, -0.15000557087975122, -0.44441541722174555, -0.3824735483894884, -0.21136784714947654, -0.15204928994615674, 0.007274654957899376, 0.034155444875763885, -0.044612700863915195, -0.05837707177391026, -0.040048400913982436, -0.05072871499962007, 0.022275727438788875, 0.00622977169271134, 0.11586349680855021, 0.07786431340541267, -0.03186970345506651, -0.083444727239538, -0.046627219436419724, -0.023611559381582457, -3.492983368850605e-05, 0.00018247545960108048, 0.00010248720820857501, 0.03338752385988685, 0.024655353859663567, 0.0002597065178356329, -0.0035980174642692136, -0.033473573852447515, -0.08843704174299079, -0.1413900262478503, -0.21645351201390903, -0.2805213376759157, -0.19285271005445653, -0.17893123765055877, -0.09185161085806692, -0.25044383331162556, -0.019603929224762107, -0.09523692454751181, -0.09412751621144841, 0.007114183352753384, -0.051639138242998955, -0.042927887969988185, 0.02929873301146309, 0.06291512140995854, -0.04982523627131195, -0.07424215389489697, -0.017773160184480247, -0.012199528224430814, 0.0003445077248428823, 2.0444213636664128e-05, 5.195715391214562e-05, -2.4948343673217366e-05, 0.0010800767430181667, -0.020727027039649862, -0.014014288175841794, -0.010153050148845419, -0.10545005663330337, -0.05250635656168944, -0.14110880271358467, -0.27389746514302277, -0.2333106468750209, -0.03968928923469379, -0.0665482888440929, -0.04533381142128014, -0.014539612373496755, 0.05195516991648336, -0.03375429898159678, 0.02593798757720874, 0.04276288093802553, 0.05556897266681643, 0.03252782375551466, 0.0673031165626704, -0.17604572545769848, -0.1613815550494477, -0.015335446640520478, -0.0029799344845182173, 3.752442007277328e-05, 0.00010868678583328173, -0.0036916665491810207, -0.00026770955483571566, -0.006571224570541534, -0.029873628981918553, -0.031127269171306555, -0.01866468850665407, -0.08976739228724309, -0.07616504058237479, -0.13641422804409895, -0.3072730962274501, -0.22983949019440955, -0.1408038215219423, 0.03433817662261631, -0.07119615987577456, 0.024692467354780572, 0.03724451554190616, -0.02478346212007443, 0.04061193251452883, -0.024989176348672724, 0.04230676351063843, 0.04653904721453509, 0.006843267049278368, -0.213766964940994, -0.14243432775523662, -0.0004242606715280064, 0.00015563921422701564, -1.0467282877793462e-05, -0.0001979929375077557, 0.00020404152971687184, -0.0001777287439551063, -0.0021593660092193556, -0.01229438194030741, -0.037272729289854575, -0.04208738671613825, -0.0022143360135514502, -0.17012285979637565, -0.1245337999188833, -0.30826769882629645, -0.28799809197500653, -0.13634555616708283, -0.14907527612033714, 0.06914160632173455, 0.09392997914031276, 0.09459365003890897, -0.017313712016875232, -0.06971586574558888, -0.06685187477218758, -0.08722489022857638, 0.014977361626138696, -0.05400249981415721, -0.06521148374277076, -0.02999590959662781, 1.0664091150860346e-05, 1.424952800210404e-05, -5.678114459998332e-05, -9.167988245117317e-05, -1.901247435850733e-05, -0.0005381907239418744, 0.0010451776527534117, 0.0030035769373164796, -0.0056098542486852235, -0.027035091305741752, -0.019281535535591886, -0.1831744959653743, -0.23332809372825808, -0.3486532340806838, -0.26936655439807733, -0.19256906850172337, 0.03608460580143668, 0.21001789231167825, 0.1285922284433979, 0.18011708609106714, 0.020375552110569402, -0.0034312582869119018, -0.05730509629513113, -0.03147396346883596, -0.06701564642576524, 0.02284922821706657, 0.021921267779580537, 0.008291164941448522, -1.3372804424062946e-05, 4.935607157567406e-05, -4.1460340796561e-06, 1.0524142632381725e-05, -0.0006740564680011099, -0.0005719301339478914, -0.0005479646420649773, 0.003113197787487655, -0.0018671994026597935, -0.038233031010889124, -0.045502019671906105, -0.11045771391307238, -0.23503558776488914, -0.3015623466959053, -0.2329737733976841, -0.038859938354728216, 0.16403753329877305, 0.18991767998171188, 0.124790105908007, -0.01680973268911907, 0.037777114056983085, -0.012178998158247722, -0.03389493971299023, -0.03217362732143252, -0.0477254853103085, 0.02163882666329103, 0.08036604407538969, 0.03188279873686209, 9.86816541396269e-06, 4.8142683920202116e-05, 0.00022898895800707646, 1.0284129009194073e-05, -0.00017955016327164398, -0.0004903564601691565, -0.0005369813193932917, -0.0026061874906957634, -0.09861002887270963, -0.06325910395815684, -0.12296533425869811, -0.1867779130104604, -0.15773851519627863, -0.14904697891348986, -0.03185403176718511, 0.03484008611408531, 0.1962974763229049, 0.08436388475648511, 0.06759390249463003, -0.03100369728557522, 0.017336597629133674, -0.04642292046733994, -0.034025773538408764, -0.05673760860517009, -0.06529462693131115, -0.001235807151482155, 0.007346870075521475, -0.0005091423465025982, -0.0002564609850291491, 3.196474012836215e-05, 9.346323021331907e-06, -1.3017024077070369e-05, 1.0558052470184111e-05, -0.00029491889295569, -0.0031459228664279726, -0.009848293789348912, -0.042475953573684, -0.008581403178041484, -0.09847130206938161, -0.0872636771417903, -0.011519460753430992, -0.044933877036909764, 0.026479712740977417, 0.07818385867445898, 0.15611697000304947, 0.026333338403709383, 0.04013431169454347, 0.03993337403431213, -0.08225869874837488, -0.1379810021950068, -0.14963563299062543, -0.07294458754239755, -0.01654927068804865, -0.011445310106362244, -0.0016442178309763638, 0.003420731342517901, 0.00972298529851202, 0.00013144539985247876, 0.00023022746847623098, -0.0001985178059719701, 2.8305257053542847e-05, -1.1558782856814795e-05, -0.0046065295677332994, -0.007883736563506806, -0.04044984885786164, 0.005152506053515107, 0.0027830583399810717, 0.002051203011677821, -0.019330294420896437, -0.10462644418852765, -0.02364617895857194, 0.04202998930104633, 0.10764187567284915, 0.031789520004034844, 0.06434865647035955, -0.059495549138954364, -0.22268325569027828, -0.2142750861061727, -0.1178098937069444, -0.11532751206582555, -0.10284962129549258, -0.08595914637660028, -0.009199291562254621, -0.00013584782182837158, -0.003582162387118983, 8.912098513519782e-05, -2.9914208718513595e-05, 1.1655044133817324e-05, -6.766478437728401e-06, -5.6001823981877224e-05, -0.0008465658052130558, -0.0009869800776410131, -0.047231009973812604, 0.0023736960071585344, 0.06406966282782985, -0.02515244028097144, -0.009874144426538611, -0.0326577596969215, 0.013435547225056898, 0.191001115371687, 0.1538130891453972, 0.030549238405362084, 0.05312141661772887, -0.12005278009008, -0.29219602189269867, -0.23500383247388468, -0.25754358675532835, -0.08524082344173631, -0.013869089674227666, -0.02284583060396497, -0.03557601500584032, -0.018079653446345916, 3.309523107006515e-06, -0.00010969647432199454, 0.0002542578055714453, 0.0001155420884385809, -3.892403433205011e-06, 0.003509144137927125, 0.0020636938089390296, -0.006637750274908336, -0.03056280196421451, -0.07461203952846801, -0.08472077328488692, 0.02518057780530323, -0.10502549295084913, -0.021416177586370173, 0.04219822877962755, 0.09998653431414067, 0.11635545986793279, -0.03343972149973661, 0.038665091986004256, -0.22181154794732183, -0.18509064440571538, -0.14114039830543185, -0.1414909965838482, -0.019691458166580782, 0.0004197918824528922, 0.09198632783081988, 0.10634070488611128, 0.022158833904431328, 4.35870076344204e-06, 4.306949221546474e-05, 0.00018014806258700254, 1.2848706538679515e-05, 3.121099888965899e-05, 0.0035267940270534313, -0.009018565517665755, -0.04374795787355104, 0.014541429010464506, -0.05631675450267746, -0.062053552400303656, -0.011289467525456474, -0.02752736322011211, 0.05222148884484678, 0.05582110439955544, 0.023504049444912675, 0.05614651758369798, 0.015163539433665682, -0.18532584590257536, -0.15028028440842997, -0.05296885995104843, -0.002987017536100391, 0.014483755761337888, 0.0027049771522645047, 0.06858163695371203, 0.09968862133445201, 0.09209030393227814, 0.06876619664879842, 3.8861764928248746e-05, -3.4381759835407154e-05, 0.00019843720780490773, -6.124901025023895e-05, -7.0434951189525816e-06, -0.00010877346118146378, -0.022743403288451116, -0.12418448824200432, -0.257546474802546, -0.04454045146063758, 0.039501639045550575, 0.08293069876231286, 0.03704226162971114, 0.09642495092935638, 0.15477473003544548, 0.11223671952106193, -0.021134750804529853, -0.06353269614545394, -0.152770610799063, -0.0589997126759754, -0.0173373663293735, 0.031754687570240504, -0.0841319827068787, -0.04150875962937523, 0.005624585439501933, 0.012788394688699996, 0.001243161736209282, 0.05553916631572476, 4.892788315806529e-05, -1.8693729729619605e-05, -6.137787895152047e-05, 9.466683604262085e-06, 9.078165462571477e-06, -0.00528922964710449, -0.040210000075401764, -0.10970064367064565, -0.007908510747357014, 0.020638095073598928, -0.0183499555702835, -0.01967039139857181, -0.07841696425863268, 0.007819454046999987, 0.09914198207694651, 0.03549858281685493, -0.13625584423310674, -0.20024118478384753, -0.19148180828690228, -0.13760123017928097, -0.006492397079681697, -0.09025265542016925, -0.20020018159617659, -0.0027393998399018703, 0.01583985321467642, 0.014705848367501724, 0.03163433729000928, 0.04992203794176891, -6.25520041439311e-05, 5.212927147754891e-05, 0.0002648563447797664, -0.00012538242739080647, 6.869915575591788e-05, -0.0002473215099290083, 0.06377412762275864, 0.05874411436424338, 0.026925403002906502, -0.017801713811347347, -0.05855649616837479, -0.0555138217941858, -0.0090627933853639, -0.05961546717637172, 0.0257683027025021, -0.12657282200874298, 0.0015887141607160448, -0.23066831790732364, -0.14531018498998266, -0.22221040324714988, -0.1892140254543118, -0.06139617098093648, -0.012092014402190269, -0.001801562596778602, 0.007601561500272301, 0.018800613597433388, 0.08231352985481206, 0.03822134068052501, -3.2206967868272966e-06, 3.309156352307904e-05, -0.0001309560865963844, 7.265255888338754e-05, -4.698082823775442e-05, -5.8404681755531835e-05, -0.03174665860086309, 0.1605713500404056, 0.01985492936233487, 0.03211359631942723, -0.12643524109187088, -0.03197894383361966, -0.024646348002596893, -0.12010643343493038, -0.16353549640618062, -0.1199913920012185, -0.09785373056081412, -0.01899929916841875, -0.14872685110248274, -0.1328369102888131, -0.21182942443029862, -0.14258081863009128, -0.1650075432757597, -0.018684744251112165, -0.0015906026139819443, 0.05323000082355431, 0.03251036362010141, 0.02063154058369488, 7.461578964467959e-05, 0.00010815549559827846, 5.808959145174722e-05, -1.9343234098638973e-05, 6.83735215070673e-05, -1.325851781798763e-05, -0.013218206647886848, 0.1953216618020212, 0.01299545869901193, -0.0200479380481916, -0.02665683705134099, -0.07917228871044349, -0.182532049020892, -0.18899820446762877, -0.13321631252831384, -0.026843343803566403, -0.02681098301399419, -0.028175648413549265, 0.04056020868418783, -0.026644257980159437, -0.03913890266510325, -0.05670094866999362, -0.12384826219512812, -0.1518002820884628, -0.01591968944748848, -0.0037766634929400364, 0.00982473272790296, -1.5964094302196579e-06, 0.00012701299068911142, 9.553170652207689e-05, -0.00010294614835327774, 0.00021990035628728665, -2.4938463747684308e-05, -0.0542653093740316, -0.046064218624863845, 0.07328274728255836, 0.032503589009147626, 0.051371878286516626, 0.01913109849891297, 0.0590771486441039, -0.12947618363936508, -0.03984284463725365, -0.11679598100306715, -0.023236885623126955, 0.03897982893304523, 0.0012484104025768739, 0.0774658557286147, 0.0031086056266929367, -0.0023272731234090147, -0.004724464956133407, -0.06092263534187674, 0.002692248503271528, 0.0003226535754941097, 6.922888041790642e-05, 0.010169811648360606, 0.013601891520022684, 5.443161949762352e-05, -0.00014836249133328084, -0.00021314609081136377, 0.00016094684693109023, 0.00021526363795954296, -0.07434098298120215, -0.00400477939328089, -0.0011367255986472248, -0.0638211775562173, -0.07709437301139264, -0.03819748141681873, 0.005243181204266915, -0.19865157549407975, -0.13483466427466068, -0.05392937887809994, -0.02763926229902433, 0.03680329095968491, 0.03884582854854512, 0.006376953325242857, 0.007977502167712723, -0.018407318117397018, -9.269679338168231e-05, -5.503022689723885e-05, 0.00031011719317180966, 2.6951610881665423e-06, 0.00013006133313661625, 9.17988078165386e-05, -1.1541612066562435e-05, 0.00011581994769110944, -0.00021194788026681466, 2.9642490869579432e-05, 0.00021312014394518733, 4.161111533688065e-05, -2.858072136958678e-05, -2.3051148682039628e-05, -0.011878643245282204, -0.026491909583524348, 0.01826431484402388, 0.15483233956691908, 0.04993386793549423, -0.09937148764538475, -0.1721632451837114, 0.004902825288413354, -0.02836009417321198, -0.04489777172436018, -0.09909980114673148, -0.06100676239967486, 0.006208109565778547, 0.0009327230588003371, -0.0016467393063700779, 0.00029173654029786104, -0.00024688840236569915, 5.477671809822526e-05, 5.24952943555723e-05, -3.936124772414403e-06, 0.00012612361524875522, -1.1772440346303456e-05, -1.3201456312767856e-05, -0.00014791173522940912, -8.866799898734763e-05, -0.00014968858147271612, -3.467438173008713e-05, 8.17070140983391e-05, 7.760151800942212e-06, -3.3930481372787275e-05, -0.00016129629215224904, 0.0009664916022330495, -0.015054313795107075, -0.01702890822265524, -0.039931031877761584, -0.06764201685405431, -0.08035535300293217, -0.018085780564025815, -0.07418795522007345, -0.003768297528379432, -0.0025781069843966585, 5.529830304122845e-05, -8.077206392054997e-05, -0.00022481496044601075, -0.00038235100999491626, 8.702839878004144e-05, -0.00020595480704439697, -0.0001375370107523682, -2.8806996069416626e-05, 2.0961086669678248e-05, -4.6760609759270805e-05, 0.00023602069157519228, 0.00023600656006542728, 0.00014921130538475986, -0.00034375274470106135, 0.00017293498866556467, -9.482921895024216e-06, -9.036215531045097e-05, -0.0001534700453636479, 0.00015677247187585443, 2.954028409521854e-05, -0.028319627790744335, -0.007016871716404979, 5.814790384842416e-06, -0.00025461456159629834, -4.992897890831709e-05, 0.0013914164001722267, -0.0008059205744305851, -0.00011591113929867379, 0.0007518370243750594, -0.000511643380881871, 6.183021762075915e-05, 0.00015314231354262483, -6.950689130584743e-05, -0.00010736933275109742, 4.0979829387597895e-06, -3.0374768051686342e-05, 9.971622090183151e-05, 8.72411658989345e-05], [0.00025294455321474806, 0.00010294798769518444, -1.2159863672654719e-05, -0.00021312803691424893, -0.0003463118254562401, 0.00018711100813678208, -3.275583074812411e-05, 3.155028249756663e-05, -9.086311039801232e-05, -8.790350194726946e-05, -4.488309262521762e-05, 9.564420941570275e-05, -0.0001167938866188564, 7.607231624210306e-05, 0.00010397334725820013, 0.00034181656448477576, -0.00022735462113866273, -0.0001757208940882195, -4.661873523453971e-06, -2.880269824314037e-05, 4.889152672614987e-05, -9.092359204986426e-05, -0.00011111670168906608, -3.239449197348386e-05, -0.00034378894952266707, 0.00021320794777391784, 3.20269986236666e-05, -0.00011695230349703276, 3.0831980024460744e-05, -0.0002277865735285705, 9.540490805861747e-05, -0.00014944265848521317, 2.3556513528249366e-05, 4.4291725715216694e-05, 6.17901247233925e-05, -9.093550776310359e-06, -6.34066735993458e-05, 3.355149404253108e-05, -6.128458194481427e-06, -5.169616931856618e-05, 0.0001872674915543995, -0.02013122797328934, -0.015761554480554746, 8.176092798767886e-05, 6.498623643323458e-05, 9.070536993925022e-05, 0.00013382655128829624, 0.0001677679254017636, -3.1090405107391835e-05, 0.00012667124061043036, -0.00013725316014516449, 0.00010634890349211492, 2.068156683201515e-05, -2.898940034137354e-05, 9.619499403991177e-05, -0.00014806480319063962, -0.000149238526088036, -8.796441561557218e-05, -0.0003437848489865177, -0.00010179840182146223, -0.00019874430178364928, 0.00011484498881687166, -0.0001567923176071624, -1.226740806120369e-06, 0.00014403666607123167, -2.891287039240634e-05, -9.817668606083651e-06, 1.8536543286421466e-05, -0.007485331521634663, 0.0003912969199945589, -9.457414813016806e-05, 9.585118758969938e-05, -7.769744690442626e-05, -5.910032249011079e-05, 0.003572397182798238, 0.005088413194157032, 0.0011875090077234363, -2.4361982794963825e-05, -8.927486417966835e-05, -0.00011719068300370929, -0.00012512225556010072, -0.0002021838003041389, -4.895473222603044e-06, -4.1007470795312954e-05, 9.945516987212833e-05, -0.00011712144104849993, -0.00010009965363239526, 0.00020589580961138276, -0.00011267883424650142, -3.090391534488435e-05, -1.1553652023867074e-05, -0.00010282448029420065, 0.017249905385559296, -0.05445427116713658, -0.05591933671428288, 0.009877549118850016, 0.010871508478369277, -0.012989253094472785, -0.06058082370796222, 0.0004989307507948997, -0.02314418394569083, 0.02992388870696468, 0.021485765844209304, 0.0035205452539161792, -0.05306719239240159, -0.01416952100323129, -0.0017599575327949851, 3.8238799594884095e-05, 8.918720857800312e-05, 0.00012386458762542684, -1.0099856507646152e-05, 0.00011751932778481075, 0.00027806158848190174, -3.445411511571292e-05, -9.013021622289317e-06, 0.001466883617078192, 0.002403667584872236, 0.0006961633472679203, 0.0006368271522702129, -0.0028732622704412134, -0.01870109040233504, -0.0718098691424553, -0.06895885054983293, -0.09807768195770004, -0.25693988436617105, -0.21103957913196217, -0.29809417118896436, -0.03521512133458576, -0.09434602829181417, -0.016748746773046528, 0.12874101147638706, 0.05817365383526583, -0.08110066528681283, 0.014926278367714518, 0.012342681147355842, 0.01826353726372489, -0.0008929928709394193, -0.0020076280161486723, 5.399108245338855e-05, -0.00017499631644565648, 0.00019081097156811467, 0.00033703641725588336, -6.195204562382943e-05, -0.019850766509497852, -0.04840262741236834, -0.0058634798035019225, -0.024902364465816628, -0.09876292760740957, -0.15279275460166133, -0.07796945333807136, -0.06798315211464435, -0.03731263243413329, -0.09158143886381263, 0.03757383574929032, -0.012550611985351049, -0.08687807247140675, 0.00543320196280765, -0.02164292769467993, 0.045678601354375854, -0.053277683644273766, -0.022312392835332002, -0.0338061660880711, -0.04189681048072196, -0.010440769539447434, -0.003308122751817229, -0.00055099465323932, 2.1628345550209544e-05, 4.990709933933119e-05, -0.00034477520784982304, 1.8825727897906375e-05, 1.7736345678728115e-05, -0.026259505464372283, -0.010793925613493313, 0.0365570967629154, -0.017366445101483812, -0.09125628616322687, -0.07427216877188364, 0.023757135105392, 0.07931000048852202, -0.035149592971431685, 0.0732644370002055, 0.094655015938818, 0.11913873600082757, 0.20578388958273916, 0.1150958523160425, 0.006820435971192237, -0.008105589379718134, -0.14176082375261304, -0.03154402185403417, -0.07620228035341253, -0.10664934114743259, -0.029982181966606476, -5.1363737831868115e-05, 0.0001957594296256988, 8.638839727246743e-05, 4.1368295212836437e-05, 0.0001173970648060703, 1.0257926473212208e-05, -0.0023712676179586897, 0.00977393923067861, -0.02745857155776649, -0.1259343984107653, -0.05203283307385541, 0.04869196373219657, -0.005397652854002578, 0.0770164387885195, -0.0361665797949152, -0.035942417297261574, 0.03599700135229869, 0.04765358721771811, 0.16228869781485752, -0.011857411788536281, 0.026349877272085306, 0.0019684807793249777, -0.04159835106168885, -0.0969294297191706, -0.07161692788891755, -0.159849785306692, -0.2541991967260128, -0.17776061753081748, 0.00710166184937502, 0.011916363164880855, 0.0003066745343943979, -7.061026243346518e-05, -9.19690464117171e-06, 5.5049118647671096e-05, -0.011388545322073314, 0.07137576089794807, -0.037791447606364936, -0.0018367414933848076, 0.11241846917508043, 0.06496872679622724, 0.031458857789514245, 0.1207186521018278, 0.11475713364597297, 0.03411232237496499, 0.1281712755767152, 0.10187192644322055, 0.04333402735479583, -0.03612590463036024, -0.027755964494070168, -0.10060421593635425, -0.034413141121493816, 0.00705172387124746, -0.008024166073823455, -0.07903875412852114, -0.09994564436602792, -0.17217705614578746, -0.12591594381437982, 0.0005258423131159674, 0.000878546453984593, 8.102188218885102e-05, -3.722620302701058e-05, -0.02290574706393336, 0.05497839913621746, 0.08320469332937265, 0.04896489063708143, 0.0022706986032106375, 0.13516758368746973, 0.13192094400119045, 0.1376381963656498, 0.03763346627068002, 0.1342466315157162, 0.10924102060644676, 0.002031933147003826, 0.07081548332045802, 0.043599159270529736, -0.06707129689496003, -0.07603152024969609, 0.10899167378261909, 0.007846857299930125, 0.01138047519005595, 0.059624745609384446, 0.06087728220612385, 0.0064418042928040715, -0.07810551441093522, -0.132802214164916, 0.0007890414557101087, 6.568180407091709e-05, -5.197826713222522e-06, -0.00010453159550279195, -0.014554148853499564, -0.005727581158697449, 0.17934883001613527, 0.07706174246484025, -0.002339723387908675, 0.014898070590197947, 0.026555546024566327, 0.08431437745358736, 0.013247415831668915, 5.2833237645528175e-05, -0.040069515884539025, -0.1053306134659984, -0.25596760823336523, -0.1054621006759522, -0.1299712390908177, -0.0030803070173294005, 0.07717998277160658, 0.13081099461202134, 0.06889109528088408, 0.06819170678033602, -0.005243751779127694, -0.05201729947244143, -0.030174584980796955, -0.21194154443195054, -0.014996106228657864, 0.00023364437111197468, 0.0003515464345480257, 0.00011960585953448854, -0.01644775783856363, -0.01688955198338246, 0.05851242382573624, 0.07169887305630908, 0.0769675382961032, 0.09265120403693376, 0.01437027043863552, -0.004033371859496933, -0.053401697943112246, -0.13754883495802614, -0.26304627696493715, -0.30844520820910376, -0.26768873540844307, -0.209190627048691, 0.05827595753362748, 0.07253427869607454, 0.24557507295378428, 0.13046647091460328, 0.10873644138645885, 0.24962041074578617, 0.0480348288214063, 0.08164347697681054, -0.11143596544618119, -0.17258814102913295, -0.04724235353776297, 1.1356296286119314e-05, -6.545572553029482e-06, -0.00011595342100389003, -0.014278116413619955, -0.0328438299966474, 0.03779063582524106, 0.06786088754108613, -0.06614247146002737, 0.02649617457098104, -0.07029917361789274, -0.09509591000348415, -0.23710666907518654, -0.18576106587437943, -0.12962635424858918, -0.26689389280792675, 0.013162384398518218, 0.15403737158803946, 0.19581231132867324, 0.07057778965261353, 0.09082772307779272, 0.04629940292558487, 0.06108687395123032, -0.07558249830928787, -0.06301527716409576, -0.04899828339417274, -0.13000570928141988, -0.15819771987909978, 0.00029813177021723383, 2.5411298694800113e-05, 8.312522323833911e-05, -0.00015397359499704863, -9.711653791180446e-05, -0.010459630430259227, 0.014250297689648847, 0.014118795956154997, -0.1333690294088736, -0.08967360549238496, -0.11069819345593615, -0.16686445608486825, -0.009843697385189091, -0.19299332587551984, -0.12837093279578649, -0.06972466477864828, 0.08316658315191834, 0.1674171488814974, 0.048951100326134436, 0.07478429710043209, 0.019446203718371868, 0.04690074184751855, -0.06134426119920453, -0.0004208246603930755, -0.020565764895047096, -0.08599147246179735, -0.21098117074725017, -0.1211780958369267, -0.00032426207524355685, 1.3705499668193975e-05, 5.595623579643219e-05, 9.583875938153226e-05, -2.8752924115094423e-05, -4.584277888432477e-05, -0.015004391014727416, -0.09729949112168729, -0.11968982019545274, -0.10211383744872261, -0.030547322251245873, -0.05899407524606097, -0.03142774805860181, 0.004139391515172911, 0.023901936731065866, 0.02680170524076391, 0.15668214840987962, 0.10500056280114345, -0.011973642141925353, -0.045341150026042595, 0.07107782822818774, 0.0007874739422432428, -0.03756841168474375, 0.029398910427161078, 0.006689241843278937, -0.04349158710545715, -0.03268948994686701, -0.1790511289910928, 0.012721851761755441, -4.1046329567772534e-05, 0.0001913450258251135, -8.320982740710234e-05, 0.005020143672287049, 1.953818724426472e-05, -0.03868627270981775, -0.06375893342619836, -0.03495506805312538, -0.08175227184227564, -0.060293135811311016, -0.005394871463057773, 0.025111549794394124, 0.07927750600362114, 0.024674933146650313, 0.04201186847485042, -0.017922925237586013, 0.028396714834279423, 0.09609481072095044, 0.1491773997681371, -0.03109055652491747, -0.07042481856389338, 0.040386900761722584, 0.05284019409282703, 0.07957872012738115, 0.015979058493350046, -0.014604428548824393, -0.09411816793057236, -0.015203609504512827, -6.366074041157133e-06, -1.9288851080148867e-05, 0.00010482829176835673, -3.1941018324094566e-05, -4.6537991112926584e-06, -0.023274076103496612, -0.017779835856712632, -0.12484185150616356, -0.028591989066095422, 0.026937961582235253, -0.007060351780044421, -0.07067159911013862, 0.06047138243246899, 0.011297522819189719, 0.11761483216158355, 0.042730680579241245, -0.06863216564851354, -0.028491676801873162, -0.01310459746625387, -0.000481252489725607, 0.016679851018193713, -0.016149137361394162, -0.008641939655442679, 0.020132991019873456, 0.03206625884300778, -0.0289535495365271, -0.06418392398541238, -0.12342565504808559, -6.381331788102266e-05, 8.750622428568433e-06, 9.838191550880807e-05, 6.592111269416518e-05, 0.0006536524774084042, -0.00634268429398546, -0.027926453684657532, -0.16259063513119845, -0.0969074775214211, -0.016817335789048617, -0.026797649241979415, -0.06794460197574981, -0.004853194948406026, 0.11626633741057711, 0.1775534972017074, 0.06988231149111455, 0.10950604809954122, 0.007730071074809043, 0.02134047670196288, -0.023736270028416002, 0.028960091387815003, -0.0028434627012682207, -0.01636618292239894, 0.008606571956593456, -0.05409621461706479, -0.06900231263694556, -0.057953946095619914, -0.06411913165252896, -0.0036748890532816506, -0.009472831406971504, 0.00022447125938553992, -1.171722507106495e-05, 5.68895198602178e-06, 0.0007071638926978169, -0.07099051367587239, -0.12430930806763348, -0.2370201245936684, -0.2299072957900135, -0.1360311197993091, -0.30717882871434793, -0.15878480584335106, -0.00272069401237342, 0.014944923620986216, 0.08025227756356992, -0.015731227667479666, -0.08876126899611268, -0.046738869728295086, -0.04979471325421066, -0.014459713795200127, -0.002710601849558541, -0.03683295724742306, 0.0964488174794375, -0.08363128444312881, -0.12557693632910505, -0.36064967867550474, -0.06619537130773652, -0.009262803455471657, -1.332883294739136e-05, -5.033523263860726e-06, -2.1800022057005315e-06, -0.015577860992586769, 0.004999724991011965, -0.013099382034341606, -0.08874670659070501, -0.08404149714281223, -0.11411327026033768, -0.3360816433876492, -0.21814698781965558, -0.2753185348835799, -0.2620767678643934, -0.4003967371418916, -0.16969483561620843, -0.12908816746403803, -0.02761454976571575, 0.003561348259318697, -0.012658244290523034, -0.01034147391697635, -0.00143652098948559, -0.021577155124644153, 0.00867341116022649, -0.10373195589960507, -0.19092041176392388, -0.35726824069138063, -0.026444145036888862, -0.0301169612982549, -0.00013420142955581358, 0.00014844907480097665, 6.0870021857115346e-05, -0.006217347584003819, 0.024875452688786374, 0.09759328225830317, -0.04931998508599756, 0.018554896844042126, -0.0953437032753564, -0.1876596704064204, -0.18671048295485876, -0.2316485555231701, -0.33444837518594533, -0.21875174067573447, -0.2846566268845988, -0.0439883741455777, -0.12124727610171915, 0.013791294842993665, 0.05521686865576308, 0.06250192000415554, 0.006104313717469141, -0.026923961317839636, -0.06287968154433186, 0.005706221631833337, -0.34022512388927634, -0.27329616673906115, -0.015791549733434076, -0.023836994594603134, -3.236595126212119e-05, 0.00035526177051906614, -0.00011471700377658594, -6.123253959485977e-06, 0.0983074677776441, 0.14734800153904756, 0.03570668908572805, 0.029243745780607334, 0.11493979344877106, 0.0565525649656427, -0.06730459895520093, -0.016193662527634864, -0.08488345517590346, 0.0047120634431503374, -0.10833743485966801, -0.12098107666201655, -0.041632360132702946, 0.01958396594164486, -0.013417611721262062, -0.04389510466593009, 0.004734640184256158, -0.024890110382592697, -0.035227323143721775, -0.13301252849585865, -0.24978380878748918, -0.07707544439508653, 0.0005095286380411118, -3.1493327752047085e-05, -0.00022908102080219358, 0.00012581814603486262, 4.792631328395203e-05, -1.933273777798601e-05, 0.013768938980154539, 0.16335215849216342, 0.1014588384181831, 0.16105708948376907, 0.03217081214032531, -0.07316302935850053, -0.057418690480005495, 0.0651850864413678, 0.1069195031188851, -0.04600490969910175, 0.010234613584816957, -0.013302235209233211, -0.013552182442589369, -0.0068395284850411965, -0.047774258665003615, -0.08871254091680332, -0.060289619164309506, -0.10431746215358835, -0.007974554366953292, -0.07127315489120968, -0.22446160889161668, -0.00215506015441764, 4.627553795345623e-06, -9.201828477230784e-05, 9.37336380405255e-05, -1.1316223064690943e-05, -6.129466560015834e-05, 5.9745293805140825e-06, 0.06976206773047079, 0.14844104301568492, 0.12135846415087763, 0.20327097172281156, 0.027635116641234737, -0.0015324751223665977, -0.04566595536412285, -0.004937878221871402, 0.011026700484265621, -0.0663283596362706, -0.06676572503568663, -0.03434338758495139, -0.07189970007571918, -0.1259650659775296, -0.1149812034397751, -0.05084403965926388, -0.07482358759197391, -0.04813841560114842, -0.05660373654745344, -0.03803036111814793, 0.003224677892268663, 0.0375254955559925, -0.004135502710741909, 0.00016674677218530323, -0.0002131607950616031, 0.00021782891092570934, -9.190333478339482e-05, -3.074827676214692e-05, 0.11704954153484118, 0.1249044161484399, 0.19286768336164828, 0.12374041507452195, 0.046926904315732, -0.04952541473278801, 0.04256504962942263, 0.003727553146833718, -0.049824410542620476, -0.09189571506787157, 0.011586528051675846, -0.05555539113921554, -0.007929069346266238, -0.10119711866744657, 0.04195325778019807, -0.057654599960761055, -0.06523808248724011, 0.0014035174398378454, -0.004145356531691429, -0.004482452191100821, 0.054565729492234816, 0.008735487141314405, -0.03255148651735646, -0.008867458495932607, -9.520877722883656e-05, 0.00010287863220751655, -0.0002298080514416199, -3.094521567779265e-05, -1.914278887019232e-05, 0.02241022438483995, 0.1128091611238491, 0.20119198480620276, 0.10029525660051979, 0.21561127242914252, 0.10977992507520301, 0.07716520239437832, -0.010508743678260995, 0.08875184805914425, 0.013940298853723308, -0.0903468267547045, -0.07615291087489827, -0.1977447206628702, -0.0677669619323967, 0.006792805638654141, 0.04949354108272678, -0.02085557475061727, -0.004832814294710033, 0.004514407642785816, 0.00036805951693875066, 0.0005226589486906139, -0.0033770004208227224, -0.01139697563489004, 4.479866875683791e-05, 0.00014479372824464565, 4.645294062935985e-05, -0.00016506256632682647, 0.00011717165540699553, 2.9355129735362447e-06, 0.00010445083997200854, 0.0012584835609388658, 0.003435128536857061, 0.17497881250026592, 0.23404172947620833, 0.2549939374257504, 0.1338925596114624, 0.13288323074892958, 0.2632526854577954, 0.04523990549608016, -0.00023432060218998526, 0.05792246912477386, -0.019988456035496333, 0.00456052917154705, -0.04220493645653517, 0.059108395582133474, 0.07361410794064144, 0.014241239788560562, 0.019801402440384898, 0.000161090932140985, 4.8627221996468904e-05, -1.2163287273005526e-05, -3.816521291988623e-05, 0.00015427608139285815, -0.00012855559440101168, 4.1289314652465125e-06, -0.00014969821167586746, 0.0001813010116024226, -9.496126176232296e-05, 6.453779995947145e-05, 9.158618557295379e-05, -2.352262765795003e-05, 0.008704486969071692, 0.00038878258856327814, -0.0002368966962857201, 0.009337694833890917, -6.5664066894190504e-06, 0.0015557873388491723, -0.0028601970640907072, 0.0021162426495203094, 0.004238709726320703, 0.01404100370123794, 0.009397791476751129, 3.8339056729786965e-05, -8.333737987876472e-05, -3.665199499628307e-06, 0.00017294653799658375, -0.00014988313203210133, -1.506493875798754e-05, -0.00016143727042140668, 0.00010305789058793856], [3.854499422630957e-06, -7.574747654876341e-05, -0.00023715080571585584, -0.00034451144708412106, 0.00011485570883076634, 9.178704965532139e-05, -9.662718122938852e-05, -0.0001293274271752429, 0.00011733721106238474, -9.583985695947166e-05, 0.00024844656245803754, -0.00016551017476165513, -0.00018076674751727536, -5.099486596690038e-05, 0.00012946088450810648, 0.00020131318504843784, -3.1943845878657905e-05, 9.525928468143923e-05, -4.862399458510115e-06, 9.070537895019168e-05, -2.3840101519121846e-06, -3.2293872672292093e-06, -0.00014890973606312733, 3.0375485990312006e-05, 4.478725103458579e-05, -0.00029568918706283595, -0.0001292726798372706, 0.0002131633063527825, 8.955735137930332e-05, 0.00010213646412418011, -0.00010196516813377484, -9.052238072652704e-05, -0.00014230737753739004, -5.1461410554464165e-05, -0.0001375354547927173, 0.00013656942403249018, -4.641914841166669e-05, -8.186646759489381e-05, 4.517357215709039e-05, -5.4574963052905865e-05, 5.006864260031972e-05, -9.840493398125257e-05, -0.0007170243469784059, 0.010812341212538986, -0.0002253584925749282, 2.0282384607046562e-05, 0.0014425568283919338, 0.012244839323738826, -7.72576198539442e-05, 0.00011384983832605143, 0.00019471304989213996, 0.00012204505223864691, -9.537013432044932e-05, -0.0003458374091188927, 0.00014759496014725323, 0.0002312928568428105, 0.0003258889964761006, -0.00018779563345235593, -8.820403197752613e-05, -0.00033476661715896983, -0.00013149392441982077, 5.319137793637448e-05, 0.00015011741731419634, -2.6496454714675725e-05, 8.148588192929128e-05, -6.0722195647244966e-05, -2.0715863119554196e-05, 2.7702749699351776e-05, -0.0026593046847325306, -2.5294466653578303e-05, 0.0007327067201292691, 0.007990305939260194, 0.002700074627640494, 2.8178010290642277e-05, 0.004589532233115798, 0.00019198074876581987, 2.9636893768534848e-05, -9.145596435562785e-06, -0.00013610996360316694, 4.978137334506432e-05, -3.222049598970235e-05, 4.2303031560088376e-05, 4.30543543965601e-05, -0.0001065761188148671, 0.00011614241929532291, 0.00014928886604662737, 0.00020366883796112435, 0.00016072998801870426, -0.00010781061515980858, 0.00011004003355081451, 5.678103623540327e-07, 0.0013253090600838027, 0.0038762120482857825, 0.0002871339069381682, -0.05251323548152815, -0.03415587856214354, -0.011662232583183234, -0.021751747481540334, -0.0437566253452165, -0.06942164927495013, 0.0060888589448438194, 0.023217074894437098, 0.027808370326889112, 0.024579634596128164, 0.0017812594337233607, 0.01671305204495598, 0.02038717041141777, 0.00457380607104484, -0.00032568067763380244, 1.7927872067588144e-06, -0.00016766673786609403, -0.00014066289812953082, 1.7536957026402485e-05, 9.5390347598703e-05, -8.221272613799077e-05, 0.002603566061458102, 0.0027114191028278643, 0.001966986266890598, 0.001731381940075878, -0.009991342329614995, 0.0012331028899859773, -0.18076077628776907, -0.197418888722014, -0.22674946423008935, -0.26420658839067646, -0.21099409909833253, -0.09590695141784743, -0.040545399796988936, -0.022981859090365788, 0.085092298833348, 0.12362545056455748, 0.14599213572995157, 0.09807563243410543, 0.10097386928717858, 0.14965073019760838, 0.13454470312981345, 0.026915373866957283, -5.639546301403295e-05, -0.00013227715847099713, 2.7341495877419003e-05, -0.00014553088258034436, 9.821190074044947e-05, 0.00020812266358422973, -0.0003168903843862003, -0.0022181932701759322, -0.006170564232934601, -0.08625528291381879, -0.052030191557665605, -0.16823597762335607, -0.11032318050840464, -0.06334407711368367, 0.030611399360229198, -0.021384547613379986, 0.03790776330628423, 0.024285490319579238, -0.01765995990080344, 0.008057743328895042, -0.026557429240399204, 0.009790602409907633, 0.06899944307180483, 0.07280454932872274, -0.049994912333187015, -0.0918970459828882, 0.02155939607167904, 0.016059751063905392, -0.0009829934570056453, 5.560236240725557e-06, -0.00014644958250823186, -4.116275752278758e-06, -3.9069440906672014e-05, -0.007385223400029912, -0.018691239411388966, -0.04488290605137128, -0.0812164940064509, -0.043031714738705595, -0.06093241114120703, -0.0396469985619932, -0.003705377124488334, 0.11532972809267623, 0.14081130393421898, 0.09866742989298838, 0.09547379128609862, 0.0830821191216097, 0.059663034228704635, -0.030341662875706783, -0.00012681124275690773, 0.06810651698527033, -0.012022943703153849, 0.06718883941949624, 0.016361966494241598, -0.020353910395101146, -0.13618677356487735, -0.05943456715964245, -0.03472552073073286, 0.0011841475126805022, -0.00011506996025679551, -9.398910820125821e-05, 0.0001375887037162725, -0.029968038641564453, -0.07781041040395086, -0.026852910308221824, -0.17105945401915015, 0.03410917319618817, -0.06222931130241456, -0.10119908358620758, 0.04460560947858806, 0.023732860769896585, -0.011431172436917773, 0.08016654003899899, 0.027907050293024024, 0.059008514301774624, -0.0005473533846237257, 0.023314634448103, -0.05613760625828383, 0.08211050058068062, 0.04259208632615308, 0.0017731495395111332, 0.08576436670654189, -0.07869030543368527, -0.2141932565274554, -0.1066501374915484, -0.020131779676181443, 0.003051398527028766, -0.000152491508687072, -6.366511641881314e-06, 5.7031455569471724e-05, -0.03176724950472779, 0.025689973758937345, -0.0019783802320795826, 0.005862493463232138, -0.005425382857903568, 0.006016875817006666, 0.056361859625300346, -0.07135869299352102, -0.01914981100067178, -0.04225353042490286, 0.041484117152945955, 0.040268810530036475, 0.07906923575355643, 0.09510041717102877, 0.08857544688976562, 0.0298959822634542, 0.0036317878543560265, 0.03093339527407154, -0.04114714609553927, -0.0064766049358102136, -0.05250962480203979, -0.17765271311620917, -0.09279865563027025, 0.0002535780984760875, 0.0037700456486169064, -8.947459826603334e-06, -3.768490569994816e-05, -0.013387974859448249, 0.07123878740518223, 0.09692389027473114, -0.08225810709452981, -0.16401629890609093, -0.017907082754507687, -0.007158302199537718, 0.012664843760157498, 0.057530772018317244, 0.025004238325155224, -0.040835851950235244, -0.026495063142653145, 0.041463326138843855, 0.005205814234264527, 0.11160106692008272, 0.015892003020990246, 0.08557957421148331, 0.05887407797034234, -0.18123295757020286, -0.010399961388782812, -0.13309605665182683, -0.19096174454031276, -0.09616751879147085, -0.07949080221959774, -0.02291878270429107, -0.019766461075381693, -0.013916262261998732, -0.0001210500972674977, -0.012513385255208734, -0.00013269709386501204, 0.10332059861068535, -0.11555647894537593, -0.08675144156309222, -0.004735649509057074, -0.09495344023641367, -0.05539651490496388, 0.09214221361009717, 0.030582284854004927, 0.024393822753230026, -0.00584429394656839, 0.04996743473897028, -0.11441902816762095, -0.09431751082591296, -0.037462899796513655, -0.10077119987627876, -0.007673649555017238, 0.01942524805644216, 0.10007239792184106, 0.02143271332146315, -0.11223362787290438, -0.0045737782696570195, 0.06258391790457271, 0.05289484552765682, -0.013774848925285405, -1.574131969052006e-05, -9.669511789947941e-05, -0.01216039628239747, -0.005093273653812229, 0.006763751885682754, -0.03776439441818914, 0.012948029286346542, 0.000947831781644221, -0.02293691639883907, -0.009266350201834448, 0.14204535249239678, -0.01306293293866098, -0.058312783599981294, -0.12761944966670036, -0.1094496535577183, -0.00594429686890393, -0.1311746712672303, 0.03453117446734419, -0.01050169589577791, -0.013023447834794467, 0.1368967039737401, 0.12896924402390986, 0.04269667812576533, 0.010092443740876807, 0.1894391183814411, 0.22343607567321458, 0.18005784105617206, 0.05729682452942525, -5.474006721763949e-05, 0.00013505198663364514, -0.011689890620036574, -0.005223529375413413, -0.014879542264185084, 0.05001909523791343, 0.01584423162586158, 0.036777199439762584, -0.008460518301120636, -0.04169237866077415, 0.002329213450723223, 0.02638874019151269, -0.017706886161344887, -0.1389058110906963, -0.042324352927225, 0.1306770561424336, 0.03072693460991838, -0.05325940541285369, -0.07552490427684111, 0.039043962390598784, 0.052106772253050194, -0.0087459786468536, 0.029798466374934787, 0.06250085511970037, 0.07419093601863613, -0.0653382613212581, 0.036536174379507784, 8.480344399875238e-05, 5.065485515606943e-05, -0.00015690383553577055, 2.8714958798734685e-05, -0.004527680867624771, -0.006250877424911316, 0.038678624457814496, 0.0665257605795686, 0.008883154654187816, -0.002875718792669094, -0.08776499736199311, -0.08804116989641537, 0.06323200881874899, 0.009949909511717493, 0.09602067876300717, 0.11468338742851891, -0.03719593900037008, -0.0069405415878925495, 0.023864626534910255, -0.13180303310767297, -0.06728555910766255, -0.03507660434887674, -0.10992608098911179, -0.07120914067960511, -0.10285723459508561, -0.056940631169379564, -0.04941959882339633, -0.009307062700728452, -0.02310301266195494, -3.295803432638484e-05, 2.6053630419263324e-05, 0.00021201817056781396, -0.01567549394526562, 0.009714226664956773, 0.046249986555134875, -0.005724730031240052, 0.04167221471739677, 0.019790162352974257, 0.07859844780555862, 0.03307716909985317, 0.000905102225226447, 0.06884949854889705, -0.10255141839084758, 0.041507554947465004, 0.035889857368615864, -0.08225433389109223, -0.022043792701694643, -0.02230459451256253, -0.0337456363377565, -0.08972260650588373, -0.07254138022350291, -0.18217506004464615, -0.19596925476724691, -0.17049187138932725, -0.20977749200164453, -0.0040169225517476025, 0.00035368099113902983, 4.796397019156054e-05, -0.00020062235025150647, 5.260290223111806e-06, -0.008205248397996884, -0.09165760104017523, -0.006937246121599318, 0.04363701124039272, 0.029578400420501028, -0.013810242301158203, 0.12827724409945787, 0.08721097940878053, 0.11964755269354108, 0.052960942276073064, 0.1008605001146734, -0.09467058872987864, 0.03936452409088915, -0.0019231916144578295, -0.020397540646386995, -0.008848236048380434, -0.019768929751993142, -0.0626534358988909, -9.580925891939943e-05, -0.09473760999715702, -0.11516965558075086, -0.1971361175825869, -0.22361757286362408, -0.0582831464074442, 3.557446850964423e-05, 1.8162492267606344e-05, 0.0002213096450025099, 0.00014691246062295375, -2.7483092792179134e-05, -0.05773028110399775, -0.013036657703354493, 0.057635737918201584, -0.13282490152667564, -0.0071518269037449175, 0.11068197323293126, 0.08111722898357117, 0.11416558099461144, 0.058920519188216135, 0.1402202853919723, 0.13281417359517342, -0.06357563796515385, 0.014280930941883055, -0.10861724130656596, -0.05526835378947963, -0.007461399096811364, -0.06961252227003391, -0.1090961728096217, -0.014588922863974244, -0.12429150449683654, -0.13133637257366226, -0.13872438881875768, -0.23382087541324348, -0.03580163142966329, 9.25490487591587e-05, 0.00014794410984625043, 0.00020948544868604026, 1.759254468323452e-06, -0.06410299843970384, -0.177650563537451, -0.13966130008951497, -0.16919876022571503, -0.08072246824066845, 0.02362086596729778, 0.06385252020606208, 0.18895448171112061, 0.12450495637204852, 0.20604047444544876, 0.1391972382960034, 0.03549892891831694, -0.010786722918322717, -0.03890847949962413, -0.06409897141126496, -0.12458755489885547, -0.02786250121345161, 0.04059598554315918, -0.002130482712765043, -0.18518394634389665, -0.14575839633974202, -0.14229860750319498, -0.15840892820797056, -0.0009257071194707061, -4.1394747425564966e-05, 4.969949230932133e-05, 2.0388051376013072e-05, 4.955155052552388e-05, -0.05678275934950777, -0.07932047454440275, -0.1978964884563451, -0.11699624963948575, -0.16731068057808202, -0.03629046328240327, 0.0009176107130228402, 0.033479798789086315, 0.10811173289996515, 0.014372944207230587, 0.1388904902278823, 0.01900789437353248, 0.04025373660655744, -0.008331141972293189, 0.002226292908941242, 0.0064434087753294424, 0.005849702113868643, 0.051721346197842404, -0.09031078481194738, -0.06509263298361694, -0.1076285632242606, -0.15741183636772244, -0.11280200124276142, -0.0037022710034174153, -3.412844312506127e-05, -0.00014876776492140335, -2.2902564377975057e-05, -2.5095760635378477e-05, -0.06221642661588167, -0.06753830446184217, -0.16782721018875016, -0.26734981484054, -0.1819360765832861, -0.2421440469867968, -0.2142162497111167, -0.20643884112113056, -0.21108369163813004, -0.08315227693285496, -0.05472439153148866, -0.12569816320290483, -0.057760746497286304, 0.00672403294665046, 0.03144873623420834, -0.020539340389642523, 0.06189899968480776, -0.03498024160567316, 0.09081712197866289, -0.02608261302522926, -0.07270384445608091, -0.13314662509933725, -0.0433018058146023, -0.018498875282758658, -0.00023092708804784364, -0.00011643416118268339, -1.9628094686924123e-05, 1.9039178665389556e-05, -0.00038638247176485765, -0.08681037925865198, -0.19539179101365553, -0.16137232047154346, -0.09092613294883924, -0.20236078028078755, -0.3593229962571042, -0.3032254478403871, -0.41401633362164963, -0.250080258987575, -0.1375896074238471, -0.10527785166070094, -0.0994373802696844, 0.012825602705032454, -0.03441489286256971, 0.12082511190460107, 0.047925052819046444, 0.03243572319783774, 0.007483705744963537, 0.027227415776085853, -0.0026312139866915244, 0.004766448826849522, 0.06754649901246895, -0.013035653107410974, -0.000245781088113072, 4.124851974930456e-05, 0.00016122930290640716, 1.7582790615474675e-05, -0.00042639478482019567, -0.00597802274459113, -0.035046677355433584, -0.09117131498019417, -0.02179518981380612, -0.05724290024597934, -0.12630689150949964, -0.19729107352705336, -0.2695750640201087, -0.23556608084379785, -0.18677435466243675, -0.05723522038874044, -0.021005306910107612, 0.025562662153130737, 0.00623342780070131, 0.10648712404527903, 0.07195177132226363, 0.06732703804244344, 0.016322446428746588, 0.04332428399887774, -0.0064606623714975435, -0.025593396795185994, 0.0444094734167448, 1.1391441510331748e-05, -0.00015238813546603695, 0.00013627665470704477, 0.0002595332230812359, -3.074498863271492e-05, 0.03037803095795975, 0.07819857972288748, 0.008759040157179668, -0.11581548523866833, 0.07242461837190405, -0.007000689778760809, -0.11886867607234779, -0.03188280063956032, -0.013382009605591895, -0.14311211918447841, -0.06265972091293744, -0.10161907671018817, -0.014341277870831082, -0.06521291513570789, -0.0441052950905717, 0.030311122225319405, -0.008337861392618218, -0.03653301867544178, 0.037275070784717666, -0.052775028169992494, 0.017320445624876002, -0.02952258181471161, 0.03186004088256049, 1.5877993394336514e-05, -0.00010220734985712159, -9.515955227136783e-05, 4.909937832628955e-06, -3.170273098109735e-05, 0.14321096823187546, 0.09484829519341793, 0.08909469691294375, 0.09001384408187875, 0.07516311947444702, 0.12351935686740531, 0.14063933389434743, 0.1707329471940065, 0.15957213851282434, 0.10462450195493533, 0.07022375962451395, -0.02291218039977477, 0.006510590206752511, -0.09311319926601015, 0.0064362002189936865, -0.041856042813258804, 0.001615905456878599, -0.0023116525001063435, -0.009809451724138227, -0.001611697491954987, 0.007818421048128358, 0.009410291945641787, -8.647477808879909e-07, 1.1251967234722303e-05, 9.538066591606364e-05, -2.8229079687562223e-05, 0.0002144439241286387, -6.86086089342564e-05, 0.11215454559892424, 0.11979610717817249, 0.08268600923588375, 0.05754003841924254, 0.10882078186835989, 0.2656682730700627, 0.08231285729602823, 0.17392520787263047, -0.010381502316879712, 0.06915794354165448, 0.1177412146178244, 0.05657261077757663, 0.03898179688102839, 0.025937231899272988, -0.03611672416376954, 0.04065662196050843, 0.06136266637254514, 0.13957141966429493, 0.055059647459145176, 0.10165826643189843, 0.13503901694061207, -0.001709644053129464, -0.024836660302960733, -1.650614611460147e-05, 0.00014929703693032176, -0.00015295599082114995, 8.370861610130686e-05, -0.00010564325608557185, 1.231480807529234e-05, -0.023222229996404723, 0.016673245344143526, 0.17964841822523064, 0.1536465046790376, 0.1703602532204031, 0.18540886352548167, 0.12492751928660967, 0.10077957579300222, 0.0871728564098193, 0.0793046550359428, 0.06856107898248663, -0.0016079428832560005, 0.038908902714264434, 0.08086194556066258, 0.13835211574827763, 0.15657304802563668, 0.0877878039899172, 0.0779399565752746, 0.06726658071388696, 0.01610240774965604, 0.0021951180394357596, 1.866122285680109e-06, -1.8342473034354466e-05, 0.00015511351539701943, 0.00021451789519470117, -6.395423046470078e-05, 9.051044581598046e-05, -0.0003446761736351561, 8.433539689208473e-06, 0.03161850310087945, 0.07894471548875977, 0.11768691031326056, 0.1658087699639917, 0.1555832238244263, 0.13423909091853006, 0.13747501823037084, 0.21198960229214667, 0.16736104721784117, 0.17452067937541532, 0.07222152660749809, 0.1924590441744558, 0.05579560773696342, 0.035934519594541976, 0.01028056410676625, 0.16681927105658875, 0.2169116840071215, 0.025844150841152533, -3.4058289405020847e-06, -0.000124199369625665, -0.0002375066428459496, 0.00014780419835774003, -3.055365927043476e-05, 0.00011185935486203558, -4.1058418074375384e-05, 8.956970610161566e-05, -0.00011691570800628248, 4.3888255699325954e-05, 0.000334654252128975, 3.172347450217429e-05, 2.3120319190979524e-05, 0.004407598619335508, 0.022831752998281888, 0.003240561462238422, -0.006153230802067329, 0.10832119342726468, -0.0006593554902436529, 0.009174293608984857, 0.0020973647104838675, 0.00449472903248999, -0.0014139177405796178, -4.3152335345621426e-05, 1.3946400696203687e-05, -4.1831453256695346e-05, 1.7314807758068065e-05, 0.013205543949331601, 5.860614986782585e-05, -2.3577221484499816e-05, -0.0002295655521985239, 0.0003257780854365569, -0.00022929697786781494], [-0.00014881563507215253, 3.457180491844805e-05, -0.00011806623211137814, 0.0002301412633976554, -0.00023127935347264046, -0.00014804471875154153, 0.00021728545941370072, -0.00012956703115785245, -4.133483489163306e-06, -0.00011721815022452936, -0.00011643789820430315, 0.0001480704658762578, -0.000213291113379174, 7.868990347778521e-05, -0.00010721922604549851, 3.363268336240336e-05, -0.00023006455651098339, -1.916111948231937e-05, 0.00010677781421391085, -0.0001018545215633794, -0.0003448042600717493, -0.00014991037672553595, 1.326601678930869e-05, 5.164391445343418e-07, -2.6104074350187973e-05, -9.449479029772931e-05, -0.00018872777283168534, -0.0001572391089749573, -0.0001297645098325601, -0.00011736711313870011, 0.0003450411890513647, -9.544064054570116e-05, 9.283542950480309e-05, -8.329493637362671e-05, 3.354082332657057e-05, -5.665572595386271e-05, -2.8536695584542187e-05, 3.5174304253368063e-05, -2.9996187700091786e-06, 0.00010399304740921594, -2.016552944651466e-05, -0.00010873909050580389, 0.0268703676953642, 0.029209798943951627, 0.027623600704475126, 0.006262675154738123, -0.020379252201418525, -0.02277378913646566, -0.0007828954470210034, 7.350117746907729e-05, -0.00015754664978647902, 5.146796514844719e-05, 0.00017366652881791383, 9.086903257061041e-05, -0.00021171969118186605, 0.00011676086056234721, 3.525308059655467e-05, -9.06662813698883e-05, 0.00013400981211332975, 0.0002078094185446419, -4.950003948234045e-05, 0.00025768983823803917, -2.2451982214709935e-05, -5.963846548203878e-05, 1.8643733450600063e-05, 0.0037336447554133694, 0.0163699091461806, 0.0066093314913015, -0.0010629001108618935, 0.00016074058758285779, 0.0236200376643365, 0.04819331129420511, 0.042450604138704905, 0.008031765550054908, -0.013865844709103077, -0.005209679943810906, -4.1692423343198794e-05, -1.923128678795711e-05, 3.713689745518916e-06, -7.148327179059625e-05, -0.00016835406118396193, 9.449700713451469e-05, -7.540210595603861e-05, -0.00010165214176283366, -3.526176679355139e-05, -0.0001293218184619894, 5.866987259479166e-05, 9.341843902859606e-05, 0.00010502828150399183, -3.937302977834512e-05, -6.531223112852367e-05, 4.282632378857572e-06, -0.09823732928357415, -0.09290626509307388, 0.01897401210206437, 4.278415895044698e-06, -0.22504386440060448, -0.18000234600454487, -0.2533028360780227, -0.24387499313448707, -0.20072652538743166, -0.14584551775246934, -0.16838835709155298, -0.04535296739412345, -0.011260100187888257, -0.14377331072813887, -0.01955946313464758, -0.00342955822569545, 3.0373480466239625e-05, 2.196975766204681e-05, 2.417031534850742e-05, 0.00021118292810829963, -9.227620402860355e-05, 5.745683386871702e-05, 0.0003098902369513526, 1.975021353973733e-05, 3.595289951026585e-05, 0.01546608964617449, 0.013931134677188534, 0.0021764419572575153, -0.0024988641877998364, 0.05381157530756957, 0.05823061309236538, 0.00289279219538494, 0.02077464385543316, -0.07318025126787478, -0.2357183554638696, -0.26103663152388573, -0.14721933071408577, -0.22689992125481262, -0.16609189123045143, -0.0011818387850767796, 0.029973469907268527, -0.005264685946031129, -0.004000894107506974, 0.04332363814774241, -0.06607323167663776, -0.12451243472585705, -0.008029191344495817, -0.00456301021132207, 0.0001474183657593935, 0.00011607234479402834, 4.396185145742064e-05, -0.010353378326451895, 0.010189260912711466, 0.023134163546295824, 0.07602303531166033, 0.10902102829718732, 0.09524578539735097, 0.018669492025801118, 0.0542506479946924, 0.008667308922337066, 0.050196679417957406, -0.09340595079267165, -0.08151901080045301, -0.07012100527424739, -0.20988969776576386, -0.15332149922348745, -0.12265531213400024, -0.12050195075335068, -0.06820787102629913, -0.034065859629178435, 0.005242962776344744, 0.07294135039931461, -0.028002327008528036, -0.1146980965112642, -0.06201846728652445, -0.012978027473642156, -0.0001937758944499384, -9.39139130127703e-06, 0.012979627954117005, 0.016789823927082, 0.044517924818442405, 0.024940125396703604, 0.008453498168158888, 0.0076366768766878085, 0.08139853248968208, 0.06947279731367192, -0.07117552793260445, 0.003759812872207489, 0.03744565111243257, 0.027402433677355165, 0.03279325024238379, -0.09405642046608943, -0.02655721861545196, -0.017485254015580386, -0.06914564564167099, -0.009812031653770344, -0.04755006043739193, 0.045107591990941026, 0.044470210106920996, -0.04379927090440039, -0.0233117922754256, -0.1101118614710042, -0.005440761902662031, -0.02877618610711497, -0.00020952254977760443, -3.8374122868228614e-05, 0.034042277551965816, 0.06200759331424365, -0.023847668490333, -0.006006104270644775, -0.003543403083376496, -0.036101825158688476, -0.012732748968796928, 0.005354711664131806, -0.037379979604226975, 0.019742360001005214, 0.0539076848100547, -0.0737159538665979, 0.04383883828742989, -0.0767654075526544, -0.07167069149811879, 0.0358247152301809, -0.08265079315530909, 0.08924744600275092, 0.044578625199404795, 0.008053075689666369, -0.028692436234740368, 0.13431506375461943, 0.039445611207582956, -0.06158006688871984, -0.019157556548070453, -0.03008448692172333, -4.0649261796036594e-05, -7.203083353279528e-05, 0.013317567482136037, -0.01428997382817718, -0.044509633356247774, 0.00926572452214965, 0.02808573010978831, 0.025377055087961172, 0.017833797937214995, -0.007048207735509707, -0.010328742190757361, 0.10417667548831222, 0.08029197351412425, 0.03153826706219552, 0.0141141409120688, -0.18793496839536988, -0.13456913324590655, -0.009627554980306643, -0.009049950731018023, -0.10215137886957909, -0.043303037841188684, -0.020810717897311374, 0.053999333450051284, 0.024976671068710186, 0.014719169401414165, -0.08249185518915769, -0.010077837146997915, -0.017421650605999144, -0.00014824575860984486, 2.022987110717707e-05, -0.004846795935728329, -0.023013910855825, -0.023106483553336978, -0.010026481656051018, 0.0010868417211397571, 0.014732596108058335, 0.006067801998619844, -0.04562659887713255, 0.017921369177157778, -0.013793356638744736, 0.014130751524139945, -0.009784214293792502, -0.06260732112464, -0.09642614311452956, -0.03225876202433869, -0.07097920896905378, -0.014096797495363965, -0.03171745419794701, -0.10155247853571772, 0.05104174691826328, 0.0035855034795070177, -0.018166777679297107, -0.1417957884164792, -0.058012216420256536, -0.015015291880292462, 0.025981338897260117, -8.164720175688912e-05, 2.3630690036229764e-05, 0.0005735953212490494, -0.05487901735290737, 0.0073005326254906916, -0.0044977598924452866, 0.05501578060267295, -0.06667965392062869, -0.02092632382131435, -0.09683484738726315, 0.028851219005741023, 0.029243715557120832, 0.019527463764564542, 0.05553276373926937, -0.010413065663413379, 0.03119042784344999, 0.02993128027676706, -0.02209472879913008, -0.034369664123546036, -0.04520659244469899, -0.1071489791051544, -0.09327554478501207, -0.04449652139747782, -0.06323438453345873, -0.025553076233436497, -0.015142144770109372, -0.010196545660922582, -2.9119749676170114e-05, -0.0002140057960466781, 0.00010739338185057731, -0.0023937126151777222, -0.0006513540106805827, -0.008020305311845614, 0.06371413750294248, -0.0013318026093480633, -0.07282614487293972, 0.11506266348058582, 0.015140487005110469, -0.018240905407729928, 0.047076937423113016, 0.09454549675570323, 0.009160416315174995, 0.055956105927762845, 0.0643478838904692, 0.05175551320617868, 0.03410425141266915, 0.10233559564994046, 0.1087184286149165, -0.051039390211235956, 0.025004111173045313, -0.1416886502572881, -0.19216352769323491, -0.05798001952760051, -0.053450065463316605, -0.09549951892497367, 1.211403130028681e-05, -0.00012981965109510704, 3.4369264083816104e-05, -0.0014392968722961147, -0.00023070036459382, -0.0292247139185352, -0.05780480841869748, -0.03265829788325728, 0.10558337609764212, 0.07541153635431545, 0.0426169926094129, -0.030321435442072196, 0.013326963743076566, 0.09159872205930684, 0.041478148673812616, 0.03759607804174548, 0.256865476469361, 0.07756802829183984, -0.06513392732920696, 0.07487054393089877, 0.019018599687442524, 0.020189226232380692, 0.010733703978437039, -0.1755114493435522, -0.1981552522638466, -0.01377317068074832, 0.006492104232073271, -0.03865367980199149, 0.012832024102287882, -2.6204004796056613e-05, -6.5206290619919215e-06, -0.0034221939661533197, 0.0029255642238189584, 0.03232832534293357, -0.08042435188278894, 0.007979152261898069, 0.11722246147513946, 0.03684127040190903, 0.06192177852358425, 0.052379925947987196, 0.05683992966620096, 0.07519781268970083, 0.10035848107107959, 0.16732446331752265, 0.08679003219103107, 0.15622577532189436, 0.14217842057654903, 0.21739853919569624, -0.007877450687010434, 0.05195966139683172, -0.046766113494119486, -0.07590960009651192, 0.0220423875170173, -0.05807902924983579, -0.08799786490821747, -0.14942267591832004, -3.398823885071656e-05, 0.00021641204775928348, 8.750053053636545e-05, -0.0023079300618060214, -0.010351590296510066, 0.0014654235690508522, -0.021703279054849815, -0.06434124166368697, -0.0016896188081699064, -0.012657222126904944, 0.036726778484622566, 0.004135121045420407, -0.0790814385667139, 0.016892103771103166, 0.1267441377265814, 0.07449468734912905, 0.14040586648288045, 0.18552186553762698, 0.21737506061294376, 0.16326056007941042, 0.12476934378485263, -0.060099508613654595, -0.06602689240021133, -0.10748283968801005, -0.031751992433351514, -0.10520899731094455, -0.009890089388022398, -0.05430487167994787, -4.347647058957805e-05, -6.957559128513546e-05, -5.302802134915634e-05, -2.2350521665598595e-05, 0.0018639122954758637, 0.004665659574162037, -0.05914240981779382, -0.09637883526304221, -0.01925486651591971, 0.03574404906955295, 0.01702580272342712, -0.05207195286589799, 0.015192778602480873, 0.08031058579429391, 0.022743719603463396, 0.12065213097861834, 0.18917422963048316, 0.15973303417036802, 0.1992821195313156, 0.07281087719102589, -0.04557479016384545, -0.09338609765083093, -0.011401736243355151, 0.05562379081292876, 0.027065517616603595, -0.027723991325612173, -0.015752297026311885, 0.013530487344889687, -8.813390322607616e-05, -0.00016418603548583343, -9.182995962614784e-05, 1.4060203442290355e-05, 0.00030493689310783444, -0.011215522031714002, 0.00786451939531449, -0.03320782988528994, -0.034835026488577156, 0.016733177707230817, 0.032252761466130916, 0.04073161907055816, 0.10692398173035521, 0.05593782464666622, 0.048407029993866695, 0.16390474635937752, 0.07284424281097461, 0.16002553572135908, 0.1342429610214915, -0.028609708975042968, -0.10130873878956702, -0.14069358449879427, -0.11981923789029472, -0.01806379317071115, 0.0012767418277286591, -0.11025900826025403, -0.17643330338628108, -0.13334560430361808, -0.00013266840201523085, -5.2995516308473206e-05, 2.9814208004842154e-05, -1.2271008715153136e-06, -0.06997122231157052, -0.05737784883034751, -0.1498574564446944, -0.0552472708396783, -0.10279100058858034, -0.11439799674043509, -0.12473918357049756, -0.07350690298938307, -0.11768594228637001, -0.007214081617053591, 0.050245251440090934, 0.10203497588620113, 0.006962800792899456, 0.014157471099255161, -0.06275105824286677, -0.2211995905403392, -0.17040992185419648, -0.032367394321282286, -0.0189540961718318, -0.04986443998564927, -0.0564422830866146, -0.015033776121524935, -0.011734118234919502, -0.004110373270677051, -7.791273104198988e-05, 7.67070631529662e-05, 2.7576264264528187e-05, 3.772760526634796e-05, 0.0015339407640242897, -0.07447785796792443, -0.07713059131423451, -0.06427055538538573, -0.11553256744236505, 0.0292085100841131, -0.10651705924103641, -0.1545509108818892, -0.0914983932363117, -0.031539871996000404, -0.016061915658396944, -0.071798494413, -0.052056371328164354, -0.15192177584420272, -0.2395009228789817, -0.2764669644923989, -0.2726313044352814, -0.21821849908614044, -0.10256151879402194, -0.203724145910715, -0.17994626600436456, -0.031523612727922964, -0.004774929781786513, 9.735181889386095e-05, 3.2086709577935395e-05, -0.00023638015223461658, -1.6744885129557042e-05, -1.5165210248423577e-05, -0.0136829568491325, -0.16862061818927063, -0.07553451537132876, -0.0780373405264001, 0.020484561829734, -0.052571795653318265, -0.10206983699021084, -0.1378738084527888, -0.05785400287587812, -0.11225546560742868, -0.07222969745429128, -0.08676429316336291, -0.032162458845471205, -0.17688177177219294, -0.13867872870122783, -0.13571255355712025, -0.14224285127623, -0.3073709234061432, -0.15940998883703944, -0.2117528886573138, -0.1840488714005149, -0.09151863767175171, -0.05298945660602334, -0.0013404850119288843, 0.00010990496989524127, -9.040925851299783e-05, -0.00013732994811720348, -0.011250331432452122, -0.13121219101852408, -0.08376176921987664, -0.16798637404562702, -0.07231611878636364, -0.016386324895167066, -0.06006581960307727, -0.07171441119699407, -0.09158198433567975, -0.11570561767113843, -0.1160373011891294, -0.08678600464179392, -0.13906981270187554, -0.07644104432812504, -0.02370580881537163, -0.05289124622042614, -0.03962563424594414, -0.2521711781468088, -0.2734444326012313, -0.10261918536237252, 0.014612746280221581, -0.22691423852009912, -0.04150300695973734, 0.0012283124918708477, -0.00032714332931922966, -0.0002228633639698396, 0.00025390591435637194, -0.00011240930871645854, -0.01431764335902884, -0.07957743456423047, -0.1794864350271393, -0.055487119400169926, -0.12456945080687977, 0.012646009254309996, 0.001239783329458955, 0.039019474203788575, 0.07409202143748461, -0.05182177443873877, -0.1321452354038588, -0.13916795028415366, -0.20943443854193383, -0.07807190657275402, -0.10487652627921361, 0.054524033149077625, -0.012383375789534606, -0.10517874128629026, -0.07525052679695379, -0.15710888855317356, -0.14374330005609895, -0.2102658910689521, -0.13638821394048065, -0.0009375140696165174, 1.8268080724617016e-05, -0.00021505160934124333, -9.41677347402807e-05, -0.00010012750914425373, 0.00013773027035859188, -1.647028121175281e-05, 0.010653870816958866, 0.013801072400070403, 0.008626153502587632, -0.0024106316252393125, 0.00820701561055709, 0.027632432900331266, -0.05477106331870097, -0.12267984977866653, -0.15186066291676886, -0.17693744978273956, -0.138006898744001, -0.061731051852634486, -0.010715220616960917, 0.023660877233751976, 0.07068176399974205, 0.017649834699075936, -0.0034602237398161095, -0.047694024495277446, -0.09985491010975382, -0.12895594415801415, -0.1209874650900114, -1.0909720500720087e-05, -0.00014110494985471026, -3.3217279892416356e-05, -3.0337635563353646e-05, 9.588879825054574e-05, -0.02658613497782206, -0.03940246474618999, -0.054934983135899854, -0.039815419621623216, 0.01662457879746955, 0.12158553630779931, 0.09345507988121504, -0.011389638022044318, 0.005979225488663989, -0.10671178659056396, -0.12380639728267351, -0.06867706995073415, -0.041271433099366366, -0.12123142922075017, -0.08300684006319481, 0.06576558294353455, 0.12436179910727498, 0.044061934225961115, 0.10180617060821022, 0.011789641999627886, -0.004962507158726238, 0.0017675312524530061, -0.05524049702433143, 1.768246710896478e-05, -0.000152624621832411, -0.00020970996475905886, -0.00020972778161748102, -0.00015708138875447387, -0.006195611076229938, -0.03271344530306502, 0.04922421294659263, 0.024732999544377007, 0.06545931303159305, 0.1660518903878371, 0.0384189873128872, -0.03903321323262909, -0.03889672358321347, -0.050693448444584524, -0.1536245084866665, -0.044340467390174984, -0.0807175449356918, -0.1648189582844672, -0.04927015622485401, -0.04296429337698328, 0.08005662849456283, 0.07929567464153342, 0.04057723899629116, 0.11972049072450822, 0.029158728807819667, 0.05355297804333477, -0.0036987387537432046, 4.170302598002437e-06, -8.892981184814823e-06, 0.00012968237865377023, 0.0001296010827902657, 0.00016751136697620384, -0.00012012700273461195, -2.102775920030122e-05, 0.0745385780667317, 0.08538377212347088, 0.05822062204836569, 0.09971931919487687, 0.010008309364148229, -0.11433472917885953, -0.004667180134006963, -0.06618873464886205, -0.14750982661464745, -0.08078071540395813, -0.13303823204214038, -0.0938234405934938, -0.028888186242546812, -0.1939089412358154, -0.05542273268039988, -0.019069710693757683, 0.001479111563248366, -0.016427605787054655, 0.011099514182646422, -0.0006000259185061965, 0.00014340185373477453, 2.6433735092593915e-06, -4.424241145395563e-06, -0.00011698420206527507, 0.00012919118706049163, 9.088984275163243e-05, -0.0003457569237027457, -0.00018896861554767254, -5.454588421501702e-07, 0.032619666102834476, 0.1358991076403305, 0.12977710326464406, 0.021165506588084953, 0.0619081455951871, 0.13894061812829525, 0.018293954030470697, -0.010380080318415186, -0.005254827743172742, -0.01914106587104988, -0.1317245259278639, -0.07020884060291861, 0.004130754900301627, -0.05191682506348149, 0.00862433978140948, -0.011218669438919382, -0.02784925821801265, -0.007029836132959532, -0.0002163124992079855, 0.00022241614560019484, 3.286767166013274e-05, -9.996420659009753e-05, -0.00015706140266961736, 3.5222828973483156e-05, 0.00014214108341739423, 0.0002215853878607617, 0.0001150099922421501, -6.574111312381426e-06, -5.909591653591528e-05, -8.14721392117879e-05, -8.792786076665011e-05, 3.1886143123182274e-07, -0.02086899087357136, -0.022015510689847608, -0.0025489660213527444, -0.03179355806469082, -0.02196641681637166, 0.0012475122202720806, 0.019418550716738748, 0.025387262150696168, 0.01719517238582431, 0.021835529492497636, 0.014793040196433918, 5.123816887395011e-05, 8.919205497032636e-05, 1.4323645109711545e-05, -2.8204751645471968e-05, -0.00014912592877920226, 9.624657706686367e-05, 0.00022812978643354593, 2.1815005980560374e-05], [-0.00017114619852393932, -4.6495375069242084e-05, -4.491745461437043e-05, -7.914078604932018e-05, -0.00013104816236773269, 0.00023257656752300574, 0.00022939835753737987, -5.005831716100299e-06, 9.57616886471741e-05, -0.00023395791924869523, -0.00034482308683897483, 3.4995672160977776e-05, 2.131132253412106e-05, -5.4424929475883006e-05, -4.3630402771906214e-05, -0.0002285741350100914, 0.0003442734731242052, -0.000233177576225385, -2.947820290018647e-05, 6.058621911829898e-07, 0.00021433775352939892, -3.939689030719735e-05, 0.00012971506807645964, -5.291000015628366e-05, -0.0003447250652661195, 2.9967146113744984e-05, 0.00010224862297845234, 9.04933382492506e-05, 3.676282377883093e-05, -9.518689752352682e-05, -0.0002546628995127848, -0.00011226308535291626, 0.0002530972200214213, -0.0001840032351422053, 2.8954298335305188e-05, 5.664059842031787e-06, -2.370937291482082e-05, 3.8973933273606665e-05, 5.5549001537978356e-05, 7.570748666297268e-06, -3.525083363831428e-05, 0.00023498447037664354, 7.038763009615306e-05, -8.351064045983545e-05, 7.877260303228267e-06, -8.076355709776276e-06, 0.0001641605292163875, 1.4301444597318878e-05, 0.00011469034278884404, -0.00015594515965384217, 2.906012351293024e-05, 9.098367172344146e-05, -0.00016541845796074847, 3.0862113843076205e-05, 0.00010286983248722055, -0.00023724509218699206, 0.0003420720630368144, 0.0001498428655239223, -2.938802277763943e-05, 3.1531305535317295e-05, 7.98075392766875e-06, -0.00011748188071182704, 8.448042812215206e-05, -1.808046875596523e-05, 2.7625296690584065e-06, 6.612788379268895e-06, -2.405654119658171e-05, 0.017295492304743296, 0.004112018915106194, -0.02306185930171682, 0.00948589876307632, 0.012846014119064726, 0.0001510865484740329, 0.023383807310946143, 2.469709160791047e-05, -0.00015803370560713343, -0.011997004055979872, 1.2840855000962329e-05, -2.3276423273578807e-05, 0.0001806197647318298, -3.760749468401545e-05, -0.00019804441232614887, 0.00010307492874082506, 0.00034549242318724336, 0.00014998558772909187, -0.0001007410403988427, 2.481608123559765e-05, -0.00023242117466951777, -0.00014181303481851487, -2.2329588569502437e-05, -1.295615039707606e-05, 0.00272025379394765, 0.050112402724361266, 0.006376964430702795, 0.03411326562523923, 0.13639641002348005, 0.04222217592530769, 0.20519558327229107, 0.14653558929331018, -0.02042124305627602, -0.03824683439742157, -0.03730160380897102, -0.0035921456510423473, -0.008529434542585042, -0.011685557571288738, -0.00901260194482193, -0.0013687543367174424, 2.941528590564182e-05, -2.710597151728757e-06, 4.860660537481671e-05, -5.930528245146139e-05, 3.45698094484603e-05, -4.348545373876685e-05, -0.00018973016206655686, -4.6600880164221394e-05, 0.0022901381036745435, 0.002619577868550852, -0.012556894941588305, -0.0018116907592378112, 0.00021541183962343134, 0.025658474968239992, -0.007847535224085064, 0.09969567839287859, 0.07218800806605813, 0.06970279418645026, 0.038707797628588225, 0.006587805083546961, -0.0361317588381172, -0.12612673124103316, -0.021656022464475753, -0.1153134911932171, -0.10390948529759733, -0.1087819690511088, -0.08560793312282414, 0.0010019090434633198, 0.0007714609595307843, 0.0009779196147299803, -2.6613995052216955e-05, -1.1878951633179146e-05, -0.0004320385909970144, 1.7325907791497465e-05, -0.0001171098441437849, -0.0002079555220384214, 3.7639726013476426e-06, 0.01005476192985405, -0.00024854814720869176, -0.0074090326367982585, -0.039657638448944134, -0.0902822663510956, -0.040260875706075956, 0.016757515527358307, 0.11624193250326266, 0.14756812259689817, 0.1676049176267608, 0.05748194817525879, 0.0019497757072491552, -0.11501364701390229, -0.024651386106471242, -0.058673490512447586, -0.16472056098718393, -0.19366899225348677, -0.10381370875727129, -0.14922887435992288, -0.012816301066458917, -0.0006583605424452328, -7.849609853652853e-05, -1.1924978325684993e-05, -0.0002994535229125324, -0.00011763671965756894, -0.0001061567616721897, 0.012318393012027471, 0.013780653419900236, 0.04988479133039965, -0.05321938800760442, -0.015858183183157383, -0.07269179484843279, -0.02749026795983392, 0.030129864637179985, 0.07280467339696525, 0.10482625249947951, 0.08060417379700986, 0.09008318817051815, 0.11723799712479561, 0.028650690235473814, -0.012766342127353243, -0.06596911315970165, -0.15601809434420666, -0.23363937775607774, -0.17833278530518226, -0.19889114348221554, -0.23096106444658024, -0.1069565981337728, -0.009621100315069167, -0.00033404462223494253, -1.4457871724328885e-05, 8.062929476829609e-05, -0.00011106005712208423, 0.0001227391831953621, -0.009616925464355806, -0.01821822841209602, 0.007566306813506138, 0.03130476962188771, -0.07241852603587916, -0.04895801305285846, -0.026651773532842454, 0.10533892816116754, -0.020840458594125474, -0.041733608598747876, 0.07343141693797217, 0.09027374486632944, 0.009009667388112399, 0.048083133176086645, 0.025380909915482697, -0.031902302208344946, -0.007018788959465359, -0.16640781354462725, -0.21230271500811168, -0.2319809818577404, -0.26750161799517425, -0.23978801156401616, -0.12919510480079338, -0.0002489013449850653, 0.0001787576041577428, -9.565543866753552e-05, 5.4256308404979415e-05, 2.078492426474425e-05, 0.005597137660807759, 0.01390019853034772, 0.010339695497226981, 0.0006193611942920859, -0.056902385363721705, -0.024347831395864897, -0.08108597290106406, 0.06159939475855482, 0.11096230434164547, 0.010071182436922533, -0.017869634634378156, 0.04047565223429453, 0.019028846811889103, 0.009161942212256975, 0.06068076888877395, 0.05974816103819997, -0.025519557830828748, -0.07622103405830416, -0.07973098304550924, -0.14283895587925832, -0.22235687580713634, -0.23287877671251256, -0.13115697377598812, -0.00010106224894417464, -0.00014816454231587434, -2.1411481357358197e-05, 1.4838745772610288e-05, 0.0002911246915650197, 0.01274159730370023, 0.030325965566998302, -0.02144754365539274, -0.05122067164674288, -0.01247874113353713, 0.062460978783732336, -0.024364078914527774, 0.06302466757814221, 0.02846430587909676, -0.1248920708916204, -0.1124311592261707, -0.031454055335290255, -0.016847656551374393, 0.03521433501366982, 0.08841829728505839, 0.2301318506715444, 0.25492099870836055, 0.056661586557258635, 0.019500426154109643, -0.03939634228428591, -0.2149927029424169, -0.2505903703271346, -0.15473415151944445, -0.037596777272144215, 8.420564703202423e-06, 3.75282391669568e-05, -8.299150906198239e-05, -0.0061388750810223375, 0.00041567393976264924, 0.1138637950987727, -0.003730494402357727, 0.0013651997501283029, 0.034644762436130135, 0.008874346034694166, 0.066254900776366, -0.09450389288448942, -0.11067014160047806, -0.11584695558719431, -0.20426688166629195, -0.1385081287077881, 0.011256034440347326, 0.014997296310388424, 0.12271190546604208, 0.15523362805742788, 0.20252776692913835, 0.02015877168112254, 0.015139440244703914, 0.045310406748839294, -0.10227535092112325, -0.1943575495339096, -0.24297121065412555, -0.009572306151908398, -0.000576168210725008, 0.00021562037372451555, -0.00016009225795257892, -0.01037871918574404, -0.061182025921696116, 0.00387863296072602, -0.03144675383515458, 0.0032601355865834623, -0.006247118415421835, -0.053728894359852404, 0.0008535064599233876, -0.03407633393546715, -0.13358361559592372, -0.15833651434936566, -0.048799684782593826, 0.07893774877702188, -0.008644866018909186, 0.07939319399168943, 0.07815081193599203, 0.17674916554929399, 0.10827222837739865, -0.0696803305430047, 0.12967418553990864, 0.09994796955197291, -0.011380938035125418, -0.2737856026938011, -0.2574721872423707, -0.13613926309152558, -0.00017514573892639425, 2.8063657959172516e-05, 0.0003423834037825352, -0.004147930481696796, -0.025600495350543772, -0.0053224840446987175, -0.03442290272395911, 0.03229369906971682, 0.016995017587087786, -0.06984549376052433, -0.13862816631260913, -0.09522023235787286, -0.038515457052002586, -0.09134908623546187, -0.02936832759394722, -0.013044678742963148, -0.056823008080548805, 0.08812462746717406, 0.11373910072157209, -0.020062562771420267, -0.04150878140028479, -0.0676387562035645, -0.004517239610748245, 0.034343464511792154, -0.036948815882042775, -0.07353353894171413, -0.1120619749064404, -0.07400447695129746, -2.1327855834833267e-05, -2.0741246428031203e-05, 0.00011489065696222062, 1.7897004660411903e-05, -0.006643526085810355, -0.07690607121616506, -0.031862983048339885, 9.469354189233393e-06, 0.008519911410050587, 0.05877866906671973, -0.06851946381510893, -0.06200716068822624, -0.08802410515059332, -0.02022448405872301, -0.03768919401583079, 0.04560041894334955, -0.06299268601978177, -0.008366754369415088, 0.051463555554457925, 0.010908326036688806, -0.040104146550828876, 0.01489849565399295, 0.013920883917237914, 0.030389675468100934, 0.012285968255647692, -0.10614997001494651, -0.1126158507606771, -0.10242537889766905, 4.835315131849269e-06, 5.876081299605783e-05, 0.00023349246671650612, 2.7029248268788308e-05, -0.005182255451550984, -0.0366768910999777, -0.006855637226357793, -0.0023322193027839394, -0.017005557694343035, 0.052399670387174246, -0.12018064568158796, -0.032838214467121575, -0.0417717567050721, -0.012537550783395772, 0.02949028309604403, -0.01922753425803743, -0.06911877058737563, 0.05924539474908899, -0.053482388275872816, -0.004253899726421261, 0.028265456682444724, -0.018847690728377987, -0.07510281218777277, -0.020117854685783223, 0.054758546604858634, -0.10228896970312702, -0.12064271029081537, -0.128685180833118, 4.147980767926845e-06, 0.00011654364471925479, 1.1177677000104012e-05, 3.3529670825309767e-06, 3.243421113788133e-05, -0.02698061478581296, 0.03595564075943565, 0.02183184548843061, -0.044984404890982765, -0.07320281122194795, -0.06291783351282111, -0.1413863900664348, 0.02383480892093859, -0.0013998692853463665, 0.05879145797438515, -0.07322000543563591, 0.0026286208060567525, 0.028076287901149657, -0.005893230770720237, 0.05881392375275636, 0.0179196300439294, 0.04620351616893163, 0.02885769873762234, 0.07129491194221659, -0.035178042438199705, -0.05153643461263209, -0.06993404479094933, -0.00021156295638424132, -8.98383931731073e-06, -0.00013990576884450738, -6.0350634928918595e-05, 0.00014513518374249736, -3.5215814033925446e-05, 0.02992348367736833, 0.012714795442795072, -0.031100469331282896, -0.07284603933833488, -0.03333568897911518, -0.05775325951990148, 0.012557509178442668, 0.0414914085633426, 0.16877923516129775, 0.042604265016717574, 0.060146488208969014, -0.02868155221399749, -0.1322159203499888, -0.033757501015625434, 0.016809998010645075, 0.02267211014084674, 0.07679917374626473, 0.04964120287068368, 0.03137930276420807, 0.07778441439333915, -0.09532581725494496, -0.11928931931124033, -0.0992336957961772, -1.043092697050393e-05, 7.48047821834382e-06, 0.00012977368227386942, -0.00021780182524702086, -3.479567099290812e-05, 0.06452086771443569, 0.021625850394306822, 0.01155802793151578, -0.10161780363775252, -0.0398603750237285, -0.08371115293969561, -0.0024131885473467995, -0.06762415662140475, 0.06010571609774566, 0.12467591536103034, -0.037916912987493334, -0.20117791961052628, -0.1386487908571537, -0.03405441844848285, 0.0747900412585315, 0.020968603582454795, 0.01197158528640024, 0.012050961390341237, -0.00692488612385567, -0.0220800923118989, -0.07045382908063565, -0.15088868805148078, -0.15739425116047057, 1.8735457770551625e-06, 4.7577539083710975e-05, 0.00015150323608166086, -0.00018176474743530327, -7.621239662007132e-06, 0.0663653732577552, 0.03246199446572213, -0.01678253688485512, -0.027136620323213706, -0.03176517032004571, -0.09765746912205814, -0.12145324685129899, 0.055978525079376305, 0.1585263987440826, 0.010950576645137837, -0.18431004138914853, -0.21337076215402606, -0.05093023650154983, 0.0023528737534584203, 0.08012016835945765, 0.173536841703988, 0.15155197778737287, -0.015514294967199544, 0.028864270136854095, -0.01694898026537085, -0.1809116804364243, -0.22866640598128266, -0.026512136834123578, -0.003996050202921728, -0.02067845557345022, -0.00023139732817358476, 5.085753753441972e-05, 1.3235434674301921e-05, 0.11353681500818762, 0.09778807026717798, 0.04158634533793493, -0.04579997247555202, 0.033161440565897204, 0.016902219887495608, 0.0014493075648406564, -0.059439284926197, 0.04479004592041418, -0.044392970272527685, -0.15538069931053325, -0.10495275274539159, 0.004034146401152111, 0.03353003527137145, 0.05163025688910318, 0.1939468242496194, 0.09498391594832668, 0.07545182758060458, 0.013838457358437656, -0.0003561003159382073, -0.15646830948118948, -0.20760805950695846, -0.014478526925599453, -0.012532736123470592, -0.007064322944981274, 0.0001790473398903949, -4.602221300052686e-05, -1.3713527234001052e-05, 0.04925358442702929, 0.1323303520987425, 0.03760167060661016, -0.030692764341909196, 0.009566878557598434, -0.0798204592975225, -0.19588052743766537, -0.1463261153958225, -0.00473940017099501, -0.10372930827663926, -0.12508812603785702, -0.04589070411728897, -0.001798271555045256, -0.007735231920776377, -0.011681968293460774, 0.023331575085247937, -0.015280474790849942, 0.0654444394169401, 0.08555689927538433, -0.10883422513974586, -0.12803313672450206, -0.1409823810178718, -0.0022029080111369698, -0.0005777716460215936, -0.0002966317139298908, -0.00023566879199546218, -5.757099098235207e-05, -4.372168306642727e-05, 0.09219471712400121, 0.10392036391689664, 0.0930577546762923, 0.028929918239070186, -0.02606472145595292, -0.044119706537647005, -0.10838431780335323, -0.009488972880724684, 0.00038912530096354704, -0.011476958537751486, -0.007593777067922325, -0.03090266586468561, 0.022178336732305414, 0.08447414722111335, -0.023051710480478896, 0.019072535734404067, 0.07177064605832782, 0.12273674251088339, 0.017532200076243093, -0.03742082119199752, -0.1134976264996072, -0.22337432901460896, 0.0024028326365500025, -7.610569439160791e-05, -1.2320844156695789e-05, -9.113116179108489e-05, 0.0001400630230747994, -5.4036232589471347e-05, -5.538829440363405e-05, 0.07778369791650423, 0.07278572215421948, 0.039580332853762036, 0.002039283279639899, -0.045187304055663444, -0.16043665475289282, -0.1376502608203775, -0.07316266836462047, 0.026331744113057668, 0.033359242073837794, 0.03509534298290549, 0.023812792550295087, -0.022146825806353732, 0.04679993403732855, 0.007122150922952875, 0.024638405176774056, -0.06344008388313319, -0.027622596731260912, 0.006803477729996096, -0.06681816723583564, 0.00178736811577831, 0.011631497915352416, 0.0005217861048339282, -0.00022466502274052155, 0.00023180691879213922, -0.00028305630036084883, -8.40901942070199e-05, 5.621919492815817e-06, 0.06696317525358374, 0.08694746531738216, -0.0003973313380601497, 0.021622485642379573, -0.0018178115884886228, -0.09138750488259326, 0.011322722525881302, 0.005652280158962567, -0.016885763183842797, 0.03689418559282674, 0.0011752571008038708, 0.00014828123491752396, -0.0012952933008578966, -0.048151243514092654, 0.04829015928210365, -0.07367200648883822, 0.023308103098330094, 0.046293750167794745, -0.011330919214792705, 0.0038727993889880056, 0.013940936218440355, 0.0026341914604075816, -0.00021193556023836244, 0.00012839018642973768, 2.513545389111455e-05, -0.0002650209459991987, -2.927962176143163e-05, 0.0002554746702683235, -0.0016946324337204128, 0.13803973519685667, 0.06865117762541295, 0.10974684859607818, 0.02093789060833374, 0.014172774371823097, 0.08561793322224628, 0.06194450636476132, -0.011203527995387107, 0.06037938048769693, 0.02635217290133258, 0.023208135561090658, 0.039945166682275296, 0.05383333140483114, -0.03294853496115408, -0.06426658961966955, 0.034520890426486664, -0.07636288604276081, 0.008596363680276947, 0.003907183689176621, 0.00664406965712706, -1.4462927521681894e-06, 6.197105159617886e-05, -0.00014314879837190763, -0.0003442506236277207, -3.3713200588842256e-05, 0.00019415133009385784, -3.7908767767474526e-05, 1.3139928832064272e-06, 0.07079887031056148, 0.08514026808154652, 0.05753634753013114, 0.055507332061010134, 0.03123287080071924, 0.1875362335998013, 0.017849570813587373, -0.0762776163771071, 0.015202101649871402, 0.028087125172386002, -0.11528498009822179, -0.07253182294648494, -0.05311600817427849, -0.017823238117636656, -0.02796415483806212, 0.012413655757455367, 0.006234615986557078, 0.0023730477887740817, 0.0006889415147995579, 9.771947993093773e-06, 5.16828590671973e-05, 4.084832285692839e-05, -9.0543401783483e-05, -0.0003446000789721323, -0.00019930555227866187, -0.0001913461840728059, 0.00020964504455507957, -2.211197254304163e-05, 0.006587834225878153, 0.004836127798750711, -0.0024307368475369093, 0.003176133859065003, 0.013759816944307866, 0.00989139439275734, 0.05941256206595887, 0.041186006092870334, 0.0488557852645406, 0.0062448632107027545, -0.12432126050623532, 0.007834153670908717, 0.04730366686941429, 0.05216739804141945, -0.049877764501741695, 0.0055886263380188345, 0.01672676727886184, -0.00020797299951408687, -2.2106050981969143e-05, 0.00021065568332783558, 0.00021536340858491692, -9.09124025400409e-05, 9.583923321542857e-05, 0.00016886156770595177, -0.00012922884249793844, 0.00011705608335094061, 2.9989010755029463e-05, -7.484104711705689e-05, 0.0002335954979068768, -0.0001552315425134003, -2.7457488921419997e-07, -1.2423213796867952e-05, 9.745926006894754e-06, 2.983422285121655e-05, -0.009613965340117228, -0.005565146944420239, 0.003975117987881828, -0.0019280590028923185, -0.001965328212132292, 0.0008549091293810374, -0.0035683099890159997, 8.159682811453443e-06, 1.4173159810148765e-05, 2.067226949107521e-05, 4.9270591250116365e-05, 4.2289156691010916e-05, 0.00010858573540382228, -0.00015708984677679453, 4.847588850979522e-06, -0.00012848871815899723, -0.00019613294523263125], [0.00014896240835750226, 9.875086037749897e-05, 1.0066616911535482e-05, 0.00012290826896558269, -0.00018708147152381096, -0.0002095151716380826, 9.092715514540154e-05, 6.107093778925814e-05, -9.844276263841354e-05, 0.00012863682457497867, -0.00014823191517858875, 4.928920547654642e-06, 0.00010249050885695825, -0.00013325486614793156, -0.00023182852449960578, 0.00011375211001745007, 0.0002162578202134072, -9.580718931605345e-05, 0.00022473949139411665, 5.2271938734417146e-05, 0.0003448592885073653, 9.549881121130028e-05, -3.831542037328485e-05, -9.568369503079461e-05, -0.00027646712966489923, -0.0001028957761586432, 0.00018855246213121348, 3.058718670654314e-05, 0.00011777433663529997, 0.00014879830952504297, 0.00024424400443195054, 0.00019314451155773787, 0.00022025132859496605, 0.00017344230097269322, 3.7609993177469565e-05, 0.00012817744243034032, 2.786417323064069e-06, 1.864291470837472e-05, 3.1768960489004546e-06, 1.6458280094259476e-05, -4.125917092917178e-05, 7.0433235378732945e-06, 0.00533079719881944, 0.005900478066535451, 6.260830238175776e-05, -0.001328905136240525, -5.004574880394382e-06, 6.920951185625146e-05, 1.7600756015544534e-05, -2.1341451131745863e-06, -7.017146413573704e-05, -3.691754216359265e-05, -0.00011279824211590057, 0.00014914369005384506, 0.00021444623485008922, 0.00010063906412495656, -0.0003218518864305488, -0.000248433123465081, -0.00021891013988725982, -0.00015024674012840397, 6.229022131520564e-05, -9.403313681558033e-05, -3.7073952146203186e-05, 0.00019088884670733834, -6.829803628572677e-05, -0.015691063204112208, -0.02225779742495847, -0.03788985548446795, -0.011257323435370104, 0.06415015700947353, -0.008299416178218508, 0.01947127516119807, 0.1472413712372952, 0.01820405325281168, -2.050457044156356e-05, 0.00011321009960469713, 1.4836959444001608e-05, -1.3371137760313683e-05, -1.686228848550533e-05, -1.0365340951716221e-05, -1.8685876175605974e-05, -9.118285740654163e-06, -0.00014917435889238043, 9.035491490533019e-05, -0.00011484088895628222, -8.357069105246134e-05, -1.8290780077552334e-05, -9.552928015831757e-05, -1.009690319250323e-05, -3.5794665241831656e-05, -1.3755883636431763e-05, 0.0005770481576589201, 0.019272122562530088, 0.04791351155731516, -0.008616794433015844, -0.049173233143742494, 0.02055421696248079, 0.04766064437267192, -0.023792984371873944, -0.013417475280891107, -0.032545402133066954, 0.013409986352892346, -0.02748114108676444, -0.008973348729536144, 0.020735084416248804, 0.011343952701345241, 0.0004383514064573132, -0.06711856841475368, -0.036033461302519235, -3.576513017587063e-05, -1.9832547817341236e-05, 4.346653082620227e-05, 0.00012977482712794817, 0.00018417504376174034, 1.8350374285827408e-05, -0.001908761321222611, -0.0021014048668983676, 0.023110308178588897, -0.004863205755960387, -0.010093420822902993, 0.06189367082954388, 0.1024361375638408, 0.07775246863569019, 0.15526526916650207, 0.1050651618038798, 0.09008608243368117, 0.06342372681154823, 0.07763595168943462, 0.10286021761982905, -0.005634418033449265, 0.02117843969798079, 0.05530230679174256, -0.004943621006850252, -0.03876514145331185, 0.003751201848863743, -0.06771440781746986, -0.062013251659675576, 0.013005441295149823, 4.757170105768462e-06, -7.199798366058244e-06, -0.0001064659932202245, 0.00014771972077982391, 0.0012760867388032786, 0.00016589130126360934, 0.017724094852162656, 0.021914163573468728, 0.04632178267871337, 0.06034242793177549, -0.023387414561742103, 0.0395160973816757, 0.051943509483276626, -0.049178016717371126, -0.06891821624298004, -0.04194953424776149, -0.016109788550090078, -0.031320093257206645, -0.004268111845668037, 0.02433935820286726, 0.024189070591681582, -0.009215740615816292, 0.013982471444053048, 0.061705037226233085, 0.01688717428945469, 0.002749301086533, -0.11685083726661605, -0.014611984022138024, -0.0031018577835351343, -1.4318482018304363e-05, 0.0001696651465140917, 1.2099364214568939e-05, -5.720335029762836e-06, 0.010653790685544, 0.0002221762598502034, -0.01611450967779925, -0.04695208244258517, 0.04271885814903549, -0.08554884986686255, -0.10695889164721994, -0.09102308997160553, -0.09422431443129771, -0.06708684822783822, -0.11423503415605474, -0.02734344314315458, -0.06012958362658648, -0.048949568302927585, -0.15204705524020795, -0.05004158186358121, 0.11042760126251755, -0.032025580889658734, 0.02674660210287943, -0.053475957902210276, 0.04350152780376621, -0.07451618431720947, -0.012235628554614474, -0.00028150658433171794, 0.0004856531486027432, 0.0003446168606323183, 3.7432832549913386e-05, 0.00021424879222914632, 0.004668539462430476, -0.01692187287144524, -0.11502292850112208, -0.15517899824058282, -0.032379140149955424, -0.08081789764496818, -0.16879906125828725, -0.11581056112781164, -0.14061825458531885, -0.04028475358213721, -0.018476106937776945, 0.012336176132199868, -0.0521698857943492, -0.05741268654722721, 0.001495970621371354, 0.041752327250824124, 0.013404910463594459, -0.11211651289929217, 0.055115993275578694, 0.07147394990567643, 0.05281441066560511, -0.0357126038886084, -0.00714499408118834, 0.0161699688268748, 0.0029824024257985534, -4.1772541314877274e-05, -5.489216843747229e-05, 0.009312790153021016, 0.014516838812655641, -0.013469325590121576, -0.05714002627741001, -0.061235446897241884, -0.004285982415559669, -0.0831778551077954, -0.1961211743870445, 0.016445038395304434, -0.05488734015798542, -0.047849622233043655, -0.052630488172482226, -0.01865884726610691, 0.04796988901398737, 0.006592389341022561, -0.06599218120188369, 0.018499703274698184, 0.10439911191392341, -0.0007746993336523331, 0.06683513654342434, 0.10959328197850132, -0.0032338169649418443, -0.010943275813674172, 0.08497566055664418, 0.11229437259914152, 1.4683753657780057e-05, 0.0002011764717381583, 2.7536885085741523e-05, 0.013150531217200312, 0.02484955102646026, 0.002335265944486841, -0.014030766166621777, -0.03798565424075199, -0.03800932980302653, -0.09442640900281919, -0.13837111541665703, -0.08342690103031818, -0.12292549685124075, -0.043258803421286976, 0.013433372474412751, 0.05845345243744345, 0.04249554370380403, 0.1306522080243194, 0.1075779363383073, -0.0004466769194352199, 0.045422179100471714, 0.061107935980776656, 0.07948884819900143, 0.07879372654685776, 0.0033159110060470075, 0.21160390443299698, 0.21688674187585583, 0.001264767611584123, 5.25118919301424e-05, -2.5094420727920792e-05, 5.203105961798219e-05, 0.004912124487297405, 0.027787773714509766, 0.0020375238997456134, -0.018084685675353377, -0.024720542378135084, -0.045086000701226606, -0.09520847102537995, -0.1170328156927075, -0.09332768246238923, -0.039553163852314, 0.034009341718826136, 0.056642052542952695, 0.1004205413883336, 0.0006593443431478304, 0.07453280581047707, 0.17398708876035038, -0.01967236324448879, 0.028027517003338238, 0.016103724177210257, 0.055223238853908375, -0.0470458063533364, 0.03974986858870462, 0.09407956811292857, 0.1384497347246666, 0.07211005475551846, -7.735044114302717e-05, 0.00015348877024110158, -5.0403010863462445e-05, -0.015690884808766393, -0.002315368838239904, 0.12827423986680453, -0.0034855100310648146, 0.021671810996187285, 0.07576423453127216, -0.1326307742264581, -0.032500134232862715, -0.03319263051455346, -0.06439733332034708, 0.004184233442423101, -0.054731284355299434, -0.017047986102046015, -0.004172785562441047, -0.10063376686762096, 0.026367374207286146, 0.009425536620528665, 0.008517157836114956, 0.013564312778779196, -0.0179337008868549, -0.12214226204941306, 0.01421596861328796, 0.0038078553833078136, 0.023390581560853406, 0.0003248129016798215, 6.524763328061079e-05, 6.887346421447345e-06, -0.0007674676869846849, -0.019778579249666032, 0.0691175861158338, 0.13339169690415426, 0.08435346054580695, 0.1258392159609275, 0.02237361910374047, 0.15594016684032896, 0.04095903749605469, -0.053006285889796105, -0.1466624153829658, -0.03349084803619763, 0.013743704018114901, -0.0100887534393178, -0.0173565428893115, -0.06637818702218579, 0.005113747741434387, -0.09135249790998293, 0.009509697331430537, -0.18332526434366056, -0.02369083723113097, -0.20321053862046673, -0.12370943216937512, -0.1597215331618601, -0.030161049638549788, 0.00018844796193069803, 9.533477737197387e-05, 0.00019441340965986435, -0.018398430466743162, -0.017848679666754, 0.07004821811349728, 0.01438201186314494, 0.04427124990298483, -0.0067425438162521355, 0.044043333157106526, 0.17867687799421947, 0.11448048792567743, -0.017533041428544623, -0.03881831141406826, -0.03676683166031117, -0.040185563007563666, 0.049881850767353055, -0.020667193149943308, -0.032827187698681315, 0.017595746014450343, 0.019031651652869828, -0.08239129815387757, -0.025224596614505487, -0.08995899087662713, -0.2091389801553878, -0.21490809953814455, -0.2927162465806582, -0.015135449365098846, -0.0005476409369488131, -1.423642607544667e-05, 1.913487913391112e-05, -0.014249608657876276, -0.018115908332106676, 0.001150311457696099, -0.03521920877669062, -0.11834208770782638, -0.08387649179283668, 0.019570529010214652, 0.0030565071778962376, 0.001095821919902435, -0.0319590023247351, -0.12857286551374977, -0.11723867453113046, -0.020122927432081043, 0.054158338356982166, 0.06447517652303583, -0.05383098101472634, -0.0719761350641355, -0.04117240203907642, -0.025692373032948405, -0.12335560331934117, -0.12952811010115087, -0.10145793674029328, -0.2306204998730013, -0.20107727260460118, -0.013648487224519593, -5.079836904607864e-05, -8.447072790623992e-05, 6.162531692061062e-05, 0.0002115457591432601, 0.004006876727997697, 0.055610405415526566, -0.030429496364669507, -0.14235710761777837, -0.11016364037832155, -0.1524101719491683, -0.024282790413027687, -0.036363585098317525, -0.12769975022926014, -0.08821587570968552, 0.021885893214662073, 0.05277835297846783, 0.1573388628424054, -0.012482976266320368, -0.05246379761967326, -0.1713596637865468, -0.08301731920964453, -0.06512883999697507, -0.12996203960568364, -0.0542142849447222, -0.051851843420775576, -0.13625602923547783, -0.24210199041696873, -0.04345761750911031, -2.468396828360215e-05, -8.00333408049116e-05, -0.00011050768813387046, -0.00022920861467849295, 0.00016674652687556095, 0.001688093184718413, -0.058093589540352535, -0.076722696642232, -0.24186850452822742, -0.14672958992595847, -0.08430120602766962, -0.11237897968081192, -0.09403011755470192, -0.14440170755435228, -0.052600776713526844, 0.12202513172790806, 0.0695991576339658, 0.06533967082040601, -0.10537413951689295, -0.096251788482148, -0.09959972316975116, -0.02425287317039437, 0.010155498670793845, -0.04111966947629567, -0.02417123520321812, -0.010841867965208396, -0.006780762949107845, -0.007642912723783951, 5.3997229537772786e-05, -8.159822974844903e-05, -8.069492802782085e-05, -0.00014400042835263928, -2.7189736776211947e-05, 0.0020038678860465025, -0.022556183452232453, -0.09367694526357512, -0.0975866764049324, -0.2170934606180121, -0.23061376725313773, -0.17574430362789362, -0.17447253478539812, -0.04626800524702271, -0.10815945829949715, 0.011922990871408922, 0.01378286497215332, 0.025448877748074406, -0.01272320268639357, -0.04857986492539038, -0.08835057463890435, -0.0795770298066843, -0.07064696650288428, 0.013253228866885807, -0.07832706071832672, -0.06004720645236505, -0.007340717957071025, 0.005637173402876047, -0.0001024580347907154, 1.04179461034914e-05, 3.653362748165907e-06, -4.50678705258127e-05, 0.0011427055249739095, 0.023291665224555218, 0.012638186655870638, -0.030883654765329234, -0.029566501555623268, -0.10517324223521635, 0.06039353070671578, -0.009886204654261226, -0.04826192641811995, -0.04600323701824639, -0.04849767266972072, 0.055498804774946, 0.07602580119405429, 0.05171120201663716, 