{"layers": [{"type": "DenseLayer", "input_size": 784, "output_size": 128, "activation": "swish", "alpha": null, "beta": 1.0, "weights": [[-0.00016691067655103838, 0.00021423179950313162, 0.00021296286973507842, -0.00022854149065847595, -3.2106443249876785e-05, -0.00022780410307243065, 0.00011643533956364832, -0.00015749582102686106, -2.8388662905632554e-05, -0.00012958781273694013, -8.949667432304715e-05, 0.00012945604172784515, -4.3164824716824694e-05, 8.72846732895254e-05, -4.706623111303194e-05, 0.0002159674997718235, -0.00010036979887697204, -9.055875092596978e-05, -0.00021298494599048383, 0.00019776130600654052, 0.00021298102390762146, -0.00021712267052816672, 9.56546915300119e-05, 0.00034451645337979476, -0.00010284314695762134, 9.066438991334975e-05, 0.00018866248047673645, 0.00023640404144826535, -0.0001483418656098742, -9.089897194638276e-05, 0.00010763569938282656, 0.00013545147490822684, 6.296827394598238e-05, -0.0001882677631300346, 0.017067545162111227, 0.021167411949956493, 1.2107150818640475e-05, 8.649507862357967e-06, -1.3216982763329605e-05, -5.1858243122129915e-05, 9.73145470863625e-06, 1.4745770236267055e-05, 0.0073424367527239465, 0.08958502165756206, 0.0017100478894650024, 1.538118040239661e-05, 3.284546770316043e-05, 0.026806496289083513, 0.024175581792115097, -1.5773226095602838e-05, -0.00010475889565505716, -4.717323812329534e-05, -0.00034486873592344297, 0.00012811132099547392, -5.4101426787810594e-05, 9.073857188801779e-05, -5.4237317891979866e-05, 0.0003448748308977921, -0.00017360354418194398, 9.956215662139823e-05, -0.00011702960027723227, 9.951233045353146e-05, 0.019124355546236243, 0.03724100535132464, 0.02708411607640892, 0.053096708513778824, 0.026326424449810218, 0.116416102850719, 0.15516417173388536, 0.201194414820444, 0.27979457449750605, 0.27743753737617854, 0.1258075045924962, 0.10587491010489139, -0.001045264300456959, -0.018729376877289906, -0.039742402780592684, -0.034470890381967725, -0.009246157221970105, 9.999453468562037e-05, -1.5005770234955118e-05, 0.00024645432171847424, -3.785277871224127e-05, -3.0518197957665784e-05, 9.051140687443844e-05, -9.06135240145509e-05, -4.5345339632685e-05, -9.375345950333226e-05, 1.8059953818007633e-05, 1.1663573531896034e-06, 0.011655630228182477, 0.02951157808580181, 0.14119725956366383, 0.15613128219758662, 0.08048795185827434, 0.05296361146743296, 0.11489037752802221, 0.07800720115107747, 0.24867097341616212, 0.17414015094797455, 0.11591670490374882, 0.07916791811279954, 0.002398240186475474, 0.018365982963990068, -0.23337132062873048, -0.011636713357883167, 0.0008508152276895088, 7.82724185513102e-06, 3.882656910752022e-05, -2.6498552454696105e-05, -0.00020575014951807643, -0.00014776118121372282, 9.018618624684083e-05, 0.00010829655791442754, 0.00041880983851622425, 5.6127115172479375e-05, 0.008115793162211473, 9.925189694593724e-05, 0.09021768086484282, 0.19302653441527154, 0.242186281189723, 0.18625677881661443, 0.05189123188209015, 0.029320688095422324, 0.16757731136739887, 0.011353667014758758, -0.046611079887335094, 0.007490054248735595, 0.024276638205573783, 0.004283445081770902, 0.011969656723918233, -0.04678595513362606, -0.18748728034924647, -0.04136819672871884, -0.016579667683227772, 0.00044976875602341756, 0.026576915321983176, 0.013553477887173532, -2.717425276759238e-05, -0.00014811646912997538, 3.0501938677497383e-05, 7.968097545269764e-05, 0.00014511720000498333, -8.81261543073612e-06, 0.004255307988623975, 0.028047757104697528, 0.088492326068461, 0.17798256238630766, 0.18861748210058255, 0.1070150482872911, -0.000825492620385929, -0.0359015285133148, -0.02562668167633157, -0.06002203028418782, -0.1318194666443462, 0.006111627109836075, -0.004431936021665121, -0.0696710962571393, -0.2916671530451721, -0.1851975199550987, -0.15564054711143907, -0.17621289230940987, -0.12810287408463233, -0.1127565704656654, -0.013394620177725398, 0.002626714518079897, 0.00010372951800342939, -0.0001869665984806662, -3.220640418441796e-05, -0.00025478490202273903, -9.229724923940224e-05, 0.021292733124132136, 0.0888256735109834, -0.0058387030850342875, -0.02217958940805356, 0.038685481839083255, 0.06031823459194622, 0.07349350223159618, -0.02673429728827743, -0.023308402672640526, 0.021177654992791554, 0.03218695039589476, 0.0587639223762601, 0.10107869442332257, 0.02321588767290666, 0.059047392712545284, -0.041423453213926764, -0.0360691295206573, -0.01707432072057194, 0.013379696301820477, -0.1372610114212936, -0.22091824014517406, -0.026871501171303415, 0.001877929448605292, 4.881034273798154e-05, -0.00013885113070901761, -0.0003454081393374406, -0.00020614647028925723, 0.010697708179052587, 0.08435973661206084, 0.05918004440788459, -0.016206694195298514, 0.0005441799686641222, 0.07939536005943221, 0.07604966461101251, 0.01885531006239123, -0.013466257981847921, 0.00888624396987527, 0.05389806973812809, 0.008717348461262465, -0.023624145972158478, -0.04696809586019469, -0.014066122877336499, -0.025702239407082307, 0.06062002379014271, -0.09692793048771244, -0.07406560167734759, -0.13344986202875908, -0.16213005783501735, -0.14479448949999305, 0.004103369869968024, 0.01615138421622271, -1.0341183017375189e-05, -0.00011351955643933032, -0.010264884692105057, 0.01032092238718456, -0.004883445973416642, 0.016081737021705293, 0.018564953135557574, -0.005732426664712547, 0.1050280787759886, 0.12524126231672117, 0.013931677167876315, -0.008839547368456664, -0.015025326472237963, 0.0335252894180097, -0.023983348030711667, -0.08491572323877396, -0.03729300478459902, 0.03465808718891352, -0.059718528667990545, -0.08792755306576396, 0.03186555373747727, 0.04259000777701981, -0.020670781789928934, 0.02134567271577457, -0.06126110823557395, 0.013051944849288595, 0.024527515613255006, -0.02037370463479245, -0.023460382665282307, -6.463315886574164e-06, 8.95354174939932e-05, 0.016987730807963508, -0.013991076013983878, 0.0030989116178319104, 0.18376206697713793, 0.10456540372037469, 0.07358724659965969, 0.09818422576707801, 0.05619177089716272, 0.07179348038147906, 0.023824979132295296, 0.018516123105830454, -0.035228540771703384, -0.0873849316308766, 0.05891228292285684, -0.08853058237170902, 0.021682167571167112, 0.07302588980037018, -0.042362902498549244, -0.029633367318510868, -0.07060281353800234, 0.12539076168586588, 0.010670842866186825, 0.02334952066403549, 0.03930794265668533, -0.08554114617585996, -0.009788096438830142, -0.00010847493001453503, -0.00010392479814027214, 0.016991957933081444, 0.19591463425905464, -0.022139155137057026, 0.17894928174579477, 0.07631457904662656, -0.022702248198819167, -0.003584648660065669, 0.06105621889530781, 0.01977406479713493, 0.021272474468711184, 0.007261608976022544, 0.004236443608976288, -0.043729761461142866, 0.01756952174121088, -0.07683327876301294, 0.024080181713137184, 0.0066622180563864165, 0.01880530336040902, -0.02131026004803169, 0.03509103788531415, -0.011607673130978116, 0.05721619655767867, 0.15923477084829238, -0.1956383565099553, -0.0990115888233814, 0.00018880984274686027, -0.00016186696017816857, -0.00020061012183269955, 0.005395163827387668, 0.23999417109196466, 0.03452971541330291, 0.04011962915616476, -0.021898847852469348, -0.055795604158941636, 0.08793896851204365, 0.005056841847084156, 0.07346511830706623, 0.04061946288576102, -0.04256920236581998, -0.0630522157069649, -0.06480702976025239, 0.02267911718832466, 0.0782218287511647, 0.06710226607968807, 0.012019740163026314, -0.017745154760846437, -0.008508041422462167, 0.0351547605090196, 0.10093305683613542, -0.003096626372548754, 0.0494681612284382, -0.05734831768560555, 0.0021853572891384516, 0.0039690719133522534, -8.65668114501274e-05, -0.00012876739522564896, -4.903450676034737e-06, 0.182470449592549, 0.045873999226085975, -0.026429342356492955, 0.0198394930757019, -0.007594250704019468, 0.014217453633595238, -0.03184802514035698, 0.06359238605348642, -0.06419090526331844, -0.02345124099875734, -0.2268376838060442, -0.21711186805803095, 0.05151423336839307, 0.06974633954775311, 0.005943404749757363, 0.09673172074459048, -0.0019048004933157464, -0.06589111605668303, -0.07968969717754662, -0.005449642129690449, 0.028240772225470185, 0.11417953849504005, 0.15674553678533776, 0.004179963161387078, 0.008373970553814392, -1.1983660343920078e-05, 0.0002506108922488481, -1.0351038183535597e-06, 0.08539023782456281, 0.051708086597394225, 0.10940155422298574, 0.07054687080890834, -0.007620067796889863, -0.01983083556202242, -0.001143449050503601, -0.13829107294477783, 0.07669831253758716, -0.11185479088457652, -0.2881396075939695, -0.2671239204761418, -0.055670383066510724, -0.009698618521983986, -0.009892671659446453, -0.016873501564054632, -0.06730851836058054, -0.013960466408554174, 0.042628341691623294, 0.014504978047432828, 0.05047165624444688, 0.11722943335028857, 0.15545963064981902, 0.02101345605123945, 0.005559133998686872, -8.447965434631632e-06, 0.000174499939075338, -3.0284198063785903e-05, 0.09431181627022388, 0.11813640052795144, -0.06105001389219769, -0.03123357013748698, 0.019074364827829322, -0.09509155652385794, -0.004557378224820955, 0.08556198637352005, 0.14492211785536704, 0.0049032568190519096, -0.24132151261540905, -0.06297658915531842, 0.005495179822835035, -0.026668286023628588, -0.033572094301542094, -0.08573511268931783, 0.13633606767126957, 0.016851776456219263, 0.024427009072903263, 0.0226323388173669, 0.09879353048042931, 0.025010207791311582, -0.03097397797009359, 0.0025790587517963634, 0.0013179704326664106, 0.00011398050662528071, -9.67611052557995e-05, -0.00011683617584068338, 1.4657251843529833e-06, 0.06833688173992325, -0.12508974309245463, -0.0011090550565839878, 0.034449782632133406, 0.0003201109984480839, -0.09484328281115262, 0.033566935459665576, 0.03140772294698973, -0.03579707258399879, -0.24177152276694658, -0.28020674821306474, 0.003176921638965777, 0.04784307714998904, 0.02815083710717238, 0.06484499953917879, 0.016348013482422295, 0.05258629979981471, 0.09321804265508095, 0.06650411938800242, 0.12905656272064586, 0.009137299551911292, -0.0953208963547919, -0.09870790578123219, 3.501004784554939e-05, -8.084868044616722e-05, -4.051928745170048e-05, 0.00011449196086338529, 7.058337198168272e-05, -0.012658483470935504, 0.01998962753102834, -0.06633491797556554, 0.054724584854887015, 0.10440855551461908, 0.11854226396237849, 0.10308038499678178, 0.04008919052986632, -0.17634388483955837, -0.3608040398933642, -0.19805030105655985, 0.007638889218725765, 0.06296110844541346, -0.0024614157422105628, 0.09704419032001826, -0.014534193890273278, -0.05014514673681785, -0.0007311622451957765, 0.09645681756620103, 0.018263699796697796, 0.04530581241173521, 0.07631516546643384, -0.0954325730046956, -0.030656101718259412, -3.6459161820008806e-06, -5.385970818841855e-05, 9.135324712655662e-05, -0.00011752058596933249, -0.019066471556630372, 0.012365299364568805, 0.011672202132263743, -0.017246519871079915, -0.016684946887565603, -0.03054012335538648, -0.00047907137349501933, -0.008701055220034122, -0.26707130562168435, -0.2512262264343852, -0.14090733263412744, 0.16725152469762664, 0.10734594831239665, -0.004389550107024853, 0.05704759576735385, 0.13034005348496017, 0.022043289414400306, 0.06568554517593121, 0.058080448356236, 0.09213060462783781, -0.021267852284375038, 0.03378129210321252, -0.03254099785762954, -0.019176124257952832, -4.578715038529574e-05, -2.920053489251287e-05, 5.4690439101290505e-05, 1.7096366434882173e-05, -0.0160245532928978, 0.0760669504042504, 0.012104035979008077, -0.07228687328941931, -0.009609076180686302, 0.010947097629273393, 0.007429648808351191, -0.07041166510042589, -0.17723362622186295, -0.18991221653552812, -0.018550030259481074, 0.07233633470175364, 0.13497075535630587, 0.05558616964227717, 0.017213959684835627, -0.03422632986469239, -0.011379140598140656, 0.06764953870304645, -0.04005786107085722, 0.017400802050235555, -0.11117215983944499, -0.10718671846285388, -0.0005483749457622864, -0.0006695290301392092, -9.848464135237613e-05, -0.00014743161749873601, 0.007405359362739235, 3.1215456281804506e-06, -0.01915345258962253, 0.0620205331484599, -0.016897933393060224, -0.0895562154154082, 0.05182445713853944, -0.035673609074553095, 0.0454317385151986, -0.06793051021988218, -0.17525722305525454, -0.1432903140603292, -0.07328509447999701, 0.20167619781191917, 0.1332776825255559, -0.019463441163733785, -0.06744110225955262, 0.008302602905899313, -0.005901754846725582, 0.00824257849772255, -0.14671431635545137, -0.0719891695022866, -0.01981506870623322, 0.0018714636493020675, 0.01214291270331736, 0.00010805908824349203, 8.694455060634781e-05, -0.00022701739039838196, -0.00015945866653820152, 1.0906757986932715e-05, -0.05117776857354893, 0.03096011750083384, -0.01358251135553902, 0.012199959090211588, 0.004633543297298153, -0.05057368700059059, -0.1597613883816497, -0.15789178267765963, -0.24035156098056945, -0.04656636458814139, 0.08307821475678304, 0.07453427642539684, 0.038641906434275106, 0.04366143523317519, -0.004004586183059555, -0.09849167593214031, -0.08927074070329574, -0.14169480369518214, -0.19522203487908144, -0.23888686003515514, -0.08540429412922869, 0.005486951827363381, 0.0037168314039928998, 6.491800729713294e-05, 0.0002501880999338024, -0.00013207806262982135, 0.0002046880842910169, -4.887719645447027e-05, -0.01304014526182007, 0.0038027436740426554, 0.060548286218941524, -0.04726021025156769, -0.09467205170802726, -0.1521203343010854, -0.2603718537598951, -0.18779263796044657, -0.11990079793094831, -0.016459112319337974, 0.059596367350762805, -0.02435005324755457, 0.041969307038103226, 0.07874102079969099, 0.0007603278543541062, -0.21485635201970002, -0.16361413068922823, -0.11044710703935609, -0.13028606428743722, -0.1295029486562514, 0.000369462615227629, -0.0031335674772535404, 3.4780702838908962e-06, -0.006543405316821989, -0.00033601669538914705, -0.00015872589980186417, -5.4031330663022054e-05, -4.924208134716136e-06, -0.001003614503675736, 0.028091340718028112, 0.025445035630813843, -0.14658423989295288, -0.18148705809697793, -0.1581762242976123, -0.1693082701892136, -0.0636635551235436, -0.18741803616735875, -0.07452065309930261, -0.019233669247190166, -0.004820941700268482, -0.018566531307333607, -0.02824755793353257, -0.06617515039189724, -0.028094144018244088, -0.1518981882640566, -0.16504116657203166, -0.14587558716893712, -0.26677253697773706, -0.08758641983471854, -0.0016155308032161585, 5.972946130320873e-07, 2.8085594860912237e-05, -6.955607322099651e-05, 0.00012971050826319648, -3.078958013007029e-05, -3.451439479890112e-05, 0.0017720860980802297, 0.032266354178425036, 0.026067739259519284, -0.08227129390847561, -0.16308647587538713, -0.14173988261373077, -0.11057621589691258, -0.0989232971433311, -0.08277038559186974, 0.03679586140787249, -0.017417048923912846, -0.04856880624595423, -0.049622983083945464, -0.13029677583600224, 0.007499600894083104, -0.05173190315910801, -0.16567551109761455, -0.1256111831597522, -0.17268283554426334, -0.07541807395124547, 0.0033513120190285617, 0.0050664313667123095, 1.7758386865938927e-05, -0.00012605276870889448, -0.0001876765509006833, 0.00015375699886692267, -4.35138601432509e-05, 2.982164630713771e-05, 0.0017230705459749145, 0.0042488653954292225, -0.002820709657678664, -0.18507816884430225, -0.23473897336220823, -0.17587783430850185, -0.1496954496117768, -0.018017374243666694, -0.025711687887405327, -0.027538334361544584, -0.04530643084444868, -0.03497133703041999, 0.06128073662733008, 0.0030121425203266505, 0.08376202406247261, -0.011556360605080517, 0.07753783690013981, 0.002542006937569744, 0.005441945944536838, 0.0009985000540328388, 0.004246002288658409, 0.008097326586676508, 1.5566312647511253e-05, -8.142420995357083e-06, 4.8382495074627695e-06, 0.00011715875365792472, 5.122700599189089e-05, -5.527286460574245e-05, -0.010243948875069443, -0.008251139866238833, -0.04927022985887647, -0.08950028671068049, -0.1375654840080135, -0.03270526954195133, 0.028648942720210426, -0.06386918508146987, 0.0390897653852201, 0.04297322932347378, 0.04033438278056732, 0.038653303953574504, 0.04434584879990065, 0.18327526233052463, 0.07428786299270627, -0.04331355393453892, 0.06931669591038658, 0.007823494532182722, -0.013129023320783377, -0.030025755304952724, 0.004057471971994081, 0.009218202513001103, 4.685700751091287e-05, -4.608575270833588e-05, -9.541711238061184e-05, -0.00017115330692326342, 0.00020205208219343965, -2.4389278205886483e-05, -3.438004804942909e-05, 3.0314194484618082e-05, -0.017790041508471622, -0.04798529827828262, -0.011414089382616224, 0.058601824283487224, 0.04639511642326179, -0.12224903509849071, -0.0352956035709393, 0.0381672487944871, 0.0896192168726248, 0.1445961259666498, 0.16245886475938726, 0.14250624630149616, 0.12853089819459781, 0.17591736843944722, 0.22228173415175317, 0.14376782374738473, 0.07743460749898408, 4.198481090859218e-05, -2.7839709546979944e-06, -7.557992622558675e-05, -0.00017022286360435284, 3.0305441182883566e-05, 0.0003444265234435754, 0.00023664121656952045, 0.00015015814964344657, -0.0003437100133935199, -3.886035182510398e-06, 7.490991403528242e-05, 0.00010518873223622526, 1.8242594854164278e-05, -7.020045725336604e-05, 6.825063819996293e-05, 0.008468307544077782, 0.070392732737554, -0.004644784339589884, -0.004391237768483273, 0.015912636235956033, 0.06943162837438051, -0.0169589858291738, -0.003343991275396299, 1.544168747212591e-05, 1.3553100436935721e-05, 0.005890982558085586, -1.3193250629361432e-05, 0.019080469399460457, 0.003518285984203286, -0.00013969530587903319, -0.00015295247413290832, -9.091282533794964e-05, 0.00014810617016134759, -0.00017671456784417103], [-1.7525469302237756e-05, -0.00014910414677755243, 2.358292658067416e-05, 0.0001492171622680308, -0.00021663861286298614, 0.00012966477159838218, -0.00011719276015999146, -0.00016163408144926646, -9.470020027442375e-05, 0.00018853579160785737, 9.091895696099038e-05, -0.00010287545971668745, 0.00017698475114365036, 0.0001452379458667529, -0.0001412907141118398, 0.00010405054732305448, -0.0003456098566033802, 0.00013986844854560482, -8.190031873325149e-05, -0.00019184711379821438, -0.00023179354217854983, -8.796757839412374e-05, -3.1693844535123674e-05, -3.303654832020311e-05, 0.00014374341688406787, -3.264423701222508e-05, 0.00012975370638784197, 9.541361647973743e-05, -0.0003760468569506658, -0.0003449127685985127, -9.397272480965834e-05, 0.00011758090335333381, 0.00020492588947167238, 3.88370547659646e-05, 0.013272373622760207, 0.018506218731332885, -2.628227399927894e-05, -2.285575005438916e-06, 5.5662664651356566e-05, 4.91204200080409e-06, 1.759897675548381e-05, 3.5364830257675072e-06, 0.006973199135138662, 0.03221083631850418, 0.00017206243223585242, 9.385604989878431e-06, -8.355817079898688e-05, 0.024206207583678842, 0.020373987957310807, -1.1386345445515267e-05, 1.2512619614516414e-05, -5.16922417177553e-06, 0.00018876125890376813, 3.0168833525417355e-05, 0.0003437937312071934, -0.0002285859154666831, -3.615854459921802e-05, -0.00010900014791629948, 0.00011700049319235669, -9.974786353609049e-05, -4.111053241163384e-05, 0.000127212983782412, 1.9570130973550206e-05, 0.022551212894797123, -0.0010062483855906572, -0.001420229400521029, -0.0001192126941843657, -2.2366250405258563e-05, 0.13291357359501363, 0.21721717014469683, 0.14572511931277699, 0.06763290223327412, 0.14010980380475735, 0.22845091699159092, 0.1925978270356562, 0.22130042154737858, 0.1965251626062682, 0.000659092088002691, 0.018726250947267115, -0.0001348387205791719, 0.0009610887702403533, 0.00021022979334370313, 2.8543016686477125e-05, 0.00014373344156892357, 0.00010293984577212941, -0.00010364068418682817, 0.00025377095499544823, -4.494644139881515e-05, 0.00014881230211245879, -1.6486631747578368e-05, -3.0357731373152742e-06, 0.01577054291400837, -0.0012585731826081229, 0.042990030162723264, 0.13734376695223008, -0.016909651180507145, 0.11593328094667232, 0.1281987061927941, 0.06680434992779537, 0.22123764155559703, 0.020246963857151377, -0.03922964881026635, 0.1478151895173446, 0.22502772744722513, 0.1672794172780539, 0.05634986491135705, -0.07973940985627762, -0.0845321768110697, -0.0012634581048097595, -1.1200022596480508e-05, 0.00019151973425092581, -0.0001497730816478547, 0.0001296894897550852, -0.0001065531195051091, 0.00013128128958562666, -0.00014917953032354825, 0.0021059780233558733, 0.025253024142100115, -0.028427800992620177, -0.01772545606746969, -0.07152593894077168, 0.08898391625212637, 0.03956847153703842, -0.012381396800134684, 0.05521041511019035, 0.08459635996168408, 0.01334838190738184, 0.030237750822085296, 0.1115511613098734, 0.0058507939383354995, 0.029144054770268, 0.08925196212999495, -0.0004906821128167793, 0.023199011043178727, -0.01491148206733395, -0.007223197786066029, 0.08446621003330718, 0.0018246389452514819, -0.00020776678525559375, -0.0001122025169472402, -0.0001497855053649423, -0.00020927303116179266, -0.00023154667208374335, 2.647487203133422e-05, -0.10482149694014635, -0.022142851157631486, -0.21355864634480934, -0.15450778396647516, -0.0031178080842297674, 0.02403142597852615, -0.005559004466538957, 0.0016290392426661256, -0.06035077847261445, -0.025578183364964507, 0.03576789135277574, 0.03765992431862913, -0.08111542604591944, 0.11056243133695139, 0.11533219397174141, 0.05992476334686283, 0.015425778427644131, 0.0216134050854216, 0.16907969830256933, 0.1278386122406406, -0.016616434405766597, -0.027580702868081106, 2.63217038526769e-06, -0.00012907287854088337, 0.000233784382466513, 3.0026862128534497e-05, 0.005896227586180674, -0.03339961292819356, -0.13606200063545887, 0.005643799576841109, -0.06292429558850574, -0.03528621979682289, -0.019979197811434667, -0.013105193384377047, 0.008615868586877521, 0.04339286754302858, 0.08599421834855997, 0.024114042767560198, -0.0025927944420899404, 0.08716153743250404, -0.03180188556049655, 0.10258941556342774, 0.07836035159916235, 0.22366008268994247, 0.07149510205401298, 0.057381835724649645, 0.15065170297347769, 0.03400594995112698, 0.1716688012914046, 0.1456094541751104, -2.5266561275680547e-06, 4.5020585112140934e-05, 0.00014868326396830908, -5.5605812939908146e-05, -4.2557839326248056e-05, -0.10456653638301264, -0.09711402462812699, -0.0069346112206588794, 0.008693469930966426, -0.04177924051080407, 0.018362780378226525, 0.12918580219177347, 0.05557627601273649, 0.1435885231338753, 0.05514507188844767, 0.12113536638996109, 0.07254619648175961, 0.1028525029523178, 0.14431151258121855, 0.11239181397704036, 0.1749444396468671, -0.022957424937584122, 0.18078893776955585, 0.140515492329988, 0.09993317877242923, 0.09065846642434197, 0.06129558040956783, 0.24245382439575602, 3.102514928178677e-05, 5.237709652188264e-05, 1.4407723987540437e-05, 1.3361266727707585e-05, -1.7470805492519355e-05, -0.05587832652057434, -0.20325511836428736, -0.11530523145241771, 0.005070739474697641, 0.06259968625967526, 0.10592997236455351, 0.051104394387814917, 0.11166760118456348, 0.08537975872086538, 0.04089632517241767, 0.04023921542799682, -0.04882647268607491, 0.04291950604056578, -0.04134361828666662, -0.018278371527921073, -0.03754638115086221, -0.0576604339717465, -0.0330458000052067, -0.11263041939368454, -0.16494322697843156, 0.004609855603215115, 0.013499242381964555, -0.025610839131427903, -2.146829596442319e-05, 8.321284510104664e-05, -0.0002131382509401317, -7.558035565781107e-05, -2.190944531140061e-05, -0.01838208428042365, 0.015501518336239447, -0.09127463150450049, 0.04315131140512564, -0.04089260562043809, 0.005397696250010686, -0.008848774918745488, 0.0468114172911091, 0.10207230139744596, 0.0790834020223674, 0.0011342914854313142, -0.19042539898320346, -0.25367023277122747, -0.26685568204231463, -0.40708727902198416, -0.33238615461130194, -0.4161031742905298, -0.34495490722140837, -0.4054373862953507, -0.40496052849014946, -0.18713648671770783, 0.011940607326816987, -0.02938250113689165, -1.545663033478318e-05, 8.21865698430869e-05, -0.00027388444509530096, 1.767841703213293e-05, -3.365280933294876e-07, -0.029673670613300625, -0.040177797541085, -0.015025041067448234, 0.05015958284099963, -0.008337259724794035, 0.05464941192793377, 0.04865831232523926, 0.1326491923423886, -0.012514263723961092, -0.002261887458063072, -0.13012401058533776, -0.23820660943783536, -0.21770611787896454, -0.1421353918862054, -0.2077594072961891, -0.34573940116061846, -0.5336164332463971, -0.49336539629532494, -0.3982570113930058, -0.530853624023098, -0.3529560944005357, -0.23214575548554442, -0.07620956949626295, 5.110295255433124e-05, -3.5959774023858814e-05, 7.882459402237192e-05, 1.1444812097694837e-05, 9.372581334051264e-05, -0.06494860421745435, -0.07178816375273087, 0.022029261233242874, 0.007013674228217281, -0.03485206569204232, 0.015524120923754804, 0.03894294158510301, -0.04037881755273526, -0.04188717603068798, -0.10675610923663488, -0.11555005336748746, -0.0018879522237563214, 0.004158153728980792, 0.028152921828865644, 0.038491282472382864, -0.021501151680915168, -0.0581954153438724, -0.2716711533566216, -0.3073987124582729, -0.40005347462729013, -0.44459352333669433, -0.2642111148975114, -0.16787747073470413, -0.0013965235484083816, -1.4616464819940686e-05, -0.00017102545480111384, -3.3455692952580934e-07, -3.239057725174066e-05, -0.011972872334018565, -0.06208207483665216, 0.0847673250694237, 0.01530047385607235, 0.058659480890330865, -0.03239263012671384, -0.0006037031030698569, -0.0028740036876797525, -0.07715790520416284, -0.12098035931228478, -0.0572436769277941, 0.008601188297218447, -0.005152455544745574, 0.047027246038246595, -0.016995593061505648, 0.06597569478508915, 0.04579879514113796, 0.05285668422642765, -0.11562100711625804, -0.1507664972988598, -0.11018244730409456, -0.23953314572181184, -0.21972176181450068, -0.00863861833149945, -0.00021625928879442593, -9.077775540932598e-05, 2.8821788624674594e-05, 5.992502257572545e-05, -0.004652503927697262, -0.011111019469827104, 0.024686972144610828, 0.04652107964826503, 0.06281911645208506, -0.02983542637270066, -0.056945927454821355, -0.05085487593983968, -0.09931010359704492, -0.11152502065289646, -0.11528983568090613, 0.017404778993133984, -0.004399233603184425, -0.07707596460227246, -0.03436153382446773, -0.004919442255438588, 0.02262937389400301, 0.063289532606096, 0.004067299514541261, -0.014225141597658414, 0.04563904021056363, -0.018839524214398468, -0.03249077470371725, -0.007739708856279762, -4.8009231417415145e-05, -8.87683131085304e-05, -1.5857994148652432e-07, 1.0353405994084537e-05, -0.014466473955452221, 0.04636211126629594, 0.005941351798597044, 0.021577859127352363, -0.03374179467762714, 0.05491503874895675, -0.016527007344652848, -0.07140504137867237, -0.11436268614144754, -0.18863476187024472, -0.03693072666988096, 0.018020411502666322, -0.0798334661114956, 0.05178417785892244, -0.08689184157128832, 0.022853473127298376, 0.034089229670001345, 0.005498560206093201, 0.008297729156425421, 0.08736609372796048, 0.1107025971255644, 0.14577801544257465, -0.05954179689229895, -0.002084318602093405, 0.00016994242545542704, 0.00014288677132497113, 0.005893823436046767, -2.1660230459228062e-05, -0.00035529512947108483, -0.028640819700031857, -0.007944679178105468, -0.03374752082120849, -0.15804817331938, -0.04429710816146458, -0.12935469378860118, -0.041880839269354944, -0.03469502367022858, -0.21816538153790996, -0.15685028704567122, -0.021609506832389047, -0.05193201901060565, 0.011508938739847218, 0.06360004619802057, -0.05548486041858113, 0.036604993721756525, 0.023302378212202646, 0.11461462294466354, -0.021641324037373195, 0.028025659526232892, 0.2220391041250923, 0.0018675804073225585, 6.795197177525826e-05, 0.00015465545280283826, 5.479341767988894e-05, -1.4155173786516433e-05, 0.007086383259877328, 0.0018647705021806206, -0.055599187913160666, -0.031250717125369094, -0.12385296649847861, -0.20653118547467786, -0.025585792387233932, -0.01900560692682114, -0.010959775232549035, -0.025399611169829854, -0.11152136075912797, -0.09040720323896675, -0.0012945404921502343, 0.008958938069399413, 0.03965099708791922, 0.02746175792426999, -0.006586877245419322, 0.025600165454346995, 0.01736283314378893, 0.09188994478495191, -0.007853889021501482, 0.016830340276189397, 0.17504030463718886, 0.010027854621611938, -3.5785133969223516e-06, 2.1235157165222062e-05, 0.00023111869339735607, -3.252045188603709e-05, 0.012858086326650567, 0.04501625944280143, -0.15237229888791753, -0.017004034006466436, -0.007757469118580887, -0.015667531418785265, 0.07950538828857574, -0.008760400288129503, 0.022954483986751876, -0.06609137030643411, -0.118762034222864, -0.09341242292016275, 0.03511341732117614, 0.09522893149728139, -0.01558619898297137, -0.16951736169866205, -0.05358086033187633, 0.021248681717339398, 0.054649410595068386, 0.06350607562749502, 0.04720816490752548, 0.05101750501824085, 0.07401553960978782, -0.041326316306370806, -0.006866126285769754, 0.000751574259068168, -8.746512183403441e-05, 0.002791621651110511, 0.013777138718494186, 0.03561784441109273, -0.019156894667018805, 0.01567919855855598, 0.06114645020242816, -0.003658770147549751, -0.013057505780728854, -0.044045220634724255, -0.03534547407372943, -0.19012732149954872, -0.18033857008249182, -0.16726032831076584, 0.07449275582378703, 0.060265736813104986, 0.0003288119492069728, 0.01781727902517884, 0.00723316497288484, 0.0010301801384800379, -0.025073466405840444, 0.07497094521176385, 0.043121218125923344, 0.0436026998242453, 0.12119330521427171, -0.06819089680988369, -0.017284098832516335, -0.005524285704640239, 0.00032699186807337924, 0.014423457617681882, 0.02648822189452757, 0.0059390563385179375, 0.07421672161291008, 0.04146410031087666, 0.027371798437691816, -0.045877074722996875, 0.02929344718158812, 0.0092222434742474, -0.13040022157857847, -0.09518010306550377, -0.07509493204373234, -0.05677287900690899, 0.019453365267081864, 0.10652417422106693, 0.014132134810879247, -0.008286457997357433, 0.09304258548047327, 0.025933270937399274, 0.12023665417511462, 0.053940318543276244, 0.039701385184876654, 0.07842364884271277, 0.1540501623397025, 0.036634390566037935, 3.5968631997958466e-06, 3.809117728535558e-05, -0.0001171019297111915, -5.4045778927819314e-06, -0.008433915432206337, 0.046085466413633876, 0.12464992685690876, 0.04942661339718379, -0.03647191723562764, -0.09457317788269103, -0.00597477674291055, 0.03450592903015101, 0.07583346446101755, -0.0806208811763414, -0.18902493911122825, -0.003388320275847165, -0.03301295639197289, 0.1255409081219597, 0.12734785945480487, 0.1290292213339056, 0.05641526298733214, 0.05303697828273025, 0.06855198047416244, 0.10685946537284799, 0.10369821109216112, -0.015372233229333832, 0.11585668445835072, 0.07497163937526147, -3.839251989628042e-05, 9.753592377091696e-05, -1.7348930945936344e-06, 4.190658353473639e-05, -0.02639405369608403, 0.003411244056184744, 0.10662603501622775, 0.10590480334858006, -0.006298396071152276, -0.0028556006350277797, 0.03793478739018237, 0.025116901713699444, 0.04302639269407786, -0.057759317208114384, 0.02762865209808624, 0.07535878157546694, 0.048311197948101424, 0.058189115206740256, 0.019694476380352103, 0.035531582233648024, 0.06718156056460133, -0.013564532704990803, 0.02242724848095625, 0.07447071717764367, 0.04715791050657556, 0.012165238415012188, 0.07858131956740892, 0.09059886822355702, -0.009670754179307229, -9.417934286937255e-05, -0.0001120178812347071, 5.259180388394883e-05, -0.0022956933909572207, -0.02205569553733176, 0.011483175661135252, -0.020402985281736598, -0.01551225348660373, -0.029403700014752676, -0.0025659322031626134, 0.10659216307801496, -0.07076527600260733, -0.10239357924508957, -0.12456954265139894, -0.09180158112634029, 0.012356103640853556, 0.09337131082721593, -0.055969209951585, 0.022860265702490917, -0.011985492417855001, 0.02946405705092889, 0.06318134092293184, 0.007302702871500468, 0.014773457134272056, 0.005673676607027914, 0.0008576961725273848, 0.06174384480032038, -1.2590315662586734e-06, -0.000237518735497806, 1.5789530817251476e-05, -9.002942369275489e-05, -5.7375967362020286e-05, -0.00012907613933965645, 0.011490828108259552, -0.022727813133351833, -0.011330567196008733, -0.03283997201188609, -0.15543933376459612, -0.06112091701507309, 0.009142735570571457, -0.10056190994195051, -0.03905955124535715, 0.058059834891080776, 0.02819081799377599, 0.02091363561944371, -0.018648892066966304, 0.06425622857301014, -0.038551663061328956, 0.019508599358160864, -0.05000145014456207, 0.008647058548795914, 0.010540848780554371, -0.014743725672554883, -0.04136247615519062, 0.014757032108290052, -6.204310440514455e-05, 0.00014820708085527037, -0.0001065239222961066, -0.0002688940832312836, -7.951276240092407e-05, 1.658455171918572e-05, 1.1986285516296115e-05, 0.00011426789546097197, 0.02552478760239208, 0.05362931374131039, 0.046281221472498864, -0.04117725294288668, -0.025208387499897154, -0.01770315396417829, -0.005024374276890322, -0.04387886221248896, 0.05538131316720903, 0.036524229682837334, -0.011634545879274132, -0.11600318849581955, -0.018776360455164808, -0.006933464656928103, 0.05345511241831803, 0.02118549829360436, -0.004705630149163234, -0.01481546817530213, -0.030382844080124073, 1.349336735778807e-05, -8.204585182549148e-05, 0.00011680526578081678, 3.522306554891052e-05, -0.00012974030514391503, -0.00019565057688923968, 0.00010003493470681787, 2.7963659096100197e-05, 0.00010194072557377313, 0.0010169626269899807, 0.20237108602893464, 0.10753816967755217, 0.031623972330445116, -0.0007320431218825258, 0.17807881549266674, 0.21052117933582792, 0.14985387349856685, 0.17064580178923577, 0.13518842912149243, 0.05347696188257421, 0.07894999987121652, -0.08293350622934705, 0.10311893091864559, 0.11515196698280479, 0.18660047211223896, 0.11232809484015152, -0.002688702715996036, -0.009394740559506475, 0.00015567249627810315, -0.00023320802982377655, -0.00012949703159144583, 2.180261830067934e-05, 3.238992829881254e-05, 0.0002202798778080425, -0.00012956492802794706, 4.258634927915722e-05, -6.798484616109016e-05, 3.2607109989016922e-06, 0.021067840875400725, 0.007139083917603092, 0.005404337336074559, -0.0038958432844210964, 0.02185644748659321, 0.09267085572039663, 0.20041784868098356, 0.3037417207055108, 0.22483753256424166, 0.2374256922109093, 0.13494341912637184, 0.09461536129203295, 0.2491179703038371, 0.12892728216530175, 0.13318240496159606, 0.011829113032143793, 0.00433148235242365, 0.0002221752303659843, -0.00013107672233468186, 7.913455452141729e-05, -0.00010653090479713312, 9.019828476624378e-05, 0.00017207764932626585, 0.00012921323994460163, -0.00026425294565988664, 0.00016230143961550551, 3.4091789419780395e-05, 0.0002478156492421801, -1.4860578571220396e-06, -2.494615815509804e-05, -2.8258638756209356e-05, 0.0009830327302977537, 0.0033493945680320124, -3.634679829031637e-05, -3.1569653533053645e-05, 0.0001559242263310302, -0.010336340112761648, -0.007302159561980715, 1.8634815965185784e-05, 3.1118775282488736e-05, -3.37664857383421e-05, 0.0006358729772155583, -1.3964060178160566e-05, -2.9921143718282535e-05, 4.05063175380617e-05, 0.00034447237259620207, 0.00016497741959087302, -0.0001283138330858776, -9.483321993241782e-05], [0.0003451743302755943, -5.304644708452868e-05, 0.00023416105133475712, 0.00021333337325215494, 0.00021560630202014047, -2.264834891500903e-05, -0.00015078964653510166, -0.00023131611062980932, -4.3401088453130644e-05, -0.00011719975949599635, -9.36067761995796e-05, -9.064215130878429e-05, -0.00014241051432120684, -5.572172746652669e-05, -0.00033067824920836634, -2.146633940008284e-05, -0.00014834421643921544, 9.352716312781856e-05, 4.48510986260756e-05, 0.0001290391716121815, -9.079552096442575e-05, -2.133156344806284e-05, 0.00014844565318138035, -0.00016543281124944224, 0.00014821799946712725, -0.00019230812528480106, -0.0001652935182787672, -9.08941609825208e-05, 0.00018843280715148444, -3.274625847693197e-05, -9.514892414045183e-05, 0.00022934751690186918, 0.0002816373710905684, 0.00013852434591039994, -0.025664696549932142, -0.04552293529183775, 1.590430069156084e-05, -0.00010319726519506089, -3.709871337789357e-05, 0.000227779376306133, -0.0015870600152161553, 3.639357945454873e-05, -2.253779709911609e-05, -4.96093977778557e-05, 2.612073003806624e-05, 5.239381011010676e-05, 0.00010497097777998699, -9.43926892248617e-07, -1.9266383875398047e-05, -4.54079627753785e-05, 7.180930132635571e-06, -9.106003725522743e-06, 0.00023021981489914717, -3.2320405537819365e-05, 0.0001292217512230557, 3.182202237427711e-05, 0.0001171176805986145, -0.00023179849318478272, -0.0001176598743848707, 9.294329707103437e-05, -4.949454357802447e-05, 0.00013925983001266212, -0.026943465870925692, -0.04637215342879516, -0.08064002559672995, 0.0018684083685644544, 0.004287501038512652, -0.13022717096969127, -0.08627610063988467, -0.02642452161451912, 0.0008639023583276291, 0.0043203600780267835, 0.0353583646640504, 0.011572253523587544, 0.004452961997843499, 7.345964643329073e-05, 0.0004985800560608897, 7.302255743419388e-05, -7.957319003708774e-06, 1.7042479468531932e-05, -0.0007496562129120615, -0.0003126164401497164, 0.00012469549351948602, 0.0001464691563161454, 0.00024841895564888395, -0.00023605688338371796, -0.00025819753319977995, 0.00013051770221726724, -3.32426399483854e-06, -1.7551414579020396e-06, -0.012734980807916898, -0.1288714767011171, -0.24520093722413278, -0.3198808992910768, -0.11718643001642075, -0.11942527527536487, -0.3183422584138562, -0.35394746255960324, -0.13885578588778488, -0.15377597146884273, 0.016384130324752257, -0.044905754250406084, 0.012102596548242927, 0.09415081660967485, 0.05446829008547487, 0.04401370101839508, 0.01457841230460087, 0.007662527376091808, 0.00023562596901465562, -6.972109712500817e-06, 2.7198900804501968e-05, 3.2075463913987114e-05, -0.00011633341246061311, -3.228882498230006e-05, 6.337276328642814e-05, -0.00012320294483525744, -0.01331099951829691, -0.038981079841749595, -0.09071356816467921, -0.09573670773307981, -0.16320522891827433, -0.07668902660592959, -0.07207076295800688, -0.06289055989961512, -0.142606366423729, -0.002525101277903533, -0.1131620803692939, -0.20499384046444755, -0.10189139123590185, 0.0013848896114820061, 0.06695279241981879, 0.10038900351389315, 0.09000453638242892, 0.010578903529732704, 0.12674089854255585, 0.05017057221606991, 0.07382567119799692, 0.00047886568675476436, -0.004923879207064991, 6.700583249017532e-05, -0.00023285943507329805, 0.00010663951479176975, 0.000162063104880719, -0.0002195057061471996, -0.04360048346978784, -0.08850912776203186, -0.09984622723711742, -0.07422364766774252, -0.009706652408157102, -0.06894543703838765, 0.05407152616884009, -0.06546756747460246, -0.1375793404603973, -0.10497527434174096, -0.03508744694287559, -0.15294750750487712, -0.09721775849867516, 0.02014676915715524, 0.025979167206050743, 0.07620041159426429, 0.0376575172706506, 0.010334640792886795, 0.09439015659830159, 0.21208982571006513, 0.08242067941419204, 0.019022400078025557, 2.1950296948349887e-05, -1.3129286155996755e-06, 0.00019611836271105638, -8.060444016461354e-05, -5.5637803605981925e-05, 0.01082051600134658, 0.023580052425994865, 0.049336756307771366, 0.13679106870806587, 0.05886021358764692, 0.00013097087006379074, 0.011400426839242363, -0.051571473930629705, -0.11479391082668876, -0.07333207055147396, 0.008466808087293592, -0.020942576306549287, -0.15322996688649157, -0.2938026944484206, -0.22991695816763486, 0.03726971356356964, 0.07151899909037543, 0.03635878430434133, 0.07580925021133213, 0.19812686279860134, 0.1421320943931438, 0.034026521222768294, 0.001069970151362278, -7.298617830808077e-05, -8.465707705694508e-05, 0.00010652643168849477, 1.3618730508306804e-05, -0.0035294114578152814, 0.009685546273518251, 0.0038097859765262435, 0.02034162256448637, 0.031874790545875754, 0.15272551441529628, 0.0017041994417781568, 0.09004880296633361, -0.01665242470323266, -0.02716109042068335, 0.002036154126686161, -0.06663267157950543, -0.11376313243018467, -0.14328236303355338, -0.19666545385242665, -0.12077056461123525, -0.018549119346585333, 0.060602121334457124, 0.006747932701627326, 0.004945381116393483, 0.006031362700820235, 0.10632761908058366, 0.11781571388437079, 0.002476463553221759, 0.0152508613246125, -1.8812907360287182e-05, -6.170210255911356e-05, 1.1574862725078505e-05, -8.098420079860269e-05, 0.03702551138286617, 0.060962134599669614, 0.040575177668293945, -0.01749581803310625, 0.1414354655758967, 0.10809749587529903, 0.0536855388128985, 0.024404154281741176, 0.04827591394567767, -0.005405647176970176, 0.0911598530080637, -0.08535482925705495, -0.21030187407531925, -0.21886343993532958, -0.00353856401409201, 0.07562167845726762, -0.0065981771696039734, 0.014651874197595402, 0.021091375486641136, 0.004794333473472155, 0.1268607307728158, 0.09134588475999271, 0.12360717792415075, -0.00648872210580141, 4.3036229837076514e-05, 0.0038288853173657133, 0.0010243747676905142, -0.0033446849377944976, 0.046517120642454605, 0.05255621029548293, 0.06956588303540148, 0.008388356588578557, -0.004868082398988987, -0.02264370486342282, 0.038262976235414164, -0.021513064416070513, 0.0012186722856040045, 0.08412450969199504, -0.14463597957408852, -0.11678237373928513, -0.23485238004591114, -0.12039543803089381, 0.0724382947746909, 0.16424352349737684, 0.040354685181410666, 0.1390282210755909, 0.13630727570484008, 0.04266928591138648, 0.10003212201927861, 0.10141515357003367, 0.12277412986314273, -0.041316095221493876, -0.0011412421830127725, 0.004664775807240445, 9.934931452691757e-05, 0.03571571294113619, 0.006752574167889114, 0.03480937871133604, 0.0335250530464551, -0.0022849025836648553, 0.03590615647277294, 0.00964444262851562, 0.007735974742949262, 0.01529068055014621, 0.16920177707433914, 0.08910569397830495, -0.03095238264356968, -0.21927999913498478, -0.204113259937114, -0.173602925233268, 0.09407098253605005, 0.1461814866043813, 0.2154653400592358, 0.11333782359577409, 0.11413926715796971, 0.07085570453479889, 0.012555993722020242, 0.006581891872871257, 0.05276475786205089, -0.000661644400377655, -0.0024714271163015357, 6.0250111419348656e-05, 0.0005169415435843641, 0.15980080022938792, 0.1220731007256478, -0.010000495559910255, -0.06943550588282003, 0.05528235713819907, -0.03397376398116147, -0.030454905360238906, 0.08018258587748213, 0.15603394285929992, 0.2155566935990851, 0.1594171470290397, -0.05997126311004667, -0.23276424436098395, -0.19137392497444308, -0.07127132079130524, 0.1201185153620196, 0.11908960941346895, -0.006677129990035133, 0.021345967116397115, -0.034200929429201506, 0.009262997414928847, 0.07980450355611121, -0.05931300109674066, 0.04793120639946965, 0.019779817943413516, -7.536988053875536e-05, 0.0001925050494499152, -1.1110535790110621e-05, 0.17776057998259942, 0.024848750341666222, -0.10427996680721717, -0.06209479663274965, 0.021951281217938753, 0.0703568735187814, 0.16335184401759442, 0.13556657744579648, 0.15858134963716064, 0.1981899886751432, 0.013069445709117198, -0.09682100678268715, -0.17070858493348437, -0.12802919918334807, 0.05241645473892375, -0.014312549494042757, 0.02793158383041327, -0.033455514697195064, -0.004193824515511959, 0.010515690347628564, 0.06771229395304541, -0.0618972661020149, -0.03956179941271638, 0.00429419227796838, 0.07543870277383095, -6.503878426215058e-05, -0.00013072435578017496, 0.006934882726516659, 0.06983925695166475, -0.022067613632851497, -0.020587444165488213, -0.042341178609367376, 0.0017010131893572594, 0.027466180260736446, 0.05730723761836866, 0.08661386888351724, 0.12594164850274972, 0.21106923701810054, -0.06539696975541562, -0.2288149078965211, -0.40537721459522436, -0.13070824929805447, -0.02736984846702311, 0.14749107402394968, -0.07883634517042754, -0.05523509715351554, -0.01501375054788778, -0.010985196204375058, 0.03789318976596856, -0.08413787829162765, -0.09593851460298086, 0.01428246902358776, 0.0007663968299030723, 6.056662347360562e-05, 8.961752456416724e-05, 5.841026703747763e-06, 0.06237883853814537, 0.07126621498408041, -0.0054787056176376515, 0.06450418197610518, -0.008295399107226294, 0.07170744801684749, 0.05211133393153938, 0.14863256093040791, 0.14069163063207824, -0.04814613320931212, -0.0962099619586164, -0.1887792220258909, -0.15112538191247923, -0.1265383730284165, 0.005086979120470905, -0.015250406483089646, -0.058921520790474836, -0.029437174676589666, -0.006131339100262555, 0.0012840736265755566, -0.010396982336308813, -0.015791811934893707, -0.12050228114697015, -0.06680161866892204, -8.990022440423626e-05, -7.22421731630914e-05, -2.460602498528942e-05, -6.720543399069869e-05, 0.026499890995736936, 0.12366202911176107, 0.01980591179866246, -0.05080874013145724, 0.1353992358089199, 0.17226311031318647, 0.09694765820278191, 0.11281289761576638, 0.03923134855307454, -0.0022504372337219815, -0.033294139187888774, -0.1385297919735711, -0.1887560864520711, -0.04264084740019674, -0.010734296683783827, 0.013449411280659851, -0.06330749377646669, 0.003714463274380031, 0.009030988047346297, -0.07180551401993361, 0.004836204313116482, -0.07480590428449022, -0.13640004746810097, -0.19536014227130533, -0.05502489140229892, 8.858155823705794e-05, -0.00013085886405739722, -0.00021987409751183205, -2.0926964204877818e-05, 0.10979669945219166, 0.10563642965432507, 0.005493883891347789, 0.07151772656650124, 0.13777786189569546, 0.08362676176174536, -0.010099584288470333, -0.0026833452688845784, -0.07210612087019382, -0.08985478585640248, -0.14708907267393698, -0.04146312802125437, -0.06516739141268152, -0.04636290384153655, 0.04318719243127744, -0.05980978755564479, 0.04345701545312845, -0.03278553760860378, 0.016279235657019667, -0.003956175816897802, 0.06714855937411915, -0.012338563415508135, -0.042999769602447814, -0.11026070301772527, 3.3528156159526656e-05, 0.0002297737114704654, -7.101331865106362e-05, 0.021323702326092354, 0.03253238003425377, 0.12995283291897428, 0.07792243586166522, 0.12710125967871366, 0.023905303476793864, 0.014247228196155865, -0.06343445800579463, -0.025400804452515316, -0.15818296932710194, -0.15190726893971007, -0.1445132395480648, -0.021199526501551724, -0.03784707495979755, -0.012313474078286018, 0.014658976628616852, 0.10373866061713337, 0.05118163765761285, 0.01182606215636607, 0.08513737708107284, 0.07604061665056945, 0.07219130018334854, 0.08493343637126169, -0.00010551844239853179, -0.004267934142426308, 1.989246128194735e-05, 0.0022492000797265164, -0.00627211573401578, 0.0046226208518848275, 0.013480476785972402, 0.08517931291815468, 0.02484199419227741, -0.10686648488951377, -0.02959914368444547, -0.12510551016356175, -0.12353623203396907, -0.07643766894469037, -0.1605911566770679, -0.1431323226129925, 0.010388612960759325, 0.015720271941338678, -0.012333279476706815, -0.0040411344774209925, -0.020647829822411173, 0.011250256211297074, -0.07857874395063431, 0.14009431071200207, 0.026574415416928506, 0.030193360834336463, 0.02579480450259691, -0.006469601563503725, -0.05317572516061181, -0.00520934704388097, -2.9052635042109914e-05, -2.1368349958642837e-05, -0.01016740958666794, -0.007329587798010446, -0.02753980080117444, 0.02868669972814309, 0.0005412925783505545, -0.024062745196172013, -0.08624276081291107, -0.06623263824858278, -0.03636736073295027, -0.20177194771708468, -0.15197008508078463, -0.0669390110893193, 0.0690237046370996, 0.05397733463373507, 0.05627510690168246, -0.023273070090926364, -0.02615526442330456, -0.03307189608197557, 0.04749509122918124, -0.02161484181256246, -0.03094071246569818, -0.02566284927112516, -0.10639672681452579, 0.0036652818278030503, -0.024505546026375155, -6.25753021308725e-05, -0.00017467679065208918, 0.00011841988803751012, -2.2634455551519007e-05, -4.4834787153431966e-05, -0.01455080364811022, -0.10036994694180451, -0.12673261338879951, -0.17892386435764718, -0.15945361327352983, -0.04513269198834547, -0.14261578267694733, -0.07103825778208746, -0.03579265992655812, -0.06790023881172291, 0.056739928125705684, -0.08788201675467935, 0.03236076868818581, -0.07913295561328823, 0.023113188695312824, 0.024113031079380023, -0.006640569377320975, 0.02216169530772047, 0.03800736627563172, 0.02040893110736065, 0.008327074784298026, -0.008338117611305247, -0.062204263026351264, 3.8125320711808806e-05, -8.33684636452522e-05, -9.332519435498731e-05, 0.0001564243586581653, 5.533370014765004e-05, -0.025161731318640676, -0.08382791882619021, -0.1421170619781223, -0.22459677367545686, -0.15417334304354094, -0.14957248129804293, -0.03503735286248463, -0.07110582200794026, -0.10694145273300577, -0.08769934725005632, -0.10493211270085054, -0.19363704462555104, -0.022325753388963365, -0.031193376176575034, -0.0842081844504072, -0.020020300479015627, 0.09850113987307514, 0.017464218718459996, 0.05351026052431849, 0.016876014941346554, 0.03511516737367391, 0.011594918948970282, -0.02129633597198512, -0.022738743120655356, -0.00022422954625084262, 9.102429415197664e-05, -0.00011361279930001323, -0.00020045768638160603, -0.050479137319716254, -0.047452808931843206, -0.09497190241083545, -0.021284599897766692, -0.00730291989180504, 0.02880942024333199, -0.07771044466641745, 0.0027765266964449743, -0.003861106106619922, -0.0380362162986091, -0.003481470407511301, -0.05783608784691392, -0.03288957604398034, -0.07291586389848162, -0.024222229824421848, 0.1144636453918992, -0.06178825177887384, 0.06544218410323487, 0.08577053993490219, 0.0026044538411266476, -0.009150925479486002, 0.0394801943997495, -0.019356066690639096, -0.00029036828755459515, -3.271457112648036e-05, 9.511835663986875e-05, 0.00018819099250929158, 9.055633489399165e-05, -1.118099015216349e-05, 0.011604007744521512, 0.008898874284772162, 0.08196619985993303, 0.16829036324012395, 0.06399536545426979, 0.07120347809642597, 0.11265070422673848, -0.08410522923102687, -0.039087663243792314, 0.046831818992170385, 0.015270930491154229, 0.032693334316619964, 0.033103268521130845, 0.013067328978796196, 0.0011011562693366247, 0.07363405133006454, 0.06184557917058442, 0.06153805595929983, -0.05278978966890644, -0.10569971692621885, -0.0010644094647980311, -0.013874307206706796, 7.878757831716185e-06, -0.0002131609520735599, -9.340057134026661e-05, 0.0001164520222080095, -7.61478694360319e-05, 2.1867872646505528e-05, 0.00043259582048924293, 0.05232124077312313, 0.2200315934936685, 0.16573993489230307, 0.0006862360832252697, -0.0159665955030566, -0.05339657130905011, -0.02242157009387966, -0.007827963376609622, 0.05074379278053708, -0.12988417883763528, -0.02496045928495954, -0.04492782141547783, 0.026442035766034867, 0.06710996413460076, -0.0021242614079525447, -0.039757742380650524, -0.0541812052266321, -0.053309271809737824, -0.09874049647271717, -0.023277271596925716, 0.004742247963533657, -3.8655151753509405e-05, -0.00020916237372092615, 0.00010299364483291168, 3.2402289653628156e-05, -3.614861673568934e-05, 0.00010659635996233958, -0.00416383983802946, -0.014293239671230359, 0.018491754808330315, 0.0950523319487175, 0.028685767369680638, -0.01463231577672634, 0.007659422846437096, -0.10161141274244424, 0.05651312946380097, 0.05008815768648846, -0.025982851854117396, 0.04035709966064198, -0.03099357576041861, -0.005322598739693927, -0.04837304666082807, -0.2540009614698181, -0.15249242200236257, -0.014485899400709856, -0.09417303230688841, -0.01947237746804175, -0.0025549681342149893, -5.968567021675898e-05, 4.6064017442262856e-05, 0.00018814340413199555, 9.583027548871231e-05, 1.1229085504132892e-05, -9.52685306016395e-05, 0.00018867223064705085, -0.0193572033227221, -0.06391741887447515, -0.07530204211283649, -0.02542778673240951, -0.03907358367163748, -0.023891553704772757, -0.18597974059315506, -0.08657680234703231, -0.04028133168052015, -0.036823513265203, -0.08642974775347151, -0.017964141251200536, -0.03012014100904519, -0.11226357297997291, -0.124041989538007, -0.10396599940741608, -0.05324444045215274, -0.1025920622573953, 0.017819824267988674, 4.8913462005909906e-05, -1.6600118966266983e-05, -0.00013382097787058286, 2.9369334708016575e-05, -0.00011263923786882284, 3.916809524496853e-05, 0.0003456192620073695, 0.00010323186943579331, -0.0001164085641963378, -5.8100105443491316e-05, 1.2464849228275781e-05, -1.247450275839901e-05, -6.543709040543085e-05, 0.0021826075757167707, 0.0026102688412089317, -0.013800511274263533, -0.021477917767804295, -0.002164186803029876, -0.009622389120397607, -0.017151342543459132, -0.022667652890615366, -0.030892371646080986, 6.7997202051532094e-06, 1.1237210114259792e-05, 0.0007269590082514391, 0.013900364755327946, 0.011513847184254557, -8.179437641240788e-06, -5.508285264593604e-05, -0.00014949642850367926, 0.00010302493597478968, 0.00010174785360968595, -0.0001879500804276964], [3.217976015619956e-05, 0.00010655282308273156, -3.2258814019040286e-06, 0.0002105539781822857, -0.00016137405635370734, -3.853814186157581e-05, 0.00011062092421734664, -0.00011751230611282837, -0.00034442279837782006, -8.309947179293486e-05, 6.495974166043287e-05, -0.0002358480800619589, -0.00010053959784838838, 0.00011247343034279565, -0.00011380379857428342, -0.0002303070734034629, 0.00010647326671743839, -0.0002162080781217798, -0.0002098993809458682, 2.468367686575292e-05, 0.00023020298647255402, 0.0001878521481547268, -6.866661150561554e-05, -0.0003447350296324406, 0.00011708399167915111, -0.00021423306805647114, 0.00015710238454324146, 2.2614123778754076e-05, -0.000334533085896337, -0.00034430549596460895, 6.111578080197639e-05, -2.3303720093793124e-05, -0.0003650877865260278, -0.00017701176218178028, 1.2338179827856024e-05, -2.6832126000210716e-06, 2.5563631078532875e-05, 6.42637822082337e-05, 2.9602503721500674e-06, 0.00016685827996309923, -0.00021054914723629583, 0.0001949647792199194, 0.0038421562268390317, 0.010757802976991623, -0.0004279496506289395, -5.9500431964297986e-05, -8.606100253516922e-05, 0.024080730224599976, 0.018745983222552474, 0.00018227799725848388, -1.5665425481546202e-05, -7.725512703130542e-05, -0.00012720565614201792, -0.00011683909540187093, 0.00014454277467823017, -5.6733402444471845e-06, 3.121732230783272e-05, -0.0001431550458783191, 0.0001481039399595971, 1.8345918415747073e-05, 9.477671294801036e-05, 6.314205729497306e-05, -3.228250525161561e-05, 1.0264287843591612e-05, -0.001484323500632013, -0.0015265951720459768, -0.00015398370113760883, 3.890139446667478e-05, -0.0014275362301966322, 0.008802979156296525, -0.021369440507689106, -0.00940802181420116, 0.019517983116049433, 0.09090361411383498, 0.12095777558906323, 0.06360915112048285, 0.00033000444731064323, -4.13162951128091e-06, -0.00013583818880383308, 0.01967515549055017, 0.02737205508050156, 0.025260356714650163, 2.9573405907841454e-05, -9.997127792774906e-05, 0.00012903399980633947, 0.0001852530303345363, 0.00013763924049030795, 0.00010005211492221553, 0.0001112174144194283, -0.00021938500024515207, -1.7193039625914782e-05, -3.094795668827255e-05, -0.0009960482909354704, -0.009165552295106084, -0.05040310831898886, -0.0075262123549046395, 0.0038126265850417012, -0.05407545119081719, -0.14382351223847192, -0.016369817816456342, 0.01208922609273086, 0.032818313204852796, 0.1422487708519827, 0.007399472217139386, 0.028930909258642293, 0.004603047322434783, 0.00503894940643872, -0.08535635465827913, -0.03294007607584351, 0.005203992071038288, -1.1456054265430191e-05, 0.00014826185135923347, 9.070838837737139e-05, -0.00023179921382178936, -0.0006305377350519525, -0.00015893916596639002, 0.00046649266536283497, -0.0009913515487118424, -0.0037257371514023275, -0.020019236946838558, -0.061597110509103464, -0.20975610659307864, -0.13765371964152937, -0.034794111516823066, -0.043446425707088884, -0.012137096409539649, -0.06161073585061599, -0.023931604941158355, -0.032204141079915434, -0.06678261271126701, 0.01152163308363283, -0.08855730318147653, -0.1804538169296694, -0.1029292339246359, -0.032854128289734955, -0.046521466046740026, -0.006665344439553321, 0.042144438190159846, 0.0392780711992542, -0.009860303850973083, 0.00016535878751387936, 0.00010963655907018525, 6.332090702943388e-05, -2.489758444539503e-05, -5.574518779420168e-05, -0.00033935242363329973, -0.0019246129949892234, -0.07894767304414171, -0.18746603090711111, -0.1443434245421801, -0.14366841319883342, -0.022313128841786194, -0.0626759689594112, 0.005550545891865953, -0.03807964114620294, -0.12548630898097002, -0.06946975790677393, -0.053229427555688165, -0.10691204038417608, -0.19558340737850682, -0.052329202821333666, -0.061215743402021086, -0.06538380600043557, -0.10814412557473742, -0.07201929832047821, -0.05202970141619816, -0.045898865777501005, -0.020169653653587794, -9.596033613478291e-05, 7.292488983072272e-06, 0.00030812980377867435, -0.0055493823446219346, -0.019306923994377365, -0.05747601767389197, -0.09574682030623322, -0.1504438342489121, -0.12115119784567209, -0.09264286417170904, -0.002310023199150161, 0.09952324169446987, 0.010204644696642211, -0.04704564794721047, -0.007386443750030362, -0.09703272083614924, -0.09302074369083678, -0.04876026842231275, -0.02482328808326187, -0.10455693059964702, 0.011435983626742663, 0.05062511578212004, 0.11830183317317522, 0.09730974434542396, 0.07074995676495173, 0.0703506702223802, 0.03263809184804177, 2.8587602384676397e-05, 7.619326405237694e-05, 2.9612141219931677e-07, -0.002819915635219735, -0.005017438737143341, -0.011874990311724806, -0.02824446961558792, -0.009449528041934257, -0.014057085430861052, -0.12216966520547244, 0.08659775200103788, 0.09564267605769594, 0.17673188178045357, 0.14386518841334472, 0.010768561146055004, 0.19711970971110387, 0.12550637978804677, 0.10921088992528963, 0.07463274448367874, 0.19000185062765776, 0.058151540913791266, 0.1667468726403236, 0.026032283396398535, 0.047978153883147134, 0.05115638145994921, 0.0737177576787986, -0.007679928609762432, 0.0654741267624299, 4.185326571752264e-06, 7.169532388131234e-05, 1.4813148598345023e-08, 0.0001372000007561671, -0.0013195100377436156, -0.001411977070876549, -0.01932653588510959, -0.0300412048022496, -0.08661781990892552, 0.020937509219696948, 0.05819061320834786, 0.013754332227096757, -0.034599342026197674, 0.04487040282237868, 0.17844592365338605, 0.15620062545832766, 0.10061505926401237, 0.1507740517647128, 0.1966139743981985, 0.11784992599805175, 0.23806336863987762, 0.20724254051739138, 0.1368057983688138, 0.06922120465525035, 0.17176910563588083, 0.2723831760793306, 0.0785996599827189, 0.14651961444019312, 3.603869878305633e-05, 2.7151681049477594e-05, 6.551167746187274e-05, 2.5370144816225658e-06, -0.0012282269764386058, 0.05929525657844491, -0.13594382407300426, 0.03017132343635859, 0.019655703363616113, 0.025797853012031864, -0.03066983491394535, -0.0036915437840047438, 0.05295626125856313, -0.0033321002523057745, 0.11699427842419843, 0.0765887320150083, 0.048429542954637, 0.04348384118372272, 0.19760472705300983, 0.24132314648793138, 0.07234960002065569, 0.03436839788177248, 0.05176961566732928, 0.08924817485005554, -0.011925913306748788, 0.14857334867551686, 0.06290079107032442, 0.013758148712434384, -1.549681538824804e-05, -0.00013935736531726884, 7.838631293612546e-05, 4.024679201995798e-05, 9.632966987283516e-05, 0.020777932766770833, 0.00708032274198671, -0.022760131125906236, 0.08269852772758468, 0.018451490153046562, -0.04145735170795021, 0.05421760998408422, 0.05352599245682188, -0.005505703988536403, -0.004270586396710459, 0.014576780476768069, -0.05900462832966172, -0.08231662156726047, -0.10559217096019284, -0.1499893263815125, -0.17113021317474936, -0.17691379168519564, -0.12525610624637037, -0.16508430266120938, -0.13162576467003198, -0.040072517683426886, 0.1280023340637874, 0.00018697769021966813, 2.4692917114100422e-05, -0.00011412957750098776, 0.00010942375152131374, 1.5799253582998732e-06, 5.804829884991856e-06, 0.03613299654838434, 0.019386052652373018, 0.013575931016306414, 0.004632857105733729, -0.0859523665800995, 0.009302419199190476, -0.010149746662448523, -0.09142205211634603, -0.0832603237765934, 0.08051568551346673, -0.11607661853570123, -0.15128546038414561, -0.12155649338887078, -0.3057411040524762, -0.20020398695208025, -0.3004738789097093, -0.29519382062330796, -0.21330007461870312, -0.2770722080080464, -0.22039177668712623, -0.14582429884407858, -0.0003421884332615996, -0.0003631123239017202, 3.261453325071764e-05, 0.00019472382735231627, -3.591438748135364e-05, -0.00010557687017479129, -0.0021495894432830877, 0.007811265394529293, -0.0012323078210826066, 0.024682833231724266, 0.05971792741452938, 0.11850189933378193, 0.035333680769377596, 0.05575569314190518, 0.042078656687561625, -0.06465936254395022, 0.005784913417944158, -0.052627171434347794, -0.10425006862737926, -0.11396124970711356, -0.10492275917295205, -0.19085722000373537, -0.1828712333243315, -0.2512604784054276, -0.3687236408923185, -0.30372744170615495, -0.283787002058232, -0.16690879775522613, 0.004247990005849579, -0.004336130968102703, -0.00013244585304821702, -0.00015068729616332912, -0.0001453202574954804, 5.8622904960677035e-05, 0.0012423624386889206, -0.00439246622301139, -0.07746965021278744, 0.000532975841978406, 0.01341930915636356, -0.001848423199799874, 0.015978387024236877, 0.009987224624799635, -0.025703276937339706, -0.033065832852778115, 0.013494546578291076, 0.0966723157922638, 0.054911274224125846, -0.06152384024326046, -0.009389126088133203, -0.08104653284352502, -0.07313739006137789, -0.153742712230074, -0.2433153557799641, -0.1351559568866861, -0.2626580767818696, -0.06342522513771026, 0.0037349541279847443, 0.003382294595610305, 0.0002223977880334129, -0.0001309760553919623, -5.718292355191055e-05, -1.8549062353209657e-05, 0.001109480845400572, 0.04592548243393084, 0.005840361572231973, -0.02868260334710053, -0.015552619686020093, -0.0705334440965836, 0.01283371963055074, 0.04732111576558323, -0.06733083287516205, -0.05460843445213984, -0.018192372473844136, 0.029680348610991728, -0.0651615598164265, -0.012380566153327903, 0.0343610049695222, 0.07169956074501929, 0.031189733311184978, 0.022289725870813654, -0.13410399073214974, -0.08023938479875775, -0.07675383009496457, -0.04386207682990489, -0.0014519480748277289, -0.003051891038243479, -1.586762149612727e-05, -0.00010523032748423135, -0.00010580219691680101, 5.1199965291152155e-05, -0.001970935862340307, -0.01675930005300913, 0.04875734183118565, -0.04636320889620112, -0.029521689304688906, 0.00388475437004473, 0.009197547219822829, -0.00014486798973822757, 0.01617139163915976, 0.034566425350839695, -0.04506460704887647, -0.006699380361630098, -0.09730373788976067, -0.03340276521507342, -0.07774243458989386, 0.09707755573645153, -0.0163361844206024, -0.04363258054922822, -0.10331879457463845, -0.15338814809138646, -0.04142141635268069, 0.004264901575750505, 0.03690882487697832, 0.010834179524830468, 0.0001243010935377148, -0.00010403447771610975, 4.993996247777994e-05, 3.2033930207472305e-05, -0.012023370603158154, -0.0668210876937506, 0.0011346703248811256, -0.035899894452966215, -0.08453875986979145, 0.035324698143963856, 0.0441584082751392, 0.046458978833948825, -0.005167506417813492, -0.05577587280885945, -0.09674886349088609, -0.030058617276394823, -0.08405210231057296, -0.06160161972161676, 0.0053745988189011365, -0.022722602185813522, 0.008677223597102603, 0.007310103488449024, -0.11072823198457266, -0.11403847388146714, -0.1321139943581186, 0.039922653094271364, 0.004178973300497794, -0.04447051358247401, 1.94564943272951e-05, 0.0001150192981444761, -0.00035745571405425725, -0.032489980796703524, 0.00032970686955499374, 0.0454464829762057, 0.0061804950527476294, -0.007201299439655841, 0.007478979441733504, -0.0666779083386365, -0.044876825944291855, 0.003352448678721497, -0.06965448487030426, -0.1425353868187051, -0.11006104277748475, 0.0005012632687498408, 0.005699492974985414, -0.05844634655084275, 0.04743836879035698, 0.040884382602803304, -0.04189073141132169, -0.01115705287394608, -0.05420501439665671, -0.004387408839383097, -0.06404424010223515, -0.007911353258983298, -0.009016367292551617, -0.007735391211079212, 2.8249650603511922e-05, 1.4890484611668814e-05, -0.02525311346210284, -0.03192177049420975, -0.010161226747995713, -0.028303410892413457, -0.02894205848325851, 0.0862087723614637, 0.049893126177518156, -0.0023187113407179146, -0.03340758009595957, -0.11490859089110408, -0.1926121155061, -0.052062330631574685, 0.02046319162394264, 0.05398139314646314, -0.012547962132504926, 0.03155882049185203, -0.021632841082386906, -0.046446376308440486, -0.01150874946333638, 0.044847047822632095, -0.14704730644644287, -0.08735724054725152, -0.06464900774255744, -0.03334446298235408, 0.0017009349974278056, 0.010159021947105312, -6.534526358777626e-05, 0.0001698230080092399, -0.028344831770048807, -0.028763067756523066, -0.12395495001936052, -0.05703734777971791, 0.12429837578548586, 0.058472844273677695, -0.03489179189307459, 0.04026717122817407, 0.024817915785527726, -0.14652741275601872, -0.013406916188898102, 0.07221916760803239, 0.1627777129598796, 0.1528482237582186, -0.0028563324477630446, -0.06371477798618051, -0.05191407821054662, -0.000711956805539031, 0.05260803685811097, -0.0009957162641941568, -0.061065290328425094, -0.0716041461436476, 0.012365587078965151, 0.025893729861894747, 0.027136782416067946, -0.009052121920947603, 0.00010964187237636772, -0.00018731306795398357, -0.005246190082222001, 0.0016210363944070849, -0.1755780700260001, -0.08780096039092354, -0.01450826618971609, -0.02428776236034618, -0.03375683157431296, -0.018001645609070797, 0.005486589745004066, -0.004807927673958892, 0.042772331385092933, 0.11367140401252764, 0.011324761842985205, -0.05690967729620473, 0.16048078705583538, -0.030892943748758797, 0.020663288948177844, 0.004106419062547982, 0.07271481646700012, 0.019341491891171923, -0.030363417461877103, 0.004163761197110077, 0.02338425119138592, 0.03242976195628205, 0.02358037578455372, -3.641110725193512e-05, 1.7407516750482978e-05, -0.00024856470693704027, -0.0002690411477827546, 8.807406442375349e-05, -0.017548563808045037, -0.019509733462996955, -0.04296702121655039, -0.07118751073849976, 0.02026333008009961, -0.018287348570194133, -0.06747794644954971, 0.013564737502656837, -0.00506155688519274, 0.03651186756850096, -0.02393814867220376, 0.04697009029779387, 0.031009427687445044, 0.03913659146674133, -0.024255549534758145, -0.020532556779533116, 0.03078460022494642, 0.01601282408542086, -0.04574366016438796, 0.0014155184045391833, 0.04235430899022631, 0.038368963674215856, 0.005001934669258571, -0.009972671324589873, 3.178211819278065e-05, 3.788942429344623e-05, 0.0001092437046113368, -5.105894644450223e-05, -0.001814860769385279, -0.003964714652006027, 0.0011934537544111901, 0.008996087631737135, -0.019855887604495467, -0.11527653184396358, -0.09968326949487086, -0.06809423283853633, 0.001233090446796721, -0.03688115265834127, 0.029623561336742116, -0.020754764273530044, 0.022978593755743792, -0.09016822950468086, -0.12247322715413238, 0.0460008672742535, 0.027273567034695845, -0.006819504393910228, -0.0826158540949385, 0.011600477724948413, 0.05310097073655638, 0.06299783110294956, 0.03178700772127998, 8.891481699510693e-05, 0.00021699196630021572, 0.00016164254411712506, -0.00015771275609425522, -2.405557681583131e-05, -0.0016556788499248237, 0.021622362814066466, 0.011608159594279622, -0.04758943195080315, -0.06491976038338278, -0.03224441562949616, 0.044031849176093894, 0.001394768367777581, -0.04560135381496421, 0.060077668407921316, 0.01136308909013588, -0.12215464775553124, -0.10361592231785191, -0.01753254424031438, 0.07034117958267833, -0.011965925743930171, -0.04317306025875195, -0.004841844639498805, -0.07949086815923848, -0.02725821145722861, 0.02402994424294188, 0.033010029877433775, 0.016740665162017516, -2.064897325207198e-05, -0.00012942983254944128, -0.00023041195885334858, -0.00012961447326771366, 0.00010261408668083076, 0.00465367833140843, -0.07628159154955672, -0.025625666238736983, -0.16260572517005673, -0.046945476369139635, -0.040264517015117296, -0.0013643131259448783, -0.009444204212140097, -0.004169916994845109, 0.09426127949968106, -0.07404607214638098, -0.019657669424900867, -0.09135235166030299, -0.006476929313787275, 0.03667713546439368, 0.03209101032083518, -0.00736422913306666, 0.006111744624081315, -0.04905617435201475, -0.019920515476058383, 0.02434404519826478, 0.028162160142391736, 2.1530842013387656e-05, -3.481788506607916e-05, 0.00034399229906655683, -9.518550514706666e-05, 0.00012932045491892852, -0.00021514760853383715, -5.782202325587698e-05, -0.027725825031469354, -0.10282555932913963, -0.08254591488965762, 0.01023376359088992, 0.006830805877117594, -0.08179277778333616, -0.06111872036037999, 0.004469087473743157, 0.12431547707905456, 0.06459747269175947, 0.03022717014408094, 0.13143082655719782, 0.14910823359157255, 0.23297554957535427, 0.047508271294317006, 0.19085327914040628, 0.1170072716879781, 0.0680874477929285, 0.09387318551805422, 0.025305517529885312, 0.029679928021993072, 2.0580555730285333e-05, -1.2012862579804438e-05, -9.533832835383849e-05, -0.00019165786650159278, -0.00015708702901596675, 0.00011215792344162139, 3.4717036211813706e-05, -0.018913498822808607, -0.04158206242509143, -0.05034539097183711, 0.0002600377496796769, 0.006337632777668019, 0.03293363185759845, 0.017963921572781053, -0.03189732165205318, 0.08803246049565222, 0.03394809716793556, 0.019192423833316572, 0.19271969353701268, 0.1653150173960094, 0.22449951873109325, 0.15928377943261984, 0.16936318638748263, 0.07164209941898701, 0.03207454308407272, 0.002081141244918536, 5.6501334029328645e-05, -0.0001402409429426719, 0.00014696762089711513, -9.054075628300662e-05, 0.00011186592982545692, 8.439489755356575e-05, -0.00019450800903382314, 0.00021403172375156107, -0.00024197137837540648, -8.652251617713143e-05, 4.5347944106656444e-05, -1.418686408493925e-05, -0.00012316794360821146, 0.00014688395952906476, 2.3087041754418964e-05, 0.009798387675876844, 0.005335116751767827, 2.0719285920428402e-05, 0.05115465834590223, 0.019468437783731463, -0.01142955062133334, -0.007247262217303313, 5.1464195330156516e-05, -4.4242347992468826e-05, 0.00033355769399531516, 0.012380619500456463, 5.696377125274609e-05, -9.814731173843352e-06, -0.00017013688748923343, -0.00015085673341029302, -4.342892224271582e-05, -0.000188597815531388, -0.0003448420976473553], [0.0001028202207601341, 0.00034495732545624996, 0.0002553013658822063, 3.4675194083586675e-05, 3.218603695521551e-05, -6.07376254966614e-05, 3.528122416740988e-05, 0.00010272608865178029, -5.133428591408312e-05, -0.00011548842770374954, 2.883053516827777e-05, 8.02712261465787e-05, 4.81906053667372e-05, -9.989224957515802e-05, -0.0001109890781992613, -0.00011442416285225919, -3.811086491688602e-05, -0.00014885954729987525, 0.00010095396716707609, 0.0002144291050584061, 7.94268092587741e-05, 0.00011670669478281475, -3.241306189623368e-05, -3.2177914309778374e-05, 1.6040220747336631e-06, 0.0001216883190823982, 3.834621175923966e-05, 0.000165405743227033, 0.00014928986246590993, -0.00023024145983913517, 0.00010277664566586334, 9.06181062815912e-05, -0.00014391378331878165, -0.00015470160393522264, -0.020430295825389622, -0.03949169874549648, 7.82948307638387e-06, -1.0359911626871316e-06, -0.020621477851361123, -3.873183644175443e-06, 9.782393219328615e-06, 3.1758948454138907e-05, 1.6184252065717707e-06, 1.881307405081659e-05, 1.544695076862304e-05, 6.68159216122911e-05, 2.253545692172359e-05, -9.747307181655464e-05, -5.5114513662683935e-05, 0.00010558352183611792, -4.1452940753822494e-05, -0.009072925102070707, 0.00031241062481002446, 0.0001485993359349034, -0.00016449987656756959, 0.0001653882440346513, -1.6043682842128797e-06, 9.194066054394279e-05, -9.089729780936172e-05, 0.00018558219570958005, -6.099041203499486e-05, 5.981264742272875e-05, -0.017037916404301627, -0.051575221736403366, -0.04579979460050847, -1.6500302007674638e-05, -0.07016183118167153, -0.12747885392197847, -0.13960302469299904, -0.0992013501360634, -4.911042075644827e-05, 3.5771171805694515e-05, 0.016892921234617234, -2.9961274743380105e-06, 4.2559061667590444e-05, -0.001776954886487343, -0.001580271227177984, 0.000613484856748895, 0.00014668457229665292, -0.001380131042795297, -4.840529821589219e-05, -4.05245823399089e-05, -4.889397352181085e-05, 0.00022832896948381351, 0.00021277947562829992, 0.00023002271798825417, 0.00018865974509582638, 9.907997609481727e-05, 3.00302090027963e-06, -1.531320220727127e-05, -0.0049668628941857175, -0.04336953030532503, -0.13363114301309487, -0.15151390554988312, -0.13043650116984784, -0.18319299629686686, -0.22164035752094954, -0.16333230133808516, -0.01759744624859829, -0.07443821532350116, -0.026671340212994964, -0.019660812745239002, 0.02532210992712739, 0.010058342724530753, -0.021778194630397495, 0.0037112991970324398, 0.00024578421262016684, -0.04946384569940751, -0.0057484672839228645, -2.4098559685660805e-05, 3.081593951361981e-05, 4.9283381542605245e-06, -0.0003451346102109781, -0.00019506552421829672, 0.0014535476460837587, 2.092680846745763e-05, -1.6755620159300925e-05, -0.07676349114532367, -0.19310783153544459, -0.09884825078487709, -0.010581291054038641, -0.04651265262974702, -0.11961090402565273, 0.013429774150376196, -0.0829256342159086, -0.06887598185653415, -0.05124626225828303, -0.08695996804591502, 0.003129452455498077, -0.09214146599766763, 0.01945234240574204, 0.02045747710328066, -0.03008005476262888, -0.021794230174873027, 0.005112649709487782, 0.058630740981325244, 0.0796986124910232, -7.136785996529096e-05, 0.0064372366456173225, 4.497517323719064e-05, -0.00018818100758803284, -0.00018642222941700454, -7.029434507342623e-05, 0.017024280081428523, -0.00015656696591692155, -0.011667398711986906, -0.06657506302327322, -0.03034975691787578, 0.06001893487995111, 0.10503533290208308, 0.12768123597151448, 0.0422723613164579, -0.10601961500585746, -0.04407440472935636, -0.04546716853329856, -0.11881957753837483, 0.00596594785794235, 0.11267996589747331, 0.0011344177558105725, 0.01068521893018577, 0.024313471695808306, 0.04918053695309737, -0.03137115555001046, 0.03250233452057403, 0.11446074508152779, -0.024734420553437515, -1.3786306652482327e-05, -2.5191784321735695e-05, -0.0001885077402062078, -0.00021998711482820548, 0.009432406403387555, 0.008721775707109978, 0.08353898395738008, 0.13550714210189108, 0.09540765312705206, 0.09256270077668063, 0.13182635149002092, 0.22764228177985935, 0.048594089957549845, 0.00010320694561462485, 0.003965400295158027, -0.16123020537840463, -0.17468070962543786, -0.11756957170071643, -0.01449263148487427, -0.01255934518312024, -0.0795429378262134, -0.07209078787232041, 0.011423174211752556, -0.021536355849761903, -0.030302406540737, 0.08100781866268467, 0.04789778763951378, 0.04504626631241214, 0.04855656409088674, -0.01665495588150772, 0.0001462178164034485, -0.000244802401124154, 0.009195272832538444, 0.002203431387562256, 0.17516923053138395, 0.18663053532306392, 0.1397043540711081, 0.070773577007011, 0.10644677547663527, 0.1433473243585463, 0.08249406957127839, 0.05038533791909137, -0.11173461078083716, -0.10232745133030219, -0.08247113624562417, -0.01512553501332975, 6.9294903190612e-05, 0.024836827639786226, -0.023329304121688238, -0.03815438241547507, 0.007266649490663836, -0.12404910802738071, 0.031889021377620806, 0.022183744811204144, 0.12279281182385306, 0.17265217779645772, 0.046986581679222754, -0.015855421052446243, -0.0001190033131388872, -3.77106496474146e-05, -0.0001308112359346418, 0.001588455933978476, 0.011709761761716175, 0.15215825485983156, 0.14831394713909568, 0.059656979488823224, 0.07361569694119793, 0.1760841550954886, 0.10139539661367876, -0.058587224089208655, -0.011657398124601665, -0.10074516041016604, -0.1369975790900554, -0.060442554360868046, -0.02456590616929875, -0.028897860253298227, -0.019992056154828824, -0.03273240209517893, 0.05567457262813146, 0.08413984957888697, 0.022790346881891126, 0.16499078293956196, 0.26688309203666294, 0.17478470169508156, -0.0003410628407076706, -0.0001436823545235443, 0.0004581657706506221, -0.00011936815034020123, 0.005971806003296337, 0.0005354336374750819, 0.016377619895429477, 0.012379951722329452, 0.04507730264301956, 0.0312615445937978, 0.07688213774944565, 0.15396463180813488, 0.09000050271907975, 0.19427251600698361, -0.09307475529466598, -0.13321197146760372, -0.022047105061937567, 0.017501359101485058, 0.09618049659319616, 0.012735936420206772, 0.023153466421824347, -0.004398330702770539, 0.03399269928097366, 0.10223079238029599, 0.17459737167277029, 0.09101704006428216, 0.15222416677090783, 0.17698610483974997, 0.03917391774641612, -1.7884060982355152e-05, 0.00021704239751393526, -0.00010503346719826565, 0.013070001725296126, -0.05837337179189515, 0.025908851491564813, -0.007518926355816911, -0.08320915200888065, -0.05563722188988554, 0.059239660497508916, 0.10713518959358466, 0.0779507441377086, 0.00632812025586605, -0.07474007250032713, -0.07312218628090451, -0.11275805807496983, 0.1285759162465183, 0.03053040427380195, -0.07890689863892798, 0.005588259739835912, -0.01516781678066375, 0.06332950038957709, 0.06370074708465943, 0.02905236663614139, 0.09128605579624206, 0.17520877477276162, 0.2914812249670129, 0.11146815663203472, 3.544826003392724e-05, -2.8617157081008588e-05, -1.8977572636387206e-05, 1.4772608759364993e-05, -0.0021748629365399173, -0.010335269818134523, -0.09702185857678998, -0.11297204984311224, -0.09270615266757458, -0.007538133983928782, 0.07799982445605445, 0.16703792230294115, 0.03546678250620656, -0.04957266419146996, -0.09141881245384494, -0.21053280123245374, 0.0706754851526437, 0.13000240614663405, -0.034859008301014634, -0.031238745062404708, -0.1250464895023729, -0.024579373982063977, -0.03872210777409715, -0.13702223764482924, -0.12411929398239231, -0.0460968071459183, 0.2507637326683105, 0.0889220603754916, -3.512892249116106e-05, -0.00010254696155814094, -4.268527394222526e-06, 6.422849248502576e-06, -0.004489115730327409, -0.1612188717511934, -0.017937114825889222, -0.0038504301581126985, 0.006722979700780315, 0.028019127133382386, 0.08034887661111995, 0.07564196624522279, -0.07383258612681323, -0.1094935649934645, -0.20370427082948417, -0.09727035761106367, 0.06385349117134187, -0.060658390181562355, -0.06214434441953449, -0.11613660358761707, -0.14708214428822655, -0.055145849162072005, -0.06360664522972975, -0.06230945303490465, -0.374075722353498, -0.31432501407178765, -0.13069411184249352, 0.0001118325444356629, -2.6108562174089122e-05, 0.00011469887743765229, 1.5960336761398056e-06, -2.035872831779376e-05, -0.009361431236052093, -0.09554442754152045, 0.07297091846046613, -0.013283292078140007, 0.07954325757062233, 0.07802372640814045, 0.02134684178024492, 0.15062483664109902, -0.019238241820763103, -0.068380263368988, -0.11159304751133557, -0.09003251392010506, 0.00967604275232918, -0.049371544500205186, -0.01360019068976462, -0.07964826525597057, -0.039625446677590125, -0.011754024391403224, 0.030474982806561392, 0.053173523660129104, -0.11879164427148084, -0.12344966539953083, -0.014092304403145546, -0.05619651027068149, -0.001545896080458027, -0.0001158009434336089, 1.309800330215958e-05, 1.241735554845919e-05, -0.005833075998426148, 0.021476501083501746, 0.07154370923620967, 0.05068271715808934, 0.10966003019069731, 0.05178227357908811, 0.06342783788343499, 0.044826597843747984, -0.031849786933389974, -0.0018517047285404077, -0.04472691687510348, -0.04397587898239993, -0.011145456294805059, 0.042154187743882555, -0.026095393831203538, 0.03068686314792778, 0.008669323373622096, 0.008042819538180798, 0.08517539049032678, 0.21268049535974748, 0.06983319421509723, -0.029673879999951962, -0.03508375705236002, -0.05727122188577254, 6.410338696317078e-05, -9.58781753444965e-05, -0.0001712713026961098, -1.8811709074180716e-05, 0.03544906618144901, -0.002579191317627827, 0.04640164266496331, 0.04579891515586651, 0.11882040147943707, 0.03435005414163347, 0.08772863842037804, 0.07633595677140734, 0.08710566789648122, -0.05687900560490473, -0.04494126400819695, -0.030109121776390985, -0.07413405574145873, -0.03515633187962956, 0.005315701536637301, 0.0016033327101684432, -0.1102711907690069, 0.01414518544594292, 0.05133879904316285, 0.08400803364017433, 0.06570993354132135, -0.009344864026963735, -0.08316296489228271, 2.8444993587778416e-05, -2.638765511674438e-06, -0.0002164157595296709, 0.00010950640402069599, 8.78143949068209e-06, 0.04668276634755746, 0.035455414032069844, 0.01248803412653087, 0.06268031705626582, -0.04063213173139506, 0.07956164435030975, 0.017193218886197, 0.08125143058551167, -0.025003326015452566, 0.0027321552036703926, -0.07574497020821915, -0.002499188004208508, 0.039023039606327775, 0.001994824450479091, 0.0034467003352092055, 0.009604602402737198, -0.009430438714754024, -0.09786630620260116, 0.07370265802997761, 0.09242824568775851, 0.14240038989533005, -0.08456605571454401, -0.17262460834803212, -0.10001580978139138, -3.0022148427546456e-05, 0.00011648401688595294, 0.0001803092757225073, 0.011313507898333314, 0.0003164737879834915, 0.04112717264868609, 0.02970147555122891, 0.02189487550232381, -0.021424929800692376, 0.03243233523298716, -0.04618767049348467, 0.0412851204870989, -0.07354325741778484, -0.031155169342681272, 0.04435702233624763, -0.1164401727982682, 0.008362523045464962, -0.0758242597833267, 0.018709456357562135, 0.07802461407652148, 0.04231326529640568, 0.049798024940076395, 0.11562375165068203, 0.11649651502425132, 0.07095700378211729, 0.08206646803807771, 0.013600237826889038, 0.011370776974169633, -4.090066553453159e-05, -1.53545656536058e-05, 8.669875309485213e-05, 0.013987306011743486, 0.0003441559583387618, -0.01143475335890998, 0.09368418798426646, 0.020190035144500285, -0.006114045232992606, -0.031006915175664816, 0.027307067737177733, 0.011570953561337673, 0.030920915188857777, 0.0047836588953900664, -0.04475044173122013, 0.033688468248968755, 0.00046267176458844654, 0.0548169930249815, -0.024584696089934813, -8.8720849413615e-05, -0.04327438424576096, 0.010021760533094419, 0.0003971542438921115, 0.04349186863226754, 0.06872319987170873, 0.03598625366491025, -0.13475170243073092, 0.009954155704382829, 4.89086172083851e-06, 2.8350138272765184e-05, 0.003261874931416397, 0.003932177695554139, 0.0008125772822965807, 0.031502191899033964, 0.037910925382904956, 0.006241903495579346, -0.04204281866888841, -0.005152526796494257, -0.029035791325709374, -0.08950757133605207, -0.01628046814867278, -0.04613057917814854, -0.01633085952923495, 0.05584202392630583, 0.03132669373995613, -0.010316618277765886, -0.056735337170248264, -0.03264340175239685, -0.0501280942866062, 0.017502457926650786, -0.0016067416509977326, -0.00886361630221022, -0.029813956512796055, 0.08506813557862677, -0.10169150666191733, -3.125515892454522e-05, 8.263673559752544e-05, 0.0003449910931960525, 0.0002629067963126193, 0.0027996023796249083, 0.0032875202116176665, 0.002331137205124488, 0.06046340742542876, 0.04202773435730214, -0.13453642927844267, -0.05901086825936962, 0.032262580352023534, -0.15404733897894127, 0.012437998410321048, -0.040145537675235834, -0.02385479479798136, -0.0009036256607995109, -0.031998484240374554, -0.019177940185816682, 0.017418593049072048, -0.01007704171821208, -0.05417911988398668, 0.02224800468181491, -0.0008873745813875976, 0.009113043254134218, 0.018966600827012552, 0.04993010472298393, -0.002616776368362649, -3.982029522241343e-05, -0.00012766895461990426, 0.00018092666890602056, -0.00010982609974300547, -0.0005787772081211534, -0.005545284573950859, -0.002187285102855686, -0.011077629924783368, -0.02974533260822184, -0.07829531864635754, 0.03719288892451617, -0.05209261623225915, -0.05502185271048559, -0.04179702039052765, -0.04410967057290579, 0.0040242276889631895, -0.04090734570427799, 0.017967974456463268, 0.001202742967491327, -0.05335128324042648, -0.04908958106663517, -0.10018527849417773, 0.000157759776358126, 0.016197042608775237, -0.018473581835828996, 0.0524533235785076, 0.06816771380068598, 0.0172744164923348, 3.100948791860326e-05, -0.00013415305343207105, -7.227004918055713e-06, 0.00013432089354909136, -2.2173793243195968e-05, 0.0003596863550943643, -0.18246727737286086, -0.20246187518246767, -0.0351248625237526, -0.0364825499721352, -0.043885729182993126, -0.007379622886914625, -0.014504749420134707, -0.0572393551794527, -0.07165760364067078, 0.024912033531708785, 0.06070599725545882, 0.029137122085074824, 0.037265198848077025, -0.03815634392164792, 0.002797301520601033, 0.005341961567812318, -0.014517505797331976, -0.017679623388956244, 0.0026008671456073168, 0.031567433498482504, 0.049595445719308545, 0.013110903399335414, -3.394549534417007e-05, -4.295359152571565e-05, 9.056509595873744e-05, 0.00015018020095072216, 3.228036881589587e-05, -4.503921323438e-05, 1.349338666631892e-05, -0.03816886533800608, -0.03380277332510985, -0.02392019206215537, -0.06795185445982826, -3.056540749455392e-06, 0.0034308149447252537, -0.09453194958420758, -0.03344877085455391, 0.038433445274755985, 0.030584012170406773, 0.05452698979424592, 0.19418490943393243, 0.08021639628153117, -0.05995451777872294, -0.10104231051923794, -0.10613548464805515, -0.05194276400261996, -0.00796612848257712, 0.018723282970748475, 0.05965344718352782, 0.01745629904790294, 3.5973325347109994e-06, 0.000147826883488266, 9.094672628692415e-05, -0.0002321096738705639, -1.0099380185482566e-05, 1.0538385984861338e-05, 7.366472611208473e-06, 9.97244671362727e-05, -0.014889003406342397, 0.041995329192538886, 0.008666293130145603, -0.01890474174799798, -0.0949527410202017, -0.10019003073889679, -0.08885726033371222, 0.05188092841416292, 0.050760072764347526, 0.0076208213289039334, 0.03910205064234818, 0.006766320950223584, -0.07700456454236108, -0.004205645921035695, -0.07736438292392452, -0.03475234172924871, 0.003606192426481529, 0.01216268248540963, 0.043812961078659486, 1.073519715333083e-05, -9.129618393091663e-05, 0.00023201460342244247, -0.0002298180501851909, -8.62715281740374e-05, 7.14748297868191e-05, -0.00011993236616071449, -0.001857578949176209, -0.014222721147763207, -0.0016555319993025426, 0.010108319984569614, 0.0449850900233849, 0.004637240473693413, -0.21596481693035513, -0.06320667475793391, 0.006858376363873447, 0.07274540169011698, 0.02206649055813657, 0.007378570878110445, 0.040752292501481255, -0.035669864275697516, 0.018305345492950906, -0.04432306942926787, -0.07470331292792076, -0.00039104902954363666, 0.040770151986292316, 0.05660716709833463, 0.039740033397954164, 0.00014440720971265443, -1.6244838603734186e-05, 0.0001295239873383505, -0.00023098621928099392, -6.086682018982e-05, 0.00012950046580149826, -9.075206858625906e-05, -0.018011803396831776, -0.015264607577507536, -0.051256109713964375, -0.016118141910780544, 0.0009172246903147858, -0.013726333410519525, -0.18062974856150968, -0.07043394977493683, -0.11147316713141646, -0.20550870457824852, -0.19859665225892814, -0.14145324224889402, -0.01926830238228928, -0.006191201419084669, -0.09900171939472524, -0.026392813250981768, -0.010523300088670376, -0.027177750314511626, -0.009139184898667588, -0.009322042430383405, -9.307348795420187e-05, 3.45442731466255e-05, 0.00011772227460811153, 0.0001485655144990113, 0.00014010396348783168, 0.00011670519393549067, -0.0001187846856435488, 0.00021244920324557968, 1.6092273139475767e-06, -9.863658236849683e-05, -6.18866454944496e-05, 8.946567493709273e-05, -1.0354482680890933e-05, 2.1628480183540042e-05, -0.00034724103522992627, 0.0027307748341913814, 0.008670411339916804, 0.007042315358345375, -0.007045242867089293, -0.03571629191602486, -0.028933854561821327, 1.0449443024771702e-05, 8.551423582165934e-05, -4.126668578216208e-06, 3.999129772042231e-05, 1.4728748678855509e-05, -1.02885826424008e-05, -0.0001163374947584588, 7.92367070443137e-05, 9.543823294387647e-05, 7.81311486361137e-05, -0.00023118127976449776], [3.449648531218732e-07, 0.00012954675386028016, -0.0002302125797450113, -0.00019420778991282336, 9.055888718058916e-05, 3.19059265681836e-05, 0.00016543648180797663, -0.0001292048007246506, 0.00021891376532750324, -0.00022953774661129507, -9.571675643327233e-05, 0.00012920891074550946, -1.3561430182554903e-05, 0.00011565560098026237, 1.8569975461084714e-05, 0.00011610926335783353, 1.863613749702195e-05, 3.0307079333763957e-05, -3.227276469952628e-05, 0.00017234867392615778, 0.00014983907070294418, -0.00017884202744912478, 0.00014998428508977607, 0.00020958264179536223, -3.159353789643679e-05, -3.068516816133009e-05, -2.9119026706034465e-05, 9.07587721143709e-05, 0.00023120282444813524, -0.00015511172456216392, 0.0003440280501024798, 0.00019704030747771123, 2.189553635376112e-05, -6.49378456580602e-07, -0.011056730855533685, 1.3924175510852634e-07, -0.010027529789833902, -0.0010691997097590827, 8.452211688067604e-05, -0.0006833449976134385, 0.005152992657024975, -4.634614360646017e-05, 0.0012255634881608384, 0.004524623466112745, 8.536834365338407e-05, 8.141020442982396e-05, 2.2557382434211063e-05, -0.02161877286569099, -0.017163652894355667, -9.691186645038368e-05, 8.942808376616697e-05, 4.718951821610096e-05, -0.00023035896275107665, 0.000233209881931453, -9.069103626814512e-05, 0.00010083241027345502, 3.2028256539079854e-05, -0.00016146719744025066, -9.505953856422153e-05, -0.00013905695427715678, -5.324895430487033e-05, -2.1307524660185195e-05, -0.00636184018551411, -1.0004908928322162e-05, -2.387583616048043e-05, -1.732005888007321e-05, 3.7651507695717405e-05, 1.2438775227559859e-05, -0.00019353211896454267, -0.00805318773409498, -0.0008167532761501528, -0.12980803450014872, -0.050639779459120515, -0.016019251860148947, 0.013501253268100932, 0.02964389882621672, -0.016018762160986525, -7.166109263792674e-05, -2.015721344217003e-05, -0.001408474003713258, 0.008893835327416595, -5.982209674688281e-06, -0.0001002306618132874, -2.17071181843131e-05, -3.131525111453415e-05, -0.0001216526510755251, -0.0032516958209230775, -8.027932081889944e-05, 4.5325257140665196e-05, -2.8634681270078143e-05, 8.468736191460963e-05, 0.00011802720147800221, -0.0007023641743739005, -0.011038372327049408, -0.03436097029575414, -0.06626325283717883, -0.04249841238645155, -0.09769273479384447, -0.11273448874070312, -0.1908028353051036, -0.04183580671464057, 0.08863331204046958, 0.18383028718057934, 0.12366880274277178, -0.010802279201932583, 0.08299084787958136, 0.08897565396564859, -0.003463318624354364, 5.3041527927570064e-05, -1.6320478032486662e-05, -1.6359089616453117e-05, 2.9477157075609456e-05, 0.00011842628212346495, -0.00012938293694685267, -0.007720419695834676, -0.0019897622045129365, -0.020301927159512494, 6.296110084721309e-06, -6.199321967876902e-05, -0.013426236779657229, -0.02184882366151964, -0.030322560903168295, -0.07254719921276913, -0.201334064356432, -0.24958463079013585, -0.1603924742237103, -0.2771482841212495, -0.21282399294980883, -0.1360285154272169, 0.028331588640899026, 0.1390892735531559, 0.0739321913752798, 0.021120845064719836, 0.11856151178823722, 0.0302230117544533, 0.07713857735000011, 0.021637418212324004, -0.003319414246120658, -8.456678986393153e-05, 4.4129796818348225e-05, 0.0002285266441624459, 0.00011242135969746401, -0.0010627298646955516, 5.5325920260198614e-05, 1.2306862769334173e-05, 0.0030397476973196033, -0.00017741319646327953, -0.017282497023655998, -0.0352187564701653, -0.07718639057049813, -0.04213369980791715, -0.029653886487755347, -0.18406601020212743, -0.27675384403169384, -0.2944472973836943, -0.23322326258769213, -0.18077959306016983, -0.06215135872665028, -0.15898715652881537, 0.053360441374433916, 0.03549598886214026, 0.004914313646793987, 0.007697449708686931, 0.08416474735915863, 0.09125191703005733, -0.009058370676069296, -0.00014978477184330805, 0.00017207007426298871, 0.00021313028767688976, 0.0002210833418955219, 0.015014945942398644, 0.016577515648473897, -0.01910915088511912, -0.10742431901580325, -0.05676455646575971, -0.006151600016475228, -0.05499387216973737, -0.011025005282677424, -0.11346110309053695, -0.1223468830033779, -0.07431118752765131, -0.03455815989891807, 0.007363303289643862, 0.01394710700950368, 0.08892056508148122, 0.20127236735538045, 0.101166679975334, 0.053183247987843185, 0.011351081310064412, 0.023152758337299673, -0.11300239195948214, 0.03810432455821906, 0.04498306748639199, 0.0051412704997158476, -2.948928847125979e-05, -0.0001859881779093131, -3.274888063135937e-05, 3.87680787407607e-05, 0.012100254917299581, 0.015798246863060788, -0.0873254478279968, -0.061550522432192355, -0.1029621391777957, -0.12458947382540456, -0.05217972856956756, -0.09876680504220554, -0.0663104433127088, -0.009937845870512637, 0.0008917196163969576, 0.13642140447004986, 0.22124566887188532, 0.12282949832154966, 0.11541620239897753, 0.051644818878720015, 0.07095828996737764, 0.06989269268296869, 0.0050630955806302185, 0.012007502939832281, -0.09301679220178162, -0.15623166026675167, -0.0009442902901966336, -0.01176969008586739, 1.1438341232925869e-05, -8.622988674326591e-06, -0.025514559482371503, -3.441030943161748e-05, -0.0002278868618237971, 0.016434447426867376, -0.04870506419257268, -0.04401249340827734, -0.07586315036789378, -0.05046109869728094, -0.028088659368039146, -0.07798682981631282, -0.017921913322292576, 0.023319652511527775, 0.12215322337365765, 0.06416329610671372, 0.1950829063610027, 0.012444161268555583, -0.011665632091062826, -0.008482277393710314, -0.024206013595484525, -0.05318540217728086, -0.09631750363222341, 0.14495257040711346, -0.141667542251762, -0.20100080366774348, -0.05446202436861378, -0.00871915447352812, 3.163078557188301e-05, -3.0275085265866112e-05, -8.2705563011405e-05, 1.2818962711994787e-05, -0.01395287105758286, 0.0022084523260191826, -0.05786849227242538, -0.019913989064081594, -0.08754032613087807, -0.03410836923684214, 0.02495753066633, 0.07839703670515799, 0.00878427824099407, 0.05763758261856724, 0.06066646838907888, -0.03677490624798613, 0.03783834091504923, -0.002488949767062798, -0.08026695488813355, -0.062096553722236714, -0.045133944011900025, -0.13575111139502977, -0.10951202266443963, -0.017698827389495388, -0.19108027465039698, -0.19714818595479547, -0.08021826518455948, -0.000951989578254556, -2.2561542867001965e-05, 0.0006621259571389631, -4.353777992188886e-05, 1.0402010909889636e-06, -0.027988483585655127, -0.05782305523264772, -0.13097059352087048, 0.03847918588202463, 0.05399541578164425, 0.002769550254579152, 0.019699953423127005, -0.01251765273319643, -0.037782446114389405, 0.05520830013948918, 0.023265800295450726, -0.03149996273448543, -0.05070598416240037, -0.1008071112312576, -0.018618729495081057, -0.12976630643190232, -0.04703884409213089, -0.025008524203575733, -0.02692476869992467, -0.08510221322896723, -0.15063170930637892, -0.30799461408120915, -0.15979914440680948, -0.0030891657939402057, -1.1631297318647249e-05, -5.530372901091739e-05, 0.00011160212455497303, -2.5403460120363696e-06, -0.007434342812185928, -0.024414760770270723, -0.034549669412200744, 0.004978350151490043, 0.02704581192267606, 0.02968777259084468, 0.13722290325321346, 0.022254033992152648, -0.11306104316540304, -0.014971002361817065, 0.04238103208860348, 0.06073644182142062, 0.06362956020742988, 0.03434049211028663, 0.03487114350850625, 0.0017113947115356186, 0.0386698764365674, -0.03337804168329644, -0.0473824885996854, 0.1153694765365334, -0.03436209073894308, -0.0813265738856094, -0.16290686870156695, -0.09682522685844182, -0.008342958684537783, 1.8361711289602504e-05, 7.542433768088959e-05, -5.43245262739757e-06, -0.003152908395047947, -0.060596684272642545, 0.14934257318077054, -0.039998126996710306, -0.012519731404230192, 0.057545298197480534, 0.0266111191112431, -0.018421934476669906, -0.038810858885142865, 0.013415086120755091, 0.05669143832144379, 0.05164936253728758, 0.15530331416474524, -0.003631046225474338, -0.003775983693747388, -0.006412574492986931, 0.012005064457813353, 0.1927689072323351, 0.022663460506296425, 0.05355416144487093, 0.057846109265539555, -0.034653462848123776, -0.13216821057440895, -0.01645970121483634, 1.214107631354584e-05, -0.0001157770672232012, 0.00010480364611878203, 1.2198347563690465e-05, 1.2845654889239873e-05, 0.0448309299897676, 0.010812779030426423, -0.033023554948759214, 0.02464993162491037, -0.021252131873098327, 0.005787973176412153, -0.01068252493734436, -0.057668263767092505, -0.01801886515632158, -0.001199470330240141, -0.02829901268748545, -0.022133215707768543, -0.003526229264965657, 0.02547485177631619, -0.02469328955223014, -0.005740326148980073, -0.018274428446904557, -0.046112842594957376, 0.03721374642330833, 0.0030523632338156897, -0.16071403788259306, -0.2826071700386331, -0.01133944923356521, -0.007846622026753918, -1.1505658410221654e-05, -0.0004038244627644383, -2.352598406671389e-05, 3.91140112246077e-05, 0.033938137774268164, 0.05334729621561723, -0.15491794958581495, 0.07811140663044552, 0.052131263628418335, -0.00020473872700966166, -0.027302114010932063, 0.015896805295400135, -0.038453577350546116, -0.17621612563747738, -0.041668951190983544, 0.008263750717613965, 0.12747061069434693, 0.021696041840754438, 0.05371055567272219, 0.04419942991203363, -0.021188573540919173, 0.007814172976420257, -0.015400476791848531, -0.09565374439446002, -0.2582738626896272, -0.21538018979788148, -0.0015845586647931047, -3.390529263323986e-05, 0.0001700739222363662, -0.00011843780177890823, 0.00012435190539730593, -1.2727059167387141e-05, -0.07289485864977842, -0.019297228580441483, 0.01554216867697728, 0.11717899598764397, 0.0007695855410970683, -0.0032836635693828894, -0.07750046716578293, -0.026861463021492487, -0.05941838586624947, -0.13049715237113504, -0.02444511221326932, 0.046343421513911603, 0.08881304946570646, -0.05237899531201082, 0.018344236671390846, 0.01918819106556344, -0.01937672599384773, 0.08500388086235956, -0.061145409518627354, -0.15978197346713163, -0.2298782885328964, -0.1417422223163878, 0.0031214589854887086, 0.0029286745399378948, -4.674601128613524e-05, -0.00027116525590073633, 0.0002202346692510208, 1.3876748183298662e-05, -0.09058659805754408, 0.007302884603298046, -0.005301802002118629, 0.0910518430191414, 0.13905683214498984, 0.0814034874830844, 0.014757453905843272, -0.02857211359495933, -0.036025294952892105, -0.047878208281100114, 0.0024708856719760663, 0.036267757174284654, -0.0899582424406747, -0.1057085718999328, -0.05108541765026988, -0.053249256915824925, -0.005255320009781307, 0.09679887074927128, -0.10801402146749128, -0.05916789051621776, -0.19328022154958974, -0.0584250909841953, 0.009738236448713775, -0.011426324827408671, -2.6554730622360284e-06, -4.616607475415636e-05, -9.402793106042437e-05, -0.009999180446878024, -0.013786803155841581, -0.032325798478473035, -0.04223549595699608, 0.05575347487640462, 0.02476295273127527, 0.03531647907389835, -0.027338755026267075, 0.12562817366266524, 0.008149177075653305, -0.1298386049823414, -0.038695162921024075, -0.04085535815824576, -0.013396947426987379, -0.1639348395121694, -0.007363149771580982, 0.020338809252216056, 0.07068719741335869, 0.10979120029566122, -0.040083446516892954, -0.22066803328487905, -0.31451851779634993, -0.14201338333674113, -0.003334054213114788, -0.0015909463156271939, -0.0014199316610705734, -0.00018826086819083697, -0.023708357903974495, -0.02820196462962546, -0.004184931836833429, 0.02079729180322941, 0.06937008751009355, 0.02320483518743934, 0.0054014026329988595, -0.011150542709677427, 0.048626558927090634, 0.07486594324341282, 0.0029336809531868824, 0.003955255028578075, 0.01989259225316673, -0.09478135146077508, -0.07942988059844791, -0.02433954264210911, 0.04857418153677238, 0.013704020086946708, 0.07836788759161933, -0.019340397066505, -0.05246411379968687, -0.2172640518732519, -0.22570691742974816, -0.19621033108061078, 6.564752564316653e-05, 0.0010591883603081745, -2.8036582706480534e-05, 0.00023102334945056247, -0.029537520773861462, -0.040282945831495505, -0.07252237517566329, 